tree
version=v3
num_class=1
num_tree_per_iteration=1
label_index=0
max_feature_idx=15
objective=binary sigmoid:1
feature_names=num_seqs sum_len min_len sum_completeness gc_var cpg_var cpg_max_min skew_var skew_max_min tetra_pca overlap_singl_like_gene codon_pca redundunt_protein min_contig_rate overlap_sp_one_or_no redundunt_cat
feature_infos=[2:35] [4208:568414] [2000:36684] [0:302] [0:793.5] [0:0.01247406005859375] [1.0728836059570312e-06:0.1669921875] [0:0.1522216796875] [5.9604644775390625e-06:0.693359375] [8.5234642028808594e-06:0.005657196044921875] [0:10] [7.4565410614013672e-05:0.034942626953125] [0:115] [0.38532765609962377:49.968640069809936] -1:0:1 -1:0:3:1:2
tree_sizes=962 986 980 998 1010 990 993 980 981 983 991 993 989 992 1001 991 980 994 987 1005 1002 991 1003 998 996 1002 983 999 1004 1003 994 989 990 993 990 1019 997 1004 1004 995 996 997 991 1002 997 977 985 999 988 1001 999 979 992 995 991 994 1012 990 1004 987 990 988 983 984 984 997 1003 985 990 987 974 994 983 975 1001 987 995 986 990 978 982 992 986 994 986 995 985 999 1000 977 990 984 980 994 978 971 992 986 991 983 990 988 972 985 988 996 989 991 995 975 991 992 995 972 992 983 973 992 969 983 974 980 977 975 976 980 984 991 1000 990 987 980 986 969 991 983 1005 985 992 990 988 993 978 982 993 968 982 984 973 974 992 987 990 999 968 981 997 982 998 986 995 989 991 1006 985 977 975 984 979 987 986 976 1000 984 977 980

Tree=0
num_leaves=8
num_cat=0
split_feature=3 6 12 5 6 3 9
split_gain=5381.98 4044.77 4369.92 195.27 181.572 93.7958 69.0468
threshold=102.50000000000001 0.021781921386718753 1.5000000000000002 0.00024569034576416021 0.014453887939453127 93.500000000000014 0.0003455877304077149
decision_type=2 2 2 2 2 2 2
left_child=1 2 4 -3 5 -1 -6
right_child=-2 3 -4 -5 6 -7 -8
leaf_value=0.7770134410514774 1.1375738221193668 1.0168680613896781 1.1211481682249826 1.1341012557951908 0.82455639974238149 0.71976336154529552 0.94908235387767781
leaf_weight=1022.2392840385437 1935.5128775238991 180.8908855766058 466.04390671849251 662.22134600579739 195.9814578294754 397.45039647817612 57.618548601865768
leaf_count=5216 9876 923 2378 3379 1000 2028 294
internal_value=1.00693 0.923443 0.850335 1.10895 0.774908 0.760986 0.852849
internal_weight=0 2982.45 2139.33 843.112 1673.29 1419.69 253.6
internal_count=25094 15218 10916 4302 8538 7244 1294
is_linear=0
shrinkage=1


Tree=1
num_leaves=8
num_cat=0
split_feature=3 11 10 0 0 3 11
split_gain=4538.39 1205.3 920.538 369.98 286.733 213.517 162.488
threshold=102.50000000000001 0.0032720565795898442 1.0000000180025095e-35 2.5000000000000004 2.5000000000000004 95.500000000000014 0.0021333694458007817
decision_type=2 2 2 2 2 2 2
left_child=1 2 3 -1 -3 6 -5
right_child=-2 4 -4 5 -6 -7 -8
leaf_value=-0.18994636651357077 0.12611444081831152 -0.060206246650872208 0.046334244577245082 -0.093402636010035928 0.10944793565477025 -0.16862171452057612 0.018203985484387824
leaf_weight=637.93536096811295 1816.6150590777397 134.34240297973156 361.87196230888367 1060.7833752185106 385.44039036333561 347.42546162009239 148.74017544090748
leaf_count=2982 9882 675 1872 5148 2072 1653 762
internal_value=0 -0.0732202 -0.101442 -0.125806 0.0655993 -0.0995253 -0.0796779
internal_weight=0 3076.54 2556.76 2194.88 519.783 1556.95 1209.52
internal_count=25046 15164 12417 10545 2747 7563 5910
is_linear=0
shrinkage=0.1


Tree=2
num_leaves=8
num_cat=0
split_feature=4 3 10 3 9 4 6
split_gain=3824.8 2919.52 875.93 111.619 87.0485 115.352 63.6411
threshold=10.699218750000002 103.50000000000001 1.0000000180025095e-35 91.500000000000014 0.00011560320854187013 4.8730468750000009 0.024635314941406253
decision_type=2 2 2 2 2 2 2
left_child=1 2 3 4 -1 -6 -2
right_child=6 -3 -4 -5 5 -7 -8
leaf_value=-0.087080873040266238 0.068745214013915507 0.11747021750028566 0.033868662291138614 -0.17584212645356123 -0.15472033929015644 -0.05399535748456244 0.12630891432544608
leaf_weight=409.86774994432926 219.64423117041588 676.50932827591896 329.21966658532619 655.36682435870171 880.51536966860294 130.55581891536713 1529.5044358223677
leaf_count=1882 1130 3938 1744 2925 4017 609 8704
internal_value=0 -0.0660589 -0.117673 -0.141702 -0.125955 -0.141714 0.119081
internal_weight=0 3082.03 2405.53 2076.31 1420.94 1011.07 1749.15
internal_count=24949 15115 11177 9433 6508 4626 9834
is_linear=0
shrinkage=0.1


Tree=3
num_leaves=8
num_cat=1
split_feature=3 6 15 6 7 6 7
split_gain=3236.52 2209.75 2600.04 190.86 84.8548 55.2926 51.9885
threshold=102.50000000000001 0.026573181152343753 0 0.017585754394531253 0.0054225921630859384 0.036666870117187507 0.0040912628173828134
decision_type=2 2 1 2 2 2 2
left_child=1 2 -1 6 -5 -3 -4
right_child=-2 5 3 4 -6 -7 -8
leaf_value=0.1102753521413195 0.11808634157957375 0.049544507813953753 -0.16855374751057242 -0.10078172620704484 0.035513322830403031 0.12229647364108931 -0.12981223709421522
leaf_weight=475.85977406799793 1566.9001273661852 131.00462570786476 1383.7431421279907 151.53406520187855 65.390180289745331 515.71670651435852 462.05182391405106
leaf_count=2464 9760 687 5916 698 318 3061 2002
internal_value=0 -0.0574594 -0.0994991 -0.147712 -0.0596966 0.107559 -0.158856
internal_weight=0 3185.3 2538.58 2062.72 216.924 646.721 1845.79
internal_count=24906 15146 11398 8934 1016 3748 7918
cat_boundaries=0 1
cat_threshold=12
is_linear=0
shrinkage=0.1


Tree=4
num_leaves=8
num_cat=1
split_feature=4 14 0 4 11 9 5
split_gain=2851.66 1440.62 244.511 147.722 70.2037 69.2934 64.9238
threshold=11.261718750000002 0 2.5000000000000004 4.5097656250000009 0.00096535682678222667 8.3416700363159193e-05 6.7800283432006849e-05
decision_type=2 1 2 2 2 2 2
left_child=1 2 5 4 -4 -1 -7
right_child=-2 -3 3 -5 -6 6 -8
leaf_value=-0.063010834478346045 0.11315522933373966 0.076805357945458216 -0.059257038086434372 0.0080547345005211393 -0.10336560124380097 -0.15850544794934443 -0.064154791377603215
leaf_weight=115.90414288640022 1534.6833842545748 672.00264698266983 826.21941262483597 227.67536056041718 640.62639105319977 585.89371438324451 83.301458209753036
leaf_count=507 9816 4132 3787 1165 2878 2459 377
internal_value=0 -0.0530665 -0.0882631 -0.0668886 -0.0785209 -0.134397 -0.146761
internal_weight=0 3151.62 2479.62 1694.52 1466.85 785.099 669.195
internal_count=25121 15305 11173 7830 6665 3343 2836
cat_boundaries=0 1
cat_threshold=1
is_linear=0
shrinkage=0.1


Tree=5
num_leaves=8
num_cat=0
split_feature=3 5 12 5 7 12 5
split_gain=2489.94 1475.05 1947.59 126.629 82.9739 67.445 61.1511
threshold=103.50000000000001 0.00016725063323974612 1.5000000000000002 6.3925981521606459e-05 0.0054225921630859384 1.0000000180025095e-35 0.00031244754791259771
decision_type=2 2 2 2 2 2 2
left_child=1 2 3 5 -5 -1 -3
right_child=-2 6 -4 4 -6 -7 -8
leaf_value=-0.13111516383361385 0.11507616420452443 0.033879485203485549 0.10586555254850545 -0.086706630665407194 0.041782427334505774 -0.018606145670605905 0.11391491797635972
leaf_weight=1828.9656868726015 1361.9115636497736 120.23674260079861 470.63978697359562 197.30181629955769 67.436185240745544 54.880341112613678 463.35302822291851
leaf_count=7536 9588 659 2585 867 333 230 3154
internal_value=0 -0.0463452 -0.0783787 -0.118737 -0.0539768 -0.127838 0.0974253
internal_weight=0 3202.81 2619.22 2148.58 264.738 1883.85 583.59
internal_count=24952 15364 11551 8966 1200 7766 3813
is_linear=0
shrinkage=0.1


Tree=6
num_leaves=8
num_cat=0
split_feature=12 9 0 8 12 9 9
split_gain=1258.01 1748.78 356.945 162.157 162.13 99.5084 80.5607
threshold=2.5000000000000004 0.00035417079925537115 2.5000000000000004 0.080841064453125014 1.0000000180025095e-35 0.00020140409469604495 0.00088667869567871105
decision_type=2 2 2 2 2 2 2
left_child=1 3 6 4 -1 -5 -3
right_child=-2 2 -4 5 -6 -7 -8
leaf_value=-0.11111060400816784 0.11254063796301775 -0.062018796071221273 0.087418237797802445 -0.081406218189958246 0.067367276734517548 -0.014011089915482592 0.05069992745944632
leaf_weight=1223.7046210765839 834.17674048244953 236.27631211280823 1132.1323580592871 439.69638153910637 53.105755120515823 436.63483569025993 86.66204696893692
leaf_count=5161 5537 1158 8090 1956 279 2290 553
internal_value=0 -0.0237213 0.0609656 -0.0809518 -0.103687 -0.0478264 -0.0317702
internal_weight=0 3608.21 1455.07 2153.14 1276.81 876.331 322.938
internal_count=25024 19487 9801 9686 5440 4246 1711
is_linear=0
shrinkage=0.1


Tree=7
num_leaves=8
num_cat=0
split_feature=4 12 4 8 12 6 9
split_gain=1984.72 2246.01 263.828 72.9298 72.0816 65.8001 34.6704
threshold=12.472656250000002 1.5000000000000002 4.6777343750000009 0.099151611328125014 1.0000000180025095e-35 0.023582458496093753 0.00068449974060058605
decision_type=2 2 2 2 2 2 2
left_child=1 2 4 -4 5 -1 -5
right_child=-2 -3 3 6 -6 -7 -8
leaf_value=-0.11174397806226791 0.10843427865850563 0.10393774626121668 -0.0585480093263437 0.049325269055814164 -5.3985749606696728e-05 -0.0041951646459939445 -0.11000402696922106
leaf_weight=1843.0091735422611 1251.3812126070261 795.6222003698349 153.5560136064887 160.78486457467079 63.423740103840828 58.699230670928955 14.92481245100498
leaf_count=7609 9602 5580 718 861 283 305 72
internal_value=0 -0.0408415 -0.0910463 -0.00820453 -0.104927 -0.108424 0.0357916
internal_weight=0 3090.02 2294.4 329.266 1965.13 1901.71 175.71
internal_count=25030 15428 9848 1651 8197 7914 933
is_linear=0
shrinkage=0.1


Tree=8
num_leaves=8
num_cat=0
split_feature=6 12 6 9 6 6 12
split_gain=1591.6 1813.66 174.982 51.7247 48.1443 45.8768 32.882
threshold=0.025077819824218753 1.5000000000000002 0.017585754394531253 0.00025928020477294927 0.010372161865234377 0.038955688476562507 2.5000000000000004
decision_type=2 2 2 2 2 2 2
left_child=1 2 4 -4 -1 -2 -3
right_child=5 6 3 -5 -6 -7 -8
leaf_value=-0.098708417142104252 0.066940256257349409 0.01767185693842659 -0.046894206477840969 0.042104188684886704 -0.064606337484509321 0.1131183672628856 0.10806247427661693
leaf_weight=1481.1380518823862 286.19383681565523 42.802088685333729 130.286416195333 130.9267602711916 574.58712132275105 866.57584447413683 673.71951793134212
leaf_count=6143 2006 266 603 763 2515 7518 5123
internal_value=0 -0.0363808 -0.0793806 -0.00228591 -0.0891767 0.101654 0.102663
internal_weight=0 3033.46 2316.94 261.213 2055.73 1152.77 716.522
internal_count=24937 15413 10024 1366 8658 9524 5389
is_linear=0
shrinkage=0.1


Tree=9
num_leaves=8
num_cat=0
split_feature=4 12 4 12 1 6 9
split_gain=1511.75 1558.51 198.502 76.0443 71.5064 55.3167 40.2097
threshold=13.085937500000002 1.0000000180025095e-35 5.5839843750000009 2.5000000000000004 50545.000000000007 0.018806457519531253 0.00019437074661254886
decision_type=2 2 2 2 2 2 2
left_child=1 2 5 6 -4 -1 -3
right_child=-2 3 4 -5 -6 -7 -8
leaf_value=-0.092198041681538598 0.10426502659866335 0.063472988404095904 -0.034378401203115604 0.10231462392143403 0.073854415335358664 -0.029155030668788075 -0.054625605061013709
leaf_weight=1810.9363670498133 1074.4239396378398 70.993791125714779 167.37774133682251 648.53205221891403 96.082076877355576 150.76991751790047 48.541726529598236
leaf_count=7476 9512 372 789 5295 571 734 250
internal_value=0 -0.0340133 -0.0764071 0.0888058 0.00509343 -0.0873528 0.0155147
internal_weight=0 2993.23 2225.17 768.068 263.46 1961.71 119.536
internal_count=24999 15487 9570 5917 1360 8210 622
is_linear=0
shrinkage=0.1


Tree=10
num_leaves=8
num_cat=0
split_feature=3 6 12 3 6 7 9
split_gain=1460.77 720.355 775.492 77.1896 41.8617 47.5113 32.504
threshold=103.50000000000001 0.029136657714843753 2.5000000000000004 91.500000000000014 0.011577606201171877 0.0086936950683593767 0.00012940168380737307
decision_type=2 2 2 2 2 2 2
left_child=1 2 3 4 6 -6 -1
right_child=-2 -3 -4 -5 5 -7 -8
leaf_value=-0.047639525230965339 0.10639138851191354 0.092237675112760084 0.094574381804137547 -0.10148417817057034 -0.049601126695077262 0.040352292773446513 -0.084434071280181072
leaf_weight=361.65787209570408 997.45604557543993 393.1389594450593 311.38272277265787 697.41459123790264 382.87562938779593 69.352019250392914 714.24810154736042
leaf_count=1481 9632 3587 2363 2949 1670 353 2954
internal_value=0 -0.0337173 -0.0532361 -0.0739167 -0.0613354 -0.0358062 -0.0720659
internal_weight=0 2930.07 2536.93 2225.55 1528.13 452.228 1075.91
internal_count=24989 15357 11770 9407 6458 2023 4435
is_linear=0
shrinkage=0.1


Tree=11
num_leaves=8
num_cat=0
split_feature=4 12 4 12 5 11 7
split_gain=1168.6 1130.8 137.147 61.3781 41.7529 42.052 39.5388
threshold=13.085937500000002 1.0000000180025095e-35 4.6777343750000009 2.5000000000000004 0.00010454654693603517 0.00073266029357910167 0.0029592514038085942
decision_type=2 2 2 2 2 2 2
left_child=1 2 4 6 5 -1 -3
right_child=-2 3 -4 -5 -6 -7 -8
leaf_value=-0.055622596589186502 0.099696061366506356 0.070711169925198297 -0.004133112530242164 0.09744959493944487 -0.0033763942985553103 -0.088435168375659151 -0.047370326187447867
leaf_weight=576.25148398429155 927.38515412807465 62.406825207173824 322.76665943861008 559.59255062788725 78.560503579676151 1212.1958679780364 51.972346395254135
leaf_count=2408 9465 332 1670 5299 387 5137 263
internal_value=0 -0.0294613 -0.0643229 0.0838062 -0.0747285 -0.0778627 0.0170565
internal_weight=0 2863.75 2189.77 673.972 1867.01 1788.45 114.379
internal_count=24961 15496 9602 5894 7932 7545 595
is_linear=0
shrinkage=0.1


Tree=12
num_leaves=8
num_cat=0
split_feature=4 12 4 12 7 5 0
split_gain=1024.01 931.049 118.004 70.3636 37.9329 36.3364 35.5295
threshold=14.292968750000002 2.5000000000000004 5.5839843750000009 1.0000000180025095e-35 0.0029592514038085942 0.00010454654693603517 2.5000000000000004
decision_type=2 2 2 2 2 2 2
left_child=1 2 3 5 -5 -1 -4
right_child=-2 -3 6 4 -6 -7 -8
leaf_value=-0.069844988154970047 0.099397855167884019 0.09411118343646048 -0.051415908769587994 0.070242472116282748 -0.05329299638847499 -0.0051609052994777633 0.027346832319070709
leaf_weight=1814.5634425505996 839.59256090968847 522.2121863514185 78.685368582606316 59.302154533565044 42.791451908648014 91.211020246148109 210.45793917775154
leaf_count=7753 9315 5320 355 318 204 454 1233
internal_value=0 -0.0264144 -0.0538152 -0.0624164 0.0184638 -0.0667492 0.00591286
internal_weight=0 2819.22 2297.01 2007.87 102.094 1905.77 289.143
internal_count=24952 15637 10317 8729 522 8207 1588
is_linear=0
shrinkage=0.1


Tree=13
num_leaves=8
num_cat=0
split_feature=3 5 12 3 12 5 8
split_gain=1081.02 474.935 445.129 53.4374 42.2504 38.6332 32.5414
threshold=104.50000000000001 0.00024569034576416021 2.5000000000000004 95.500000000000014 1.0000000180025095e-35 5.6594610214233405e-05 0.14447021484375003
decision_type=2 2 2 2 2 2 2
left_child=1 2 3 4 5 -1 -7
right_child=-2 -3 -4 -5 -6 6 -8
leaf_value=-0.059575181784981925 0.10489289564101566 0.090761150001219926 0.078689687868592748 -0.084811178591250744 0.023162418545527846 -0.039001469357640157 0.038273777139953023
leaf_weight=1272.0275560617447 788.47877193242311 300.01138684153557 269.34831090271473 541.77521137148142 78.193545028567314 205.81862910091877 74.119147501885891
leaf_count=5388 9355 3463 2525 2439 374 945 442
internal_value=0 -0.0279739 -0.0425654 -0.0576026 -0.04856 -0.0521736 -0.0185413
internal_weight=0 2741.29 2441.28 2171.93 1630.16 1551.97 279.938
internal_count=24931 15576 12113 9588 7149 6775 1387
is_linear=0
shrinkage=0.1


Tree=14
num_leaves=8
num_cat=2
split_feature=5 15 5 7 15 7 11
split_gain=692.37 654.867 95.9386 59.7273 34.3376 38.4113 44.7484
threshold=0.00023728609085083011 0 6.3925981521606459e-05 0.0014452934265136721 1 0.0040912628173828134 0.00075078010559082042
decision_type=2 1 2 2 1 2 2
left_child=1 -1 4 -4 -3 6 -6
right_child=-2 2 3 -5 5 -7 -8
leaf_value=0.088817832048385711 0.097461458371809556 0.0081446346406851434 -0.040577322899268096 0.0367916858543655 -0.03659466748683797 -0.030126942534524765 -0.075515287315000304
leaf_weight=454.11093214154243 612.58354107290506 99.397891789674759 177.89672808349133 227.22435646504164 439.88392618298531 494.81165207177401 899.40590019524097
leaf_count=5357 8235 531 898 1638 1908 2279 4041
internal_value=0 -0.0199338 -0.0412545 0.0028174 -0.0507021 -0.0536432 -0.062732
internal_weight=0 2792.73 2338.62 405.121 1933.5 1834.1 1339.29
internal_count=24887 16652 11295 2536 8759 8228 5949
cat_boundaries=0 1 2
cat_threshold=8 6
is_linear=0
shrinkage=0.1


Tree=15
num_leaves=8
num_cat=0
split_feature=6 12 5 7 6 12 7
split_gain=641.936 588.627 57.8467 67.6986 40.9164 26.4454 27.607
threshold=0.026573181152343753 2.5000000000000004 1.731514930725098e-05 0.0067958831787109384 0.038955688476562507 1.0000000180025095e-35 0.0023450851440429692
decision_type=2 2 2 2 2 2 2
left_child=1 2 5 -4 -2 -1 -7
right_child=4 -3 3 -5 -6 6 -8
leaf_value=-0.059298955443389083 0.047992217620787821 0.090178347221624058 -0.035753689208771228 0.02872410168022756 0.10417228911713683 0.088359378288896881 -0.050780782532510366
leaf_weight=1109.288334518671 175.96879781037569 407.75709279626608 867.74223449826241 200.45633745193481 492.39356406778097 25.316237650811672 32.650286249816418
leaf_count=4971 1744 5173 4139 1166 7470 153 155
internal_value=0 -0.020315 -0.0404695 -0.0236539 0.089381 -0.0558582 0.00998724
internal_weight=0 2643.21 2235.45 1068.2 668.362 1167.25 57.9665
internal_count=24971 15757 10584 5305 9214 5279 308
is_linear=0
shrinkage=0.1


Tree=16
num_leaves=8
num_cat=0
split_feature=4 12 4 12 0 4 6
split_gain=630.638 487.632 75.606 47.9565 47.9401 31.2591 26.8061
threshold=14.292968750000002 2.5000000000000004 2.7763671875000004 1.0000000180025095e-35 2.5000000000000004 25.468750000000004 0.033340454101562507
decision_type=2 2 2 2 2 2 2
left_child=1 2 3 -1 -4 -2 -3
right_child=5 6 4 -5 -6 -7 -8
leaf_value=-0.053182038769438847 0.045513462828156992 0.086258204979368591 -0.051940172631890484 0.024838103705563181 0.010659509458277511 0.10220214966973901 -0.14492477245856397
leaf_weight=1511.9681602939963 119.6964194253087 387.47611737251282 171.86836016923189 83.113700583577156 424.48223134875298 519.21434250846505 5.08103223145008
leaf_count=6832 1165 5269 801 442 2297 8158 63
internal_value=0 -0.0193734 -0.0377594 -0.0491167 -0.00738174 0.0915819 0.0832658
internal_weight=0 2583.99 2191.43 1595.08 596.351 638.911 392.557
internal_count=25027 15704 10372 7274 3098 9323 5332
is_linear=0
shrinkage=0.1


Tree=17
num_leaves=8
num_cat=0
split_feature=6 12 5 8 6 9 5
split_gain=492.018 425.398 42.685 53.9914 41.0764 29.8832 29.3896
threshold=0.026573181152343753 2.5000000000000004 1.3798475265502931e-05 0.11660766601562501 0.038955688476562507 7.6919794082641615e-05 2.6077032089233402e-05
decision_type=2 2 2 2 2 2 2
left_child=1 2 5 -4 -2 -1 -5
right_child=4 -3 3 6 -6 -7 -8
leaf_value=-0.004636648203648808 0.042061394946600564 0.084283844211838932 -0.036304800729989345 -0.02746284424771675 0.10138539195143673 -0.056299330301903497 0.029115966057266653
leaf_weight=128.86228451132774 162.47979793697596 352.74580653384328 807.26629298180342 143.65008273720741 414.40265298634768 853.73936255276203 254.40038243681192
leaf_count=598 1725 5173 3840 666 7459 3979 1506
internal_value=0 -0.0176242 -0.0340543 -0.021443 0.0846767 -0.0495241 0.00869756
internal_weight=0 2540.66 2187.92 1205.32 576.882 982.602 398.05
internal_count=24946 15762 10589 6012 9184 4577 2172
is_linear=0
shrinkage=0.1


Tree=18
num_leaves=8
num_cat=0
split_feature=3 12 9 3 1 7 9
split_gain=690.168 148.472 95.0529 52.1523 43.0375 32.8014 30.1906
threshold=104.50000000000001 2.5000000000000004 0.00088667869567871105 92.500000000000014 26767.500000000004 0.024467468261718753 5.9694051742553718e-05
decision_type=2 2 2 2 2 2 2
left_child=1 2 3 -1 -5 -4 -6
right_child=-2 -3 5 4 6 -7 -8
leaf_value=-0.022523780831678511 0.10126654061283524 0.063288904896349252 0.085679361344738192 0.029497908639270265 0.039289069612124437 -0.047722481744803258 -0.069654744314421493
leaf_weight=1504.9855361841619 573.45691057667136 194.21164827793837 94.676566950976849 53.007617201656103 26.664060950279236 22.887338504195213 552.63547808304429
leaf_count=7844 9316 2558 1676 291 126 216 2907
internal_value=0 -0.0206076 -0.0278336 -0.032649 -0.0567484 0.0597086 -0.0646402
internal_weight=0 2449.07 2254.86 2137.29 632.307 117.564 579.3
internal_count=24934 15618 13060 11168 3324 1892 3033
is_linear=0
shrinkage=0.1


Tree=19
num_leaves=8
num_cat=1
split_feature=3 15 9 11 3 9 3
split_gain=609.827 112.893 78.346 45.9004 43.9548 36.8981 24.6746
threshold=104.50000000000001 0 0.00088667869567871105 0.0022573471069335942 95.500000000000014 0.00018268823623657229 101.50000000000001
decision_type=2 1 2 2 2 2 2
left_child=1 5 4 -4 -3 -1 -6
right_child=-2 2 3 -5 6 -7 -8
leaf_value=0.072768385892095708 0.099172377467468487 -0.022620000457086842 -0.13548935965641654 0.077265091054496082 -0.0646582387275874 -0.008059913744612528 0.003764129162178418
leaf_weight=165.18798071891069 530.95562269538641 1565.7341016121209 11.294470772147177 99.221663903445005 444.98235355690122 85.819031674414873 59.786431174725294
leaf_count=1958 9352 8227 51 1813 2298 905 400
internal_value=0 -0.0191194 -0.026393 0.0555217 -0.0308928 0.0434041 -0.0565541
internal_weight=0 2432.03 2181.02 110.516 2070.5 251.007 504.769
internal_count=25004 15652 12789 1864 10925 2863 2698
cat_boundaries=0 1
cat_threshold=10
is_linear=0
shrinkage=0.1


Tree=20
num_leaves=8
num_cat=1
split_feature=3 4 15 9 3 4 8
split_gain=549.24 303.715 149.823 43.4953 37.5285 31.5929 30.6161
threshold=107.50000000000001 20.789062500000004 0 0.0006148815155029298 96.500000000000014 2.6162109375000004 0.19134521484375003
decision_type=2 2 1 2 2 2 2
left_child=1 2 -1 4 5 -4 -7
right_child=-2 -3 3 -5 -6 6 -8
leaf_value=0.054642917729442624 0.10349067345637386 0.089139564737603136 -0.035802372449523501 -0.11077485979391384 -0.060137900020093393 -0.017299240584038849 0.050233002971781737
leaf_weight=186.64133603870869 439.50792175531387 239.25883557274938 1102.3656347468495 77.825469072908163 442.72817282751203 320.55184285342693 84.914737679064274
leaf_count=2772 8588 3925 5093 379 2277 1506 427
internal_value=0 -0.0178954 -0.0294569 -0.037281 -0.0345397 -0.0270236 -0.00315627
internal_weight=0 2454.29 2215.03 2028.39 1950.56 1507.83 405.467
internal_count=24967 16379 12454 9682 9303 7026 1933
cat_boundaries=0 1
cat_threshold=8
is_linear=0
shrinkage=0.1


Tree=21
num_leaves=8
num_cat=0
split_feature=4 12 4 1 12 11 2
split_gain=403.031 235.971 55.3404 44.4308 29.604 33.0137 39.5565
threshold=17.835937500000004 2.5000000000000004 6.0957031250000009 49372.500000000007 1.0000000180025095e-35 0.00072455406188964855 7541.0000000000009
decision_type=2 2 2 2 2 2 2
left_child=1 2 4 -4 5 -1 -7
right_child=-2 -3 3 -5 -6 6 -8
leaf_value=-0.014205551588319459 0.091322177259257342 0.071576827167742274 -0.015083264453089027 0.067204852617450073 0.020792296791255712 -0.034279445651483907 -0.076903916383106757
leaf_weight=516.12107780575752 425.97114125266671 281.96260453388095 177.15971744060516 104.21430445089936 99.374751769006252 911.60037162527442 286.03648752719164
leaf_count=2425 8896 5359 1001 854 528 4451 1457
internal_value=0 -0.0143063 -0.0258679 0.0153943 -0.0322713 -0.0353482 -0.0444596
internal_weight=0 2376.47 2094.51 281.374 1813.13 1713.76 1197.64
internal_count=24971 16075 10716 1855 8861 8333 5908
is_linear=0
shrinkage=0.1


Tree=22
num_leaves=8
num_cat=1
split_feature=4 15 4 8 8 6 9
split_gain=359.293 188.32 64.3827 45.1868 39.6092 32.7935 27.6398
threshold=20.789062500000004 0 6.0957031250000009 0.11660766601562501 0.15277099609375003 0.013446807861328127 0.0006148815155029298
decision_type=2 1 2 2 2 2 2
left_child=1 3 6 -1 -4 -5 -3
right_child=-2 2 4 5 -6 -7 -8
leaf_value=0.090429846209164069 0.093007464991667149 -0.029127538697747275 -0.0074133283781017889 0.045350260981385671 0.069913619927238685 -0.069652685929883093 -0.09967258542595861
leaf_weight=190.69243080914021 368.72826451435685 1706.1087440438569 192.92866916954517 86.350185301154852 100.87843896821141 34.782803282141685 57.408100418746471
leaf_count=3648 8593 8357 1241 1464 848 596 287
internal_value=0 -0.0131088 -0.0240863 0.0582228 0.0191369 0.0123275 -0.031424
internal_weight=0 2369.15 2057.32 311.825 293.807 121.133 1763.52
internal_count=25034 16441 10733 5708 2089 2060 8644
cat_boundaries=0 1
cat_threshold=12
is_linear=0
shrinkage=0.1


Tree=23
num_leaves=8
num_cat=1
split_feature=3 4 15 7 6 4 1
split_gain=428.692 202.621 80.9807 59.6258 40.6339 29.3471 37.0273
threshold=107.50000000000001 25.468750000000004 0 0.0020608901977539067 0.014286041259765627 6.0957031250000009 49372.500000000007
decision_type=2 2 1 2 2 2 2
left_child=1 2 3 -1 -5 -4 -7
right_child=-2 -3 5 4 -6 6 -8
leaf_value=0.088017408411576598 0.10190491036573741 0.088941614993219717 -0.034703965156776331 0.015546062401946678 -0.14127594423465473 -0.023726933145417881 0.057930558509386276
leaf_weight=108.56993878632784 362.36761692538857 173.22059768438339 1676.6551655828953 69.76873280480504 21.649036213755608 180.8657172806561 80.132731411606073
leaf_count=1796 8600 3759 8113 966 290 957 536
internal_value=0 -0.0150797 -0.0235089 0.0361076 -0.021592 -0.0296951 0.00134389
internal_weight=0 2310.86 2137.64 199.988 91.4178 1937.65 260.998
internal_count=25017 16417 12658 3052 1256 9606 1493
cat_boundaries=0 1
cat_threshold=12
is_linear=0
shrinkage=0.1


Tree=24
num_leaves=8
num_cat=0
split_feature=5 12 7 11 5 1 2
split_gain=227.185 148.996 31.5409 46.0188 42.8279 30.8069 28.2816
threshold=0.00027406215667724615 2.5000000000000004 0.0019106864929199221 0.00077939033508300792 2.7507543563842777e-05 38730.500000000007 6432.5000000000009
decision_type=2 2 2 2 2 2 2
left_child=1 2 3 5 -4 -1 -5
right_child=-2 -3 4 6 -6 -7 -8
leaf_value=0.054020460759812809 0.0868478265420876 0.066098907319175823 -0.019982109051127586 -0.028937581538329295 0.024868447162014262 -0.014538248559061771 -0.0696284936549494
leaf_weight=84.55240772664547 279.66681264713407 239.75134742818773 567.37028818204999 551.10752349533141 340.79023538529873 291.5167853012681 247.52626425400376
leaf_count=422 7965 5425 2808 2953 2612 1440 1364
internal_value=0 -0.00855424 -0.0171473 -0.0279672 -0.00315178 0.000875972 -0.0415492
internal_weight=0 2322.61 2082.86 1174.7 908.161 376.069 798.634
internal_count=24989 17024 11599 6179 5420 1862 4317
is_linear=0
shrinkage=0.1


Tree=25
num_leaves=8
num_cat=1
split_feature=3 4 15 9 9 3 1
split_gain=358.249 159.024 61.9303 41.43 31.9702 28.4991 29.7259
threshold=107.50000000000001 25.468750000000004 0 0.00018268823623657229 0.00057768821716308605 60.500000000000007 22836.500000000004
decision_type=2 2 1 2 2 2 2
left_child=1 2 3 -1 5 -4 -7
right_child=-2 -3 4 -5 -6 6 -8
leaf_value=0.064433281363410214 0.10020638949734258 0.086471744967533459 -0.0064456913790379867 -0.026493217176098129 -0.083729941787375348 0.035341948017125605 -0.03660057934921037
leaf_weight=136.42265237122774 317.68740291893482 149.23022706061602 641.35387969762087 79.204213595017791 92.118969269096851 60.651113905012608 1082.4461692720652
leaf_count=2185 8617 3748 3147 944 484 317 5613
internal_value=0 -0.013262 -0.0203757 0.0296586 -0.0261436 -0.0233173 -0.0327834
internal_weight=0 2241.43 2092.2 215.627 1876.57 1784.45 1143.1
internal_count=25055 16438 12690 3129 9561 9077 5930
cat_boundaries=0 1
cat_threshold=10
is_linear=0
shrinkage=0.1


Tree=26
num_leaves=8
num_cat=0
split_feature=3 5 12 7 3 1 1
split_gain=314.543 104.398 50.3577 30.8897 25.9029 24.8299 24.0898
threshold=109.50000000000001 0.00042593479156494146 2.5000000000000004 0.0014157295227050783 88.500000000000014 26426.500000000004 6778.5000000000009
decision_type=2 2 2 2 2 2 2
left_child=1 2 4 -4 -1 6 -6
right_child=-2 -3 3 -5 5 -7 -8
leaf_value=-0.01120330422485526 0.10274612379449843 0.08624871545784342 0.09056787455607225 -0.0011188900815051934 -0.093220082548755065 -0.041246306801851922 0.054457845595444178
leaf_weight=1269.9604974146932 274.88248186558485 105.90679586306214 67.625057034194469 80.468815291300416 14.017242878675459 633.79376730322838 52.103789053857327
leaf_count=6527 8212 3302 1519 1467 70 3596 316
internal_value=0 -0.0106434 -0.0154884 0.0407487 -0.0197163 -0.0351627 0.0231506
internal_weight=0 2223.88 2117.97 148.094 1969.88 699.915 66.121
internal_count=25009 16797 13495 2986 10509 3982 386
is_linear=0
shrinkage=0.1


Tree=27
num_leaves=8
num_cat=0
split_feature=6 12 9 6 7 9 8
split_gain=179.838 89.9299 20.4573 28.8612 30.7776 22.6053 14.1013
threshold=0.038955688476562507 6.5000000000000009 6.785988807678224e-05 0.0088005065917968767 0.0085334777832031267 0.00012940168380737307 0.16229248046875003
decision_type=2 2 2 2 2 2 2
left_child=1 2 -1 5 -5 -4 -3
right_child=-2 6 3 4 -6 -7 -8
leaf_value=0.026339123848414817 0.094515955811579261 0.085078607065118994 -0.0027258599095543279 -0.01026722835737867 0.035842977127753556 -0.03643936386872524 0.018890012057404593
leaf_weight=133.83856684528291 193.19737814553082 114.42384107597172 281.92577908746898 835.58757324144244 175.08950538560748 675.22375696897507 44.787195103242993
leaf_count=760 7451 3425 1636 5389 1523 3735 1044
internal_value=0 -0.00600226 -0.0114916 -0.0140646 -0.00227909 -0.0265092 0.0664594
internal_weight=0 2260.88 2101.67 1967.83 1010.68 957.15 159.211
internal_count=24963 17512 13043 12283 6912 5371 4469
is_linear=0
shrinkage=0.1


Tree=28
num_leaves=8
num_cat=1
split_feature=3 5 15 8 3 1 1
split_gain=265.455 76.7588 36.4793 33.4498 21.937 28.1491 27.3241
threshold=107.50000000000001 0.00042593479156494146 0 0.12307739257812501 88.500000000000014 26426.500000000004 34060.000000000007
decision_type=2 2 1 2 2 2 2
left_child=1 2 3 -1 -4 -6 -7
right_child=-2 -3 4 -5 5 6 -8
leaf_value=0.065650990758412173 0.098936336300633643 0.081863677945682445 -0.0098658766954326012 -0.016660705879719583 0.032038865675095278 -0.10988076440539263 -0.032726020277271499
leaf_weight=107.72606088221073 252.18304465338588 88.222870577126741 1221.3849487453699 91.139957573264837 61.053470812737942 50.169380890205503 539.45357897691429
leaf_count=1909 8573 3194 6346 1197 352 280 3111
internal_value=0 -0.00948736 -0.013379 0.0265906 -0.0176725 -0.032598 -0.039291
internal_weight=0 2159.15 2070.93 198.866 1872.06 650.676 589.623
internal_count=24962 16389 13195 3106 10089 3743 3391
cat_boundaries=0 1
cat_threshold=10
is_linear=0
shrinkage=0.1


Tree=29
num_leaves=8
num_cat=1
split_feature=3 4 15 8 3 1 6
split_gain=236.186 101.098 36.1485 24.7832 19.9738 19.2918 17.5296
threshold=109.50000000000001 27.476562500000004 0 0.12307739257812501 88.500000000000014 114457.00000000001 0.020179748535156253
decision_type=2 2 1 2 2 2 2
left_child=1 2 3 -1 5 -4 -5
right_child=-2 -3 4 6 -6 -7 -8
leaf_value=0.059768897658972191 0.09960444304267134 0.081306964549532887 -0.0073403455310788752 0.0063342577232699112 -0.032975316713166412 -0.054200704006014788 -0.12045621161150449
leaf_weight=106.47740091755986 220.74864869378507 117.20378616638482 1106.7794621065259 79.066227113828063 635.83253451995552 95.428480116650462 12.648419711738823
leaf_count=2006 8204 3793 5606 1068 3665 451 156
internal_value=0 -0.00900536 -0.0142037 0.0256554 -0.0185403 -0.01106 -0.0111518
internal_weight=0 2153.44 2036.23 198.192 1838.04 1202.21 91.7146
internal_count=24949 16745 12952 3230 9722 6057 1224
cat_boundaries=0 1
cat_threshold=10
is_linear=0
shrinkage=0.1


Tree=30
num_leaves=8
num_cat=0
split_feature=12 9 8 9 0 11 1
split_gain=45.3834 32.479 21.5946 48.0385 21.8002 21.0433 19.0479
threshold=3.5000000000000004 0.0009715557098388673 0.080841064453125014 0.00010851025581359865 2.5000000000000004 0.0008571147918701173 81479.000000000015
decision_type=2 2 2 2 2 2 2
left_child=1 2 3 -1 -5 -4 -2
right_child=6 -3 5 4 -6 -7 -8
leaf_value=0.017766816399633921 0.077497994218281629 0.06118803463360363 -0.015262513436548768 -0.046651915356459031 -0.013030839581765687 0.015943417580686774 0.008142708900705958
leaf_weight=324.41995827108622 104.69166720286012 76.912921488285065 320.30734798591584 347.94830057397485 432.68126402702183 664.16757150832564 63.69031800981611
leaf_count=1751 3546 3395 1690 2160 3184 7547 1720
internal_value=0 -0.00263113 -0.00498025 -0.0145756 -0.0280167 0.00579029 0.0512645
internal_weight=0 2166.44 2089.52 1105.05 780.63 984.475 168.382
internal_count=24993 19727 16332 7095 5344 9237 5266
is_linear=0
shrinkage=0.1


Tree=31
num_leaves=8
num_cat=0
split_feature=3 4 11 1 2 12 11
split_gain=207.019 86.1465 43.4542 36.2738 30.9299 25.3032 22.2026
threshold=109.50000000000001 25.468750000000004 0.0011229515075683596 38465.500000000007 8052.5000000000009 6.5000000000000009 0.0029554367065429692
decision_type=2 2 2 2 2 2 2
left_child=1 2 3 4 -1 -5 -4
right_child=-2 -3 6 5 -6 -7 -8
leaf_value=0.057790748827768391 0.099429098056291743 0.077335399733374235 -0.022965425706727129 -0.014746359227659534 -0.012255542031592282 0.050080209883922748 -0.069658787695866115
leaf_weight=172.91948806680739 196.54120532423258 112.38990441989154 771.92591420002282 778.441091587767 99.204001089558005 65.25719646923244 117.30985792167485
leaf_count=1099 8258 3907 4630 4277 579 1636 638
internal_value=0 -0.00785911 -0.0126346 0.000507513 0.032255 -0.00973222 -0.0291253
internal_weight=0 2117.45 2005.06 1115.82 272.123 843.698 889.236
internal_count=25024 16766 12859 7591 1678 5913 5268
is_linear=0
shrinkage=0.1


Tree=32
num_leaves=8
num_cat=0
split_feature=3 4 11 3 3 11 2
split_gain=178.453 75.7402 33.0209 22.9083 34.7018 17.8348 16.2981
threshold=109.50000000000001 27.476562500000004 0.0028524398803710942 95.500000000000014 100.50000000000001 0.00067114830017089855 6432.5000000000009
decision_type=2 2 2 2 2 2 2
left_child=1 2 3 -1 5 -5 -7
right_child=-2 -3 -4 4 -6 6 -8
leaf_value=-0.0008784817860832436 0.097873724703117018 0.078314848138324775 -0.059140495825895013 -0.0074757068708605481 0.014767009088348743 -0.040234403267369032 -0.096347489147317888
leaf_weight=1410.315618718043 178.21980492584407 100.61522452253848 130.98103304207325 91.463667226955295 140.9875572565943 148.9306162931025 79.335785206407309
leaf_count=8714 8145 3814 733 609 1465 914 509
internal_value=0 -0.00634602 -0.0106008 -0.00720282 -0.0265624 -0.044787 -0.0597371
internal_weight=0 2102.63 2002.01 1871.03 460.718 319.73 228.266
internal_count=24903 16758 12944 12211 3497 2032 1423
is_linear=0
shrinkage=0.1


Tree=33
num_leaves=8
num_cat=0
split_feature=4 12 7 4 12 6 11
split_gain=116.521 37.91 43.7903 35.657 27.3604 37.8272 25.6989
threshold=20.789062500000004 1.0000000180025095e-35 0.0012955665588378908 7.3769531250000009 22.500000000000004 0.020179748535156253 0.00062918663024902355
decision_type=2 2 2 2 2 2 2
left_child=1 3 -3 6 5 -4 -1
right_child=-2 2 4 -5 -6 -7 -8
leaf_value=0.0070977977619648752 0.07742444536064455 0.077150848627456636 -0.0035070040366210324 0.027295196924095246 0.089481485085645254 -0.16738579025313849 -0.023618270831015989
leaf_weight=348.7619186155498 179.44329015817493 109.41006656177342 118.87913670483977 206.28001252748072 25.796443596482277 15.977837428450583 1243.784422961995
leaf_count=1760 8592 3128 1817 1730 833 223 6892
internal_value=0 -0.00657943 0.0283563 -0.0118244 -0.00487444 -0.0229238 -0.0168916
internal_weight=0 2068.89 270.063 1798.83 160.653 134.857 1592.55
internal_count=24975 16383 6001 10382 2873 2040 8652
is_linear=0
shrinkage=0.1


Tree=34
num_leaves=8
num_cat=0
split_feature=3 4 11 3 7 13 4
split_gain=155.988 52.8477 30.2755 29.6792 23.0527 17.4409 19.1313
threshold=105.50000000000001 27.476562500000004 0.0016217231750488283 95.500000000000014 0.0027151107788085942 5.0345778421023626 2.6162109375000004
decision_type=2 2 2 2 2 2 2
left_child=1 2 3 5 -4 6 -1
right_child=-2 -3 4 -5 -6 -7 -8
leaf_value=-0.035493398217006873 0.087087239131186156 0.070775127725766759 -0.051641594152208439 -0.029169748903224942 -0.0065013950668180876 0.01076941633742793 0.027874160095469471
leaf_weight=184.88599279895425 192.00774025544524 83.356404303573072 270.98033845052123 347.058608667925 194.22280459292233 890.92345984280109 64.183996509760618
leaf_count=1323 9009 3524 1579 2539 1105 5487 432
internal_value=0 -0.00720131 -0.0105307 -0.00356548 -0.0327955 0.00422947 -0.0191639
internal_weight=0 2035.61 1952.26 1487.05 465.203 1139.99 249.07
internal_count=24998 15989 12465 9781 2684 7242 1755
is_linear=0
shrinkage=0.1


Tree=35
num_leaves=8
num_cat=1
split_feature=5 15 7 11 1 5 9
split_gain=74.2614 28.965 24.3425 17.7338 21.76 18.7838 18.0939
threshold=0.00042593479156494146 0 0.0013871192932128908 0.0031213760375976567 13600.000000000002 4.976987838745118e-06 8.3416700363159193e-05
decision_type=2 1 2 2 2 2 2
left_child=1 2 -1 4 -3 6 -6
right_child=-2 3 -4 -5 5 -7 -8
leaf_value=0.086853228672561081 0.083453518930216228 0.054910980205426278 0.0053559566076659855 -0.045372919398593253 0.016595198773652047 -0.0018497614654748324 -0.037483862045320795
leaf_weight=62.104935532435775 100.83235370647162 58.026442365720868 89.420807503163815 117.82574403006583 77.206220738589764 1378.6810664674267 311.4374792277813
leaf_count=2906 6960 375 2534 1075 388 9001 1760
internal_value=0 -0.0044062 0.0363594 -0.00773236 -0.00534503 -0.00732342 -0.0267407
internal_weight=0 2094.7 151.526 1943.18 1825.35 1767.32 388.644
internal_count=24999 18039 5440 12599 11524 11149 2148
cat_boundaries=0 1
cat_threshold=8
is_linear=0
shrinkage=0.1


Tree=36
num_leaves=8
num_cat=0
split_feature=3 4 9 9 11 3 3
split_gain=138.81 47.1628 26.59 22.6309 19.9143 19.7705 20.9672
threshold=109.50000000000001 34.390625000000007 0.00064682960510253917 7.3224306106567396e-05 0.0034494400024414067 66.500000000000014 100.50000000000001
decision_type=2 2 2 2 2 2 2
left_child=1 2 3 -1 5 -5 -7
right_child=-2 -3 -4 4 -6 6 -8
leaf_value=0.027053506337115004 0.096264387252391531 0.075987794979349266 -0.071483613920106895 0.0042521805841094574 -0.068965762894879531 -0.023512355240342037 0.019804265275047417
leaf_weight=177.25797873456031 140.9812853615731 67.303104137070477 66.116328477859497 704.62467610836029 56.291919174604118 841.06945030763745 128.86671925336123
leaf_count=1310 8191 3586 417 4150 332 5637 1381
internal_value=0 -0.00633153 -0.00913788 -0.00697758 -0.0104627 -0.00849608 -0.0177573
internal_weight=0 2041.53 1974.23 1908.11 1730.85 1674.56 969.936
internal_count=25004 16813 13227 12810 11500 11168 7018
is_linear=0
shrinkage=0.1


Tree=37
num_leaves=8
num_cat=1
split_feature=3 6 3 3 6 15 6
split_gain=124.776 43.0353 18.1057 17.9826 23.8813 14.294 21.5303
threshold=109.50000000000001 0.048690795898437507 88.500000000000014 101.50000000000001 0.010646820068359377 0 0.033340454101562507
decision_type=2 2 2 2 2 1 2
left_child=1 2 5 -4 -5 -1 -7
right_child=-2 -3 3 4 -6 6 -8
leaf_value=-0.0039816544501679032 0.096053112824510178 0.093699662250761567 -0.027337133442800306 -0.026396032352188865 0.070005726600850554 0.036928503047691234 -0.24329887499486411
leaf_weight=1165.5805059149861 129.86719697434455 43.181374980136752 576.13186786044389 55.869559085927904 47.582721484825015 134.28554574772716 2.7985417116433373
leaf_count=6458 8223 2934 3967 631 759 1976 38
internal_value=0 -0.0050607 -0.00721212 -0.020444 0.0179439 -0.000309173 0.0290854
internal_weight=0 2025.43 1982.25 679.584 103.452 1302.66 137.084
internal_count=24986 16763 13829 5357 1390 8472 2014
cat_boundaries=0 1
cat_threshold=1
is_linear=0
shrinkage=0.1


Tree=38
num_leaves=8
num_cat=0
split_feature=6 12 9 4 8 9 12
split_gain=66.2729 25.4018 17.972 25.3619 27.0201 21.1924 20.3234
threshold=0.042495727539062507 22.500000000000004 8.1986188888549818e-05 4.8730468750000009 0.18963623046875003 0.00022703409194946292 1.0000000180025095e-35
decision_type=2 2 2 2 2 2 2
left_child=1 2 -1 5 -5 6 -4
right_child=-2 -3 3 4 -6 -7 -8
leaf_value=0.020723672728649029 0.089142221403270508 0.085194458281309782 -0.010858095719352664 -0.00048608893517931764 0.060414527820673525 -0.030664534479883071 0.035069852187792711
leaf_weight=246.03291064221412 80.730968924704939 31.991296954452991 758.92275125160813 306.04621803434566 95.611787793692201 512.55066790245473 110.35763664823025
leaf_count=2075 6980 1555 4299 3066 1372 3337 2261
internal_value=0 -0.00321877 -0.00461244 -0.00810757 0.0140109 -0.0145368 -0.00502739
internal_weight=0 2061.51 2029.52 1783.49 401.658 1381.83 869.28
internal_count=24945 17965 16410 14335 4438 9897 6560
is_linear=0
shrinkage=0.1


Tree=39
num_leaves=8
num_cat=0
split_feature=6 12 2 6 12 8 13
split_gain=57.8811 24.2385 21.5335 18.7313 13.6784 37.7709 19.6863
threshold=0.042495727539062507 22.500000000000004 7108.0000000000009 0.017585754394531253 1.0000000180025095e-35 0.12185668945312501 6.5686794838955747
decision_type=2 2 2 2 2 2 2
left_child=1 2 4 -4 -1 -6 -7
right_child=-2 -3 3 -5 5 6 -8
leaf_value=-0.00024573105077446971 0.087621251097490443 0.086976496385034824 -0.024262891837655187 0.036310833056426552 0.075478972719243323 -0.050249052331327052 0.052067854234957946
leaf_weight=1207.6180056054145 74.556642708368599 30.105585748329759 568.83936566486955 56.08323005028069 88.734034016728401 58.630564182065427 27.683658241294324
leaf_count=8146 7070 1595 4030 732 2240 746 456
internal_value=0 -0.00208599 -0.00342158 -0.0188267 0.00354107 0.0296654 -0.0174327
internal_weight=0 2037.69 2007.59 624.923 1382.67 175.048 86.3142
internal_count=25015 17945 16350 4762 11588 3442 1202
is_linear=0
shrinkage=0.1


Tree=40
num_leaves=8
num_cat=0
split_feature=6 9 12 0 10 2 12
split_gain=56.6054 22.6601 21.6704 23.8504 19.6628 18.0479 20.0398
threshold=0.042495727539062507 0.00011560320854187013 1.0000000180025095e-35 3.5000000000000004 1.5000000000000002 6772.5000000000009 1.0000000180025095e-35
decision_type=2 2 2 2 2 2 2
left_child=1 2 3 -1 5 -3 -7
right_child=-2 4 -4 -5 -6 6 -8
leaf_value=0.025767303225584327 0.088010610807594314 -0.0056400833703247402 0.065153582384421413 -0.021573900537697047 0.046200613680779601 -0.025037834472796366 -0.120552855724124
leaf_weight=252.91391430050135 69.083296613302082 1052.2631181715988 71.734691295772791 183.72276215627789 59.395202822983265 374.9180122083053 23.332661810331047
leaf_count=1355 7032 8494 2576 936 1515 2626 385
internal_value=0 -0.00404486 0.0142162 0.00584763 -0.0101932 -0.0125024 -0.030634
internal_weight=0 2018.28 508.371 436.637 1509.91 1450.51 398.251
internal_count=24919 17887 4867 2291 13020 11505 3011
is_linear=0
shrinkage=0.1


Tree=41
num_leaves=8
num_cat=0
split_feature=4 9 4 8 9 1 7
split_gain=52.2538 17.8981 16.3534 23.9357 22.5553 23.758 13.3871
threshold=25.468750000000004 0.00070118904113769542 4.8730468750000009 0.18780517578125003 0.00017875432968139651 26087.500000000004 0.0038309097290039067
decision_type=2 2 2 2 2 2 2
left_child=1 2 4 -4 5 -1 -6
right_child=-2 -3 3 -5 6 -7 -8
leaf_value=0.053578301594158995 0.071024858648602876 -0.063123825618740359 0.0036232332974401402 0.067084836843458104 -0.031770022461142557 -0.0010676086110658393 -0.0042405504846916055
leaf_weight=88.396683505736291 98.629902715329081 49.173678777646273 266.34490367025137 76.503362397663295 396.0453334338963 795.82418113993481 318.85260274447501
leaf_count=626 8132 340 2308 910 2874 7501 2294
internal_value=0 -0.00354306 -0.00203437 0.0177842 -0.00628344 0.00439543 -0.0194916
internal_weight=0 1991.14 1941.97 342.848 1599.12 884.221 714.898
internal_count=24985 16853 16513 3218 13295 8127 5168
is_linear=0
shrinkage=0.1


Tree=42
num_leaves=8
num_cat=0
split_feature=3 4 9 1 8 9 4
split_gain=96.5736 23.2065 17.647 22.3321 19.7489 18.3863 22.2126
threshold=109.50000000000001 43.203125000000007 0.00012761354446411136 43652.000000000007 0.045791625976562507 0.00068449974060058605 3.4814453125000004
decision_type=2 2 2 2 2 2 2
left_child=1 2 3 -1 -4 6 -6
right_child=-2 -3 4 -5 5 -7 -8
leaf_value=0.030202311271804533 0.093300688720116626 0.070610336196207796 -0.033305393063798788 -0.0090822672717644857 -0.013744125602738345 -0.066838689000318127 0.01856105401456087
leaf_weight=254.14774460345507 105.22913625324145 39.7522426052019 350.80120760016143 336.03612774517387 620.5943346535787 46.859918160829693 323.94039148651063
leaf_count=1708 8202 3312 2360 2652 4039 325 2399
internal_value=0 -0.0050208 -0.00657667 0.00783464 -0.0129136 -0.00569796 -0.00266464
internal_weight=0 1972.13 1932.38 590.184 1342.2 991.395 944.535
internal_count=24997 16795 13483 4360 9123 6763 6438
is_linear=0
shrinkage=0.1


Tree=43
num_leaves=8
num_cat=0
split_feature=3 6 11 7 4 3 11
split_gain=83.4906 24.453 15.1175 21.7598 11.5561 11.3662 12.0855
threshold=109.50000000000001 0.052108764648437507 0.0011229515075683596 9.7274780273437514e-05 0.68237304687500011 95.500000000000014 0.00068068504333496105
decision_type=2 2 2 2 2 2 2
left_child=1 2 5 -4 -5 -1 -7
right_child=-2 -3 3 4 -6 6 -8
leaf_value=0.0082278506304721173 0.090965494920212164 0.093907649041535771 -0.067273980184116441 -0.032146429845182282 -0.0038524998626301163 0.007746129594188661 -0.035605304067017694
leaf_weight=801.70330197457224 96.346505823545158 24.982497849036008 74.112459858413786 189.69126425310969 603.94203603733331 118.10334392357618 141.17585282959044
leaf_count=5358 8201 2799 523 1250 4624 1059 1193
internal_value=0 -0.00439157 -0.00566484 -0.0154544 -0.0106152 0.00234172 -0.0158584
internal_weight=0 1953.71 1928.73 867.746 793.633 1060.98 259.279
internal_count=25007 16806 14007 6397 5874 7610 2252
is_linear=0
shrinkage=0.1


Tree=44
num_leaves=8
num_cat=0
split_feature=6 11 1 7 9 0 1
split_gain=37.7284 13.3601 35.8924 20.4211 19.6942 17.8902 25.6092
threshold=0.048690795898437507 0.00079751014709472667 56173.000000000007 0.0066890716552734384 0.0006148815155029298 2.5000000000000004 30804.500000000004
decision_type=2 2 2 2 2 2 2
left_child=1 2 -1 5 -5 6 -3
right_child=-2 3 -4 4 -6 -7 -8
leaf_value=0.034738306050668945 0.094381824669035594 -0.01042362378776825 -0.011541303677888037 0.029456721342627945 -0.037984331802144194 -0.0039747326217063946 -0.066110971713217045
leaf_weight=320.23344904230908 42.370122483931482 216.04684390407056 351.54759927047417 232.60722405929118 53.203970970120281 694.30211956333369 133.67872472619638
leaf_count=2764 6357 1506 3726 2274 769 6643 985
internal_value=0 -0.000974881 0.0105199 -0.00678157 0.0169025 -0.0132653 -0.0317096
internal_weight=0 2001.62 671.781 1329.84 285.811 1044.03 349.726
internal_count=25024 18667 6490 12177 3043 9134 2491
is_linear=0
shrinkage=0.1


Tree=45
num_leaves=8
num_cat=0
split_feature=6 12 1 12 8 4 4
split_gain=34.237 17.7172 15.4945 28.6206 34.6456 21.2574 19.9073
threshold=0.048690795898437507 22.500000000000004 114457.00000000001 17.500000000000004 0.13616943359375003 1.3110351562500002 3.6962890625000004
decision_type=2 2 2 2 2 2 2
left_child=1 2 -1 6 -5 -6 -4
right_child=-2 -3 3 4 5 -7 -8
leaf_value=0.00090152851746760616 0.093630871505198471 0.080680611600004559 -0.036661337324158272 0.10351836338998432 -0.078058369347670645 -0.61347322245034075 0.052569875825138473
leaf_weight=1767.2172499904409 39.029491931200027 26.240650727879256 158.11367038404569 1.7328197211027134 1.0825926363468172 2.3543326864019036 29.697993589565158
leaf_count=15421 6416 1583 1041 62 26 45 370
internal_value=0 -0.000943772 -0.00203647 -0.028941 -0.261051 -0.444851 -0.0225514
internal_weight=0 1986.44 1960.2 192.981 5.16975 3.43693 187.812
internal_count=24964 18548 16965 1544 133 71 1411
is_linear=0
shrinkage=0.1


Tree=46
num_leaves=8
num_cat=0
split_feature=3 1 4 9 1 12 3
split_gain=68.9122 17.0977 17.784 25.2648 22.9839 17.6186 16.3174
threshold=111.50000000000001 13600.000000000002 11.261718750000002 0.00018733739852905276 55663.000000000007 1.5000000000000002 46.500000000000007
decision_type=2 2 2 2 2 2 2
left_child=1 -1 3 5 -4 -3 -5
right_child=-2 2 4 6 -6 -7 -8
leaf_value=0.037919622856372313 0.090644957162988399 -0.0024861357896001218 0.001548465714403445 0.0047464076151711963 0.086403872421439237 0.046101257683069698 -0.030664180204135152
leaf_weight=92.051239563617855 79.848379805218428 859.12754978239536 109.86250516702421 167.1307168584317 44.99211830063723 81.731461968272924 587.82945116283372
leaf_count=693 7840 4637 3021 939 1702 2353 3772
internal_value=0 -0.00414459 -0.00623684 -0.0091991 0.0262029 0.00173461 -0.0228251
internal_weight=0 1942.73 1850.67 1695.82 154.855 940.859 754.96
internal_count=24957 17117 16424 11701 4723 6990 4711
is_linear=0
shrinkage=0.1


Tree=47
num_leaves=8
num_cat=0
split_feature=4 12 1 11 2 11 0
split_gain=27.149 14.5897 13.7734 21.9083 32.4569 23.0944 18.6337
threshold=43.203125000000007 22.500000000000004 114457.00000000001 0.00062918663024902355 6381.5000000000009 0.0016217231750488283 2.5000000000000004
decision_type=2 2 2 2 2 2 2
left_child=1 2 3 -1 5 -5 -6
right_child=-2 -3 -4 4 6 -7 -8
leaf_value=0.025067515618614346 0.076304339494340692 0.077465746916342046 -0.027551117142621713 0.017928176532076803 -0.046194507424316834 -0.01332287341232035 -0.0053913540288237673
leaf_weight=302.56117078615353 46.198134888196364 23.263552207499743 192.94794629025273 598.52149683074094 235.94948969129473 390.92068588384427 212.91702352673747
leaf_count=2648 6940 1584 1708 5090 1579 3535 1894
internal_value=0 -0.00125422 -0.00220122 0.000608414 -0.00453678 0.00558113 -0.0268398
internal_weight=0 1957.08 1933.82 1740.87 1438.31 989.442 448.867
internal_count=24978 18038 16454 14746 12098 8625 3473
is_linear=0
shrinkage=0.1


Tree=48
num_leaves=8
num_cat=0
split_feature=3 4 8 5 6 3 3
split_gain=61.0021 16.6892 18.363 16.9643 16.4469 14.593 14.6866
threshold=111.50000000000001 9.2500000000000018 0.21331787109375003 6.9946050643920912e-05 0.052108764648437507 96.500000000000014 100.50000000000001
decision_type=2 2 2 2 2 2 2
left_child=1 5 3 -3 -5 -1 -7
right_child=-2 2 -4 4 -6 6 -8
leaf_value=-0.00068466349124298429 0.090772734257382331 0.052430165910751871 0.085474785126035943 -0.027597833950537554 0.09317012727075745 -0.036963759483499774 0.0057514667642886248
leaf_weight=1353.0713086398318 73.185213182354346 60.741576604545116 39.857296688947827 96.515879309503362 12.768170446623115 248.85683187097311 118.97487937798724
leaf_count=8696 7797 331 1272 1461 2179 1770 1440
internal_value=0 -0.00223912 0.0243828 0.0100615 -0.0134876 -0.00548596 -0.0231475
internal_weight=0 1930.79 209.883 170.026 109.284 1720.9 367.832
internal_count=24946 17149 5243 3971 3640 11906 3210
is_linear=0
shrinkage=0.1


Tree=49
num_leaves=8
num_cat=0
split_feature=3 12 6 11 2 13 12
split_gain=51.8975 12.6321 12.6755 14.2365 14.7072 21.3957 17.6568
threshold=111.50000000000001 22.500000000000004 0.048690795898437507 0.0029172897338867192 5203.5000000000009 5.0345778421023626 1.0000000180025095e-35
decision_type=2 2 2 2 2 2 2
left_child=1 2 3 4 5 -1 -7
right_child=-2 -3 -4 -5 -6 6 -8
leaf_value=-0.012635682666192125 0.088084322641018051 0.085771040942329499 0.080419281996894923 -0.035734154241981425 -0.0095628493183641684 0.013657153530198547 0.068087139083465018
leaf_weight=308.77347518829629 67.851795116672292 16.667477641021833 18.627534156898037 120.4831256493926 859.80641155829653 526.35153750143945 67.208451410289854
leaf_count=2190 7860 665 3058 1164 5880 3069 1088
internal_value=0 -0.000905645 -0.00166552 -0.00247772 -0.000203867 0.00871402 0.0198203
internal_weight=0 1917.92 1901.25 1882.62 1762.14 902.333 593.56
internal_count=24974 17114 16449 13391 12227 6347 4157
is_linear=0
shrinkage=0.1


Tree=50
num_leaves=8
num_cat=0
split_feature=6 12 9 6 2 13 6
split_gain=20.9573 10.4286 10.5547 11.2043 9.07524 8.42488 12.4097
threshold=0.052108764648437507 22.500000000000004 6.4224004745483412e-05 0.00062751770019531261 7333.5000000000009 3.4397069561095259 0.016456604003906253
decision_type=2 2 2 2 2 2 2
left_child=1 2 -1 4 -4 6 -5
right_child=-2 -3 3 5 -6 -7 -8
leaf_value=0.028197198949065867 0.092783940281576327 0.072111738286067803 -0.0087084901863296472 -0.041705001304710963 -0.10604344545194594 0.00032051506128856803 0.012519053753997117
leaf_weight=114.01965610589832 24.34192692162469 19.537585715064779 19.442511692643166 117.92170161195099 18.88170578610152 1594.6760865119286 65.73320521810092
leaf_count=1033 6016 1576 139 895 145 14424 700
internal_value=0 -0.000580228 -0.00131585 -0.00316821 -0.0566645 -0.00201531 -0.0222973
internal_weight=0 1950.21 1930.67 1816.66 38.3242 1778.33 183.655
internal_count=24928 18912 17336 16303 284 16019 1595
is_linear=0
shrinkage=0.1


Tree=51
num_leaves=8
num_cat=0
split_feature=3 3 1 1 3 11 7
split_gain=49.8455 10.8262 16.8891 17.8444 17.5157 14.7858 12.7319
threshold=109.50000000000001 31.500000000000004 14246.500000000002 6778.5000000000009 41.500000000000007 0.0016217231750488283 0.0091590881347656267
decision_type=2 2 2 2 2 2 2
left_child=1 -1 3 -3 -5 -4 -7
right_child=-2 2 5 4 -6 6 -8
leaf_value=0.01980993355435683 0.087171714635156758 -0.056629346111262038 -0.0018015960046762168 -0.05040186365788453 0.11293426767215083 -0.034383676305776906 0.01373206819688863
leaf_weight=197.74299636203796 64.317542269127443 12.134926749859003 1300.0303565019276 8.1545468699187023 33.68569986987859 281.11401527514681 68.369399441638961
leaf_count=1363 8128 80 9541 50 293 4061 1319
internal_value=0 -0.0023383 -0.0049093 0.050135 0.0811002 -0.00671047 -0.0249708
internal_weight=0 1901.23 1703.49 53.9752 41.8402 1649.51 349.483
internal_count=24835 16707 15344 423 343 14921 5380
is_linear=0
shrinkage=0.1


Tree=52
num_leaves=8
num_cat=0
split_feature=4 11 2 11 6 7 1
split_gain=26.4265 16.363 21.1108 16.9497 20.8325 15.452 15.1934
threshold=27.476562500000004 0.0015883445739746096 6381.5000000000009 0.00061154365539550792 0.016197204589843753 9.7274780273437514e-05 117576.50000000001
decision_type=2 2 2 2 2 2 2
left_child=1 2 6 -4 -5 -3 -1
right_child=-2 5 3 4 -6 -7 -8
leaf_value=0.019278462769134339 0.065582774204717031 -0.076882743605890272 0.0098957466836109842 -0.033755276344089369 0.036556864149993734 -0.013121455227318946 -0.015850152689721311
leaf_weight=687.1157930905465 58.623358719749376 41.706889632623643 228.59888830990531 325.87482363544405 48.39639570331201 428.46605876740068 149.99894095910713
leaf_count=6444 7999 313 2165 2444 512 3457 1625
internal_value=0 -0.00258002 0.00270865 -0.011559 -0.0246633 -0.0187775 0.0129839
internal_weight=0 1910.16 1439.98 602.87 374.271 470.173 837.115
internal_count=24959 16960 13190 5121 2956 3770 8069
is_linear=0
shrinkage=0.1


Tree=53
num_leaves=8
num_cat=0
split_feature=6 12 1 11 0 1 12
split_gain=15.7781 10.182 9.58223 20.0668 14.2347 23.1751 12.4446
threshold=0.062591552734375014 22.500000000000004 104592.00000000001 0.00063824653625488292 2.5000000000000004 26426.500000000004 15.500000000000002
decision_type=2 2 2 2 2 2 2
left_child=1 2 3 -1 5 -5 -4
right_child=-2 -3 6 4 -6 -7 -8
leaf_value=0.02494109183523301 0.10048451319514876 0.074711680135780625 -0.015276527240206792 0.0047306302893359506 0.0035037352100697732 -0.040167359644102223 -0.12911262534691595
leaf_weight=300.38680982636288 15.623016961617394 17.876325019402429 220.67518089502119 227.47576045943424 941.36802981328219 232.43972486513667 10.039947237819431
leaf_count=2657 5078 1581 1772 1745 10128 1843 213
internal_value=0 -0.000411221 -0.00110619 0.00148671 -0.0035411 -0.0179607 -0.0202305
internal_weight=0 1950.26 1932.39 1701.67 1401.28 459.915 230.715
internal_count=25017 19939 18358 16373 13716 3588 1985
is_linear=0
shrinkage=0.1


Tree=54
num_leaves=8
num_cat=0
split_feature=6 9 1 5 11 1 2
split_gain=18.086 9.66002 16.8001 10.77 10.3313 16.8387 10.514
threshold=0.042495727539062507 0.00011560320854187013 80268.000000000015 7.2419643402099618e-06 0.0033540725708007817 12200.000000000002 4103.5000000000009
decision_type=2 2 2 2 2 2 2
left_child=1 2 -1 -3 5 -5 -6
right_child=-2 3 -4 4 6 -7 -8
leaf_value=0.022037648763420677 0.0764544400653141 -0.020221995725449231 -0.019714638242880268 0.076954539419050255 -0.063832376169096774 -1.2064537116340704e-05 0.02212605560501324
leaf_weight=360.18254301138222 30.442864358774386 364.45937315793708 131.57729444117285 29.279863635543734 47.515552775235847 973.45707654999569 20.312210424104705
leaf_count=3463 7097 2949 1396 199 473 9075 416
internal_value=0 -0.00122932 0.0108662 -0.00537428 -0.00031956 0.00223538 -0.0380906
internal_weight=0 1926.78 491.76 1435.02 1070.56 1002.74 67.8278
internal_count=25068 17971 4859 13112 10163 9274 889
is_linear=0
shrinkage=0.1


Tree=55
num_leaves=8
num_cat=0
split_feature=4 9 4 8 9 12 13
split_gain=15.2523 11.7133 11.2061 16.4444 15.9898 19.4274 13.6128
threshold=25.468750000000004 0.00066542625427246105 2.6162109375000004 0.21331787109375003 0.00017219781875610354 1.5000000000000002 28.636049542237238
decision_type=2 2 2 2 2 2 2
left_child=1 2 4 -4 5 -1 -7
right_child=-2 -3 3 -5 -6 6 -8
leaf_value=-0.0005260393446236642 0.051087317267878324 -0.04608256761950439 0.0036845110779420267 0.048103638682078793 -0.01831203912225696 0.068027311913174182 -0.16844722762559383
leaf_weight=674.52648391015828 57.016377326566726 56.921427652239799 457.43792669824325 101.91277416842058 537.63800330250524 58.828834251500666 2.5390542270615688
leaf_count=3730 8158 423 4038 1066 4253 3104 164
internal_value=0 -0.00140815 -2.07402e-05 0.0117776 -0.00520273 0.00437481 0.0582423
internal_weight=0 1889.8 1832.88 559.351 1273.53 735.894 61.3679
internal_count=24936 16778 16355 5104 11251 6998 3268
is_linear=0
shrinkage=0.1


Tree=56
num_leaves=8
num_cat=1
split_feature=6 9 5 13 8 15 0
split_gain=15.4424 8.42915 13.4066 46.482 8.70191 19.3145 18.1521
threshold=0.052108764648437507 0.00057768821716308605 0.00079464912414550792 18.645449558500026 0.080841064453125014 0 3.5000000000000004
decision_type=2 2 2 2 2 1 2
left_child=1 4 -3 -4 5 -1 -6
right_child=-2 2 3 -5 6 -7 -8
leaf_value=-0.0096482915804517004 0.095013559505581185 -0.024924825974324501 -1.6367988341300099 -0.074141722565578771 0.02674867641375064 0.04143498290739854 -0.0034861174108923123
leaf_weight=917.11507329228334 16.949237322667614 98.181753239827231 0.22981772967614134 1.1003932631574569 323.42050120932981 70.722549807745963 514.38138694898225
leaf_count=5791 6040 1580 30 94 2818 2973 5614
internal_value=0 -0.000856033 -0.0291979 -0.344494 0.000688828 -0.00566927 0.00818556
internal_weight=0 1925.15 99.512 1.33021 1825.64 987.838 837.802
internal_count=24940 18900 1704 124 17196 8764 8432
cat_boundaries=0 1
cat_threshold=1
is_linear=0
shrinkage=0.1


Tree=57
num_leaves=8
num_cat=0
split_feature=1 9 5 0 9 2 1
split_gain=9.29535 11.5492 11.2875 9.36216 13.2038 9.16924 8.82836
threshold=29223.500000000004 0.00016409158706665042 0.00070881843566894542 2.5000000000000004 0.00011560320854187013 6078.5000000000009 6778.5000000000009
decision_type=2 2 2 2 2 2 2
left_child=1 -1 3 4 5 -2 -3
right_child=2 6 -4 -5 -6 -7 -8
leaf_value=0.043156379660558998 0.11579942348245076 -0.073044519360683471 0.09322581002052141 0.00088526727183027695 -0.036216168404912742 0.00032807146056887073 0.008618590167186007
leaf_weight=106.13807252189144 7.3812021696940056 13.837637000950052 12.304344399599357 1210.8169005931122 175.63996617216617 100.56032162625343 305.40361477190163
leaf_count=757 52 101 4687 14096 1373 645 3290
internal_value=0 0.0145797 -0.00215983 -0.00294522 -0.0193004 0.00822458 0.00507878
internal_weight=0 425.379 1506.7 1494.4 283.581 107.942 319.241
internal_count=25001 4148 20853 16166 2070 697 3391
is_linear=0
shrinkage=0.1


Tree=58
num_leaves=8
num_cat=1
split_feature=6 1 1 13 1 15 13
split_gain=10.967 8.89556 8.74952 6.99034 7.51129 12.1955 15.5141
threshold=0.062591552734375014 12200.000000000002 6778.5000000000009 37.456268382774219 72646.500000000015 0 27.487911252621881
decision_type=2 2 2 2 2 1 2
left_child=1 2 -1 4 5 6 -3
right_child=-2 3 -4 -5 -6 -7 -8
leaf_value=-0.038969113295624136 0.1003792217738525 0.048404042927354472 0.051315567064336744 -0.021798894154495166 -0.012191570646061594 0.00040125498833404956 -0.18580151117246738
leaf_weight=13.280785241397096 10.689990349928847 87.384057769319043 55.964684321428649 170.50253801699728 416.31578388414346 1169.79912211583 2.9226010031998149
leaf_count=105 5089 3335 502 1203 5014 9559 147
internal_value=0 -0.00118879 0.0339994 -0.00250809 -0.000546088 0.00330136 0.0367538
internal_weight=0 1916.17 69.2455 1846.92 1676.42 1260.11 90.3067
internal_count=24954 19865 607 19258 18055 13041 3482
cat_boundaries=0 1
cat_threshold=10
is_linear=0
shrinkage=0.1


Tree=59
num_leaves=8
num_cat=0
split_feature=6 12 9 10 0 6 0
split_gain=9.60883 8.63365 8.05537 8.37401 9.88631 7.43263 6.08416
threshold=0.062591552734375014 22.500000000000004 6.4224004745483412e-05 1.5000000000000002 12.500000000000002 0.017890930175781253 13.500000000000002
decision_type=2 2 2 2 2 2 2
left_child=1 2 -1 -4 -5 -6 -3
right_child=-2 6 3 4 5 -7 -8
leaf_value=0.024944959815749689 0.10033016332242822 0.089227408740476188 -0.0035901185535862803 0.044563219254750791 0.017503126728443428 -0.27274345859795818 -0.14349008058827012
leaf_weight=115.38498920295388 9.5851169496308994 15.244149385718631 1729.1595777104376 56.460927370004356 1.7602989040315145 1.7683548405766485 1.2124601625837375
leaf_count=1032 5078 1558 15633 1604 23 23 58
internal_value=0 -4.10667e-05 -0.000664251 -0.00231584 0.0344142 -0.127963 0.0720786
internal_weight=0 1920.99 1904.53 1789.15 59.9896 3.52865 16.4566
internal_count=25009 19931 18315 17283 1650 46 1616
is_linear=0
shrinkage=0.1


Tree=60
num_leaves=8
num_cat=0
split_feature=3 3 11 2 3 4 11
split_gain=36.1665 20.3273 8.63772 11.5938 12.036 14.4097 13.2975
threshold=112.50000000000001 264.50000000000006 0.0003970861434936524 7541.0000000000009 97.500000000000014 7.7167968750000009 0.00066304206848144542
decision_type=2 2 2 2 2 2 2
left_child=2 -2 -1 -4 5 6 -5
right_child=1 -3 3 4 -6 -7 -8
leaf_value=0.028539775938713298 0.090201945355313937 -0.94205775194690811 0.0017620578976225581 0.010122873368941583 -0.047588401587235526 0.043703188234437036 -0.032176745958303915
leaf_weight=91.209322331473231 48.174160780734383 0.19116471242159505 1315.4261061658617 120.75698217377067 98.923382625333034 46.560208775452338 193.25373725872487
leaf_count=814 7607 31 12439 744 1052 960 1316
internal_value=0 0.0861148 -0.00147239 -0.00301466 -0.0166893 -0.00821203 -0.0159099
internal_weight=0 48.3653 1866.13 1774.92 459.494 360.571 314.011
internal_count=24963 7638 17325 16511 4072 3020 2060
is_linear=0
shrinkage=0.1


Tree=61
num_leaves=8
num_cat=0
split_feature=3 3 12 7 11 5 12
split_gain=30.8479 20.6533 16.2517 16.5012 11.8101 10.9381 9.50023
threshold=101.50000000000001 97.500000000000014 1.5000000000000002 0.0013594627380371096 0.0019230842590332033 4.4494867324829108e-05 11.500000000000002
decision_type=2 2 2 2 2 2 2
left_child=1 4 -3 -4 -1 -2 -5
right_child=5 2 3 6 -6 -7 -8
leaf_value=0.0054204724946275117 0.022227516363749922 -0.022852445431774733 0.056520685648693642 -0.24064466251726882 -0.017850064774772533 0.078157077879630832 -0.049059789687907467
leaf_weight=1254.6837265838403 86.14204190322198 238.35326631483622 3.7594484649598625 8.5852091429987905 263.97757848957554 58.860103053972125 3.7057300796732298
leaf_count=8601 3338 1824 113 83 4226 6689 62
internal_value=0 -0.00304185 -0.0294113 -0.126809 0.00137552 0.0449309 -0.182885
internal_weight=0 1773.06 254.404 16.0504 1518.66 145.002 12.2909
internal_count=24936 14909 2082 258 12827 10027 145
is_linear=0
shrinkage=0.1


Tree=62
num_leaves=8
num_cat=0
split_feature=3 11 1 7 13 7 3
split_gain=30.6419 10.897 18.0362 15.0268 10.5403 9.10788 8.33131
threshold=109.50000000000001 0.0011591911315917971 38465.500000000007 0.0086936950683593767 20.258768576339307 7.4893236160278334e-05 8.5000000000000018
decision_type=2 2 2 2 2 2 2
left_child=1 2 4 5 -1 -3 -7
right_child=-2 3 -4 -5 -6 6 -8
leaf_value=0.049951570380008102 0.079476918553919668 -0.056545124432949359 -0.0029250872393110686 0.019164613846411382 0.010573220120373046 -0.14635905613483813 -0.012419589786502703
leaf_weight=114.14163976255804 47.583531074633356 53.370049350778572 795.40571522060782 139.68187772331294 168.05184810236096 4.6798390215262762 601.317761762999
leaf_count=755 8198 450 6118 1961 1033 31 6445
internal_value=0 -0.00178094 0.0047808 -0.0106301 0.026501 -0.0169419 -0.013454
internal_weight=0 1876.65 1077.6 799.05 282.193 659.368 605.998
internal_count=24991 16793 7906 8887 1788 6926 6476
is_linear=0
shrinkage=0.1


Tree=63
num_leaves=8
num_cat=0
split_feature=1 11 1 0 11 1 12
split_gain=6.9591 8.62022 12.5187 7.27732 21.9786 10.4389 12.1832
threshold=13600.000000000002 0.0031213760375976567 6778.5000000000009 2.5000000000000004 0.00077939033508300792 84901.000000000015 3.5000000000000004
decision_type=2 2 2 2 2 2 2
left_child=1 -1 -3 4 -2 6 -5
right_child=3 2 -4 5 -6 -7 -8
leaf_value=0.05044448505347221 0.020935604631229645 -0.12068266172643385 0.021849707236373042 0.0056592162140391179 -0.025932741588914156 -0.012271792411020917 0.056866872760275272
leaf_weight=59.003299136878923 145.0230715428479 8.1755843819119018 25.017446597921662 965.42568520834902 322.68410801660502 333.45692341844551 48.810042380238883
leaf_count=464 924 70 326 12019 2899 4795 3454
internal_value=0 0.0275102 -0.0132574 -0.000652638 -0.0114001 0.00307721 0.00812361
internal_weight=0 92.1963 33.193 1815.4 467.707 1347.69 1014.24
internal_count=24951 860 396 24091 3823 20268 15473
is_linear=0
shrinkage=0.1


Tree=64
num_leaves=8
num_cat=0
split_feature=3 12 13 11 3 11 8
split_gain=25.8387 20.8938 44.7865 8.79151 8.03276 10.3957 7.26266
threshold=114.50000000000001 61.500000000000007 5.5396249241947109 0.0003970861434936524 31.500000000000004 0.0024881362915039067 0.042953491210937507
decision_type=2 2 2 2 2 2 2
left_child=3 -2 -3 6 5 -5 -1
right_child=1 2 -4 4 -6 -7 -8
leaf_value=0.069213308547424093 0.088522966871516201 0.099992146372836738 -3.2121030835647484 0.026568707526687798 -0.0056664387699556186 -0.036081026950255592 0.0089310095037194257
leaf_weight=29.615746841300279 36.384256590623409 0.12596765323541959 0.060025186277925968 158.35333468881436 1577.4632614943548 31.805271612014621 61.461190205300227
leaf_count=263 7189 41 17 908 15571 408 563
internal_value=0 0.0831142 -0.97305 -0.00176477 -0.0033259 0.0160901 0.0285334
internal_weight=0 36.5702 0.185993 1858.7 1767.62 190.159 91.0769
internal_count=24960 7247 58 17713 16887 1316 826
is_linear=0
shrinkage=0.1


Tree=65
num_leaves=8
num_cat=0
split_feature=3 4 0 11 5 12 5
split_gain=25.348 8.13412 14.2078 21.8902 18.6855 11.7446 10.7057
threshold=111.50000000000001 2.6162109375000004 4.5000000000000009 0.0007064342498779298 5.2154064178466805e-06 21.500000000000004 4.2051076889038093e-05
decision_type=2 2 2 2 2 2 2
left_child=1 2 3 -1 -5 -4 -3
right_child=-2 6 5 4 -6 -7 -8
leaf_value=0.026511551388386057 0.081821026327030755 0.023720378709123812 -0.024758851929853682 -0.035825741981112227 0.0026226466076735705 0.083724824513709759 -0.0029481576572658549
leaf_weight=263.93138958001509 38.910138103819918 288.61375161679462 336.40737971710041 172.67258381936699 471.67676327191293 10.284238580381496 314.61525578680448
leaf_count=1880 7831 1824 2381 1361 3233 519 5939
internal_value=0 0.000268352 -0.00431869 0.00225497 -0.00768075 -0.0215407 0.00981135
internal_weight=0 1858.2 1254.97 908.281 644.349 346.692 603.229
internal_count=24968 17137 9374 6474 4594 2900 7763
is_linear=0
shrinkage=0.1


Tree=66
num_leaves=8
num_cat=0
split_feature=7 11 11 5 7 2 11
split_gain=8.2121 12.3667 8.30172 8.28379 10.2928 9.67632 13.0781
threshold=7.4893236160278334e-05 0.0020132064819335942 0.012813568115234377 1.7732381820678714e-05 0.0091590881347656267 6152.5000000000009 0.00063824653625488292
decision_type=2 2 2 2 2 2 2
left_child=1 -1 3 5 -5 -2 -7
right_child=2 -3 -4 4 -6 6 -8
leaf_value=-0.0093136470766518511 0.0057114239259853381 -0.092523177786103222 -0.1584460949112797 0.006036577314997532 0.036322772418263947 0.0047883782646806448 -0.03358843269049433
leaf_weight=123.45347211381886 501.94195173250046 20.882039825897664 3.1606734579545437 755.31877005723072 131.79222641279921 165.34163742524106 191.81544895167463
leaf_count=1174 4661 237 98 12263 3368 1542 1589
internal_value=0 -0.0213524 0.00346496 0.00375806 0.010536 -0.0032409 -0.0158223
internal_weight=0 144.336 1749.37 1746.21 887.111 859.099 357.157
internal_count=24932 1411 23521 23423 15631 7792 3131
is_linear=0
shrinkage=0.1


Tree=67
num_leaves=8
num_cat=0
split_feature=3 3 3 12 7 11 1
split_gain=20.6916 8.46132 18.4664 18.207 15.7699 11.0598 11.5005
threshold=114.50000000000001 97.500000000000014 100.50000000000001 1.5000000000000002 0.0013871192932128908 0.0019230842590332033 71035.500000000015
decision_type=2 2 2 2 2 2 2
left_child=1 5 3 -3 -5 6 -1
right_child=-2 2 -4 4 -6 -7 -8
leaf_value=0.011984926840971431 0.080242059140713584 -0.026265655796572196 0.012614114750862635 0.071178282824659808 -0.19945456385738261 -0.016462217063264482 -0.0095501153086871276
leaf_weight=919.54105371353216 31.944260664575268 191.79339065297972 142.96559033880476 2.6823779726400963 10.908279777504502 260.40855091018602 339.55693864962086
leaf_count=6159 7258 1472 3220 85 122 4207 2514
internal_value=0 -0.000925182 -0.0149821 -0.0341916 -0.146039 0.0022974 0.00617729
internal_weight=0 1867.86 348.35 205.384 13.5907 1519.51 1259.1
internal_count=25037 17779 4899 1679 207 12880 8673
is_linear=0
shrinkage=0.1


Tree=68
num_leaves=8
num_cat=0
split_feature=3 4 8 5 3 7 3
split_gain=22.2272 7.87922 15.5774 15.7021 11.5914 9.16427 9.02519
threshold=114.50000000000001 7.0332031250000009 0.21331787109375003 6.9946050643920912e-05 8.5000000000000018 0.0028562545776367192 28.500000000000004
decision_type=2 2 2 2 2 2 2
left_child=1 6 3 -3 -5 -6 -1
right_child=-2 2 -4 4 5 -7 -8
leaf_value=0.018899571877209011 0.085096257419166807 0.033494451129393921 0.066009889772430469 -0.34173369438873102 0.0035517404535216966 -0.051954406856772745 -0.0073787501384203653
leaf_weight=143.68378585763276 29.542671616363805 93.796031462959945 46.710012056340929 1.1126417857594777 78.065511278458871 48.055124087550212 1445.7959574098932
leaf_count=801 7197 543 1451 10 1946 2024 10973
internal_value=0 -0.00233002 0.0135401 0.00245161 -0.0204331 -0.0175975 -0.00500327
internal_weight=0 1857.22 267.739 221.029 127.233 126.121 1589.48
internal_count=24945 17748 5974 4523 3980 3970 11774
is_linear=0
shrinkage=0.1


Tree=69
num_leaves=8
num_cat=0
split_feature=1 1 6 2 6 0 6
split_gain=9.33399 8.71396 8.52342 6.55362 8.06432 9.42381 7.86186
threshold=10840.500000000002 6778.5000000000009 0.048690795898437507 2959.5000000000005 0.020530700683593753 6.5000000000000009 0.00062751770019531261
decision_type=2 2 2 2 2 2 2
left_child=1 -1 3 4 -2 -6 -5
right_child=2 -3 -4 6 5 -7 -8
leaf_value=-0.029195968077265728 0.017057386701874983 0.069385121430731236 0.079033063190947703 -0.052947392356181372 -0.04637452192736094 0.038683160962608897 -0.0031906127381184156
leaf_weight=12.022793380543588 314.19130674342159 35.27098046609899 13.320505528594365 32.482912834500894 45.401797240483575 18.265725980279967 1417.6782526024617
leaf_count=108 2760 375 6317 284 676 275 14218
internal_value=0 0.0443242 -0.000667991 -0.00124878 0.0104811 -0.021972 -0.00430516
internal_weight=0 47.2938 1841.34 1828.02 377.859 63.6675 1450.16
internal_count=25013 483 24530 18213 3711 951 14502
is_linear=0
shrinkage=0.1


Tree=70
num_leaves=8
num_cat=0
split_feature=3 1 3 5 2 2 3
split_gain=21.5375 8.4312 15.5878 15.5678 14.7523 15.9997 14.1603
threshold=112.50000000000001 27235.500000000004 69.500000000000014 0.0001470446586608887 2424.5000000000005 5948.5000000000009 91.500000000000014
decision_type=2 2 2 2 2 2 2
left_child=1 2 3 -1 -4 -6 -3
right_child=-2 6 4 -5 5 -7 -8
leaf_value=0.008139887416024295 0.084703034445537354 0.0016072151402881101 -0.040451952554020516 -0.070578899343597373 0.092530303919532708 -0.027921524718794277 -0.019125392514965481
leaf_weight=251.6902040457353 29.122469413443469 985.54705323860981 15.060063471784813 27.908401454333216 55.774784539069515 13.745190334971992 494.83442984579597
leaf_count=1517 7605 8681 141 559 622 106 5704
internal_value=0 -0.00196962 0.0116614 0.000282399 0.0492769 0.068715 -0.0053229
internal_weight=0 1844.56 364.179 279.599 84.58 69.52 1480.38
internal_count=24935 17330 2945 2076 869 728 14385
is_linear=0
shrinkage=0.1


Tree=71
num_leaves=8
num_cat=0
split_feature=11 1 1 6 7 11 2
split_gain=7.86648 19.6729 9.79441 12.6865 9.20849 8.91028 8.83814
threshold=0.00073266029357910167 54064.500000000007 12200.000000000002 0.0064125061035156259 0.0065860748291015634 0.0037717819213867192 4776.5000000000009
decision_type=2 2 2 2 2 2 2
left_child=1 -1 4 6 5 -2 -4
right_child=2 -3 3 -5 -6 -7 -8
leaf_value=0.028806989650962185 0.036838122303532471 -0.0087285129337966848 -0.0052308105778918392 -0.00099446440627141671 0.10323591584873111 -0.055243460705748329 -0.036709787095091782
leaf_weight=260.77558303752448 40.05609499104321 300.57224845478777 156.55563827836886 888.2315284346405 14.157065584324299 14.245621569221838 207.27969134226441
leaf_count=2178 313 3408 1298 15665 154 166 1738
internal_value=0 0.0087087 -0.00542305 -0.00743686 0.031408 0.012681 -0.0231646
internal_weight=0 561.348 1320.53 1252.07 68.4588 54.3017 363.835
internal_count=24920 5586 19334 18701 633 479 3036
is_linear=0
shrinkage=0.1


Tree=72
num_leaves=8
num_cat=0
split_feature=3 10 3 4 9 7 4
split_gain=13.1302 8.65225 12.6752 6.6685 10.8873 6.54069 7.46749
threshold=116.50000000000001 5.5000000000000009 264.50000000000006 53.234375000000007 0.00057053565979003917 0.0026712417602539067 1.6303710937500002
decision_type=2 2 2 2 2 2 2
left_child=3 -2 -3 4 5 -1 -7
right_child=1 2 -4 -5 -6 6 -8
leaf_value=-0.0032220481706680109 0.084059582686992984 0.1000285048633445 -1.0159335921606325 0.06228922637949888 -0.034050948351777834 -0.0023549703518240405 0.019725629261049069
leaf_weight=1130.2237880956964 22.78508495766437 0.23839240107918058 0.17715951800346375 17.090273605281254 91.703539233247284 283.32906524976715 333.38310952211032
leaf_count=8966 6743 132 2 3525 823 2075 2742
internal_value=0 0.07581 -0.376191 0.000112774 -0.00046517 0.00129788 0.00958139
internal_weight=0 23.2006 0.415552 1855.73 1838.64 1746.94 616.712
internal_count=25008 6877 134 18131 14606 13783 4817
is_linear=0
shrinkage=0.1


Tree=73
num_leaves=8
num_cat=0
split_feature=3 12 3 6 4 1 12
split_gain=13.6736 6.42863 7.38256 17.5235 6.18485 13.4453 21.275
threshold=116.50000000000001 22.500000000000004 55.500000000000007 0.010929107666015627 8.0273437500000018 55663.000000000007 1.5000000000000002
decision_type=2 2 2 2 2 2 2
left_child=1 4 3 -3 -1 -6 -7
right_child=-2 2 -4 -5 5 6 -8
leaf_value=-0.0042207358801246049 0.078835300666709712 0.10188465409897106 0.094062812760805359 -0.7671337016466786 -7.9588736221094299e-05 0.079556194040236949 -0.11778443193028452
leaf_weight=1608.4713557744399 21.407377971801907 0.70820303913205751 11.277407300425692 0.34469855576753616 175.84628556558164 47.775592416990548 6.1680707300256463
leaf_count=11432 6802 47 704 16 3871 1949 128
internal_value=0 -0.00154561 0.0704182 -0.182776 -0.00202833 0.0133179 0.056991
internal_weight=0 1850.59 12.3303 1.0529 1838.26 229.79 53.9437
internal_count=24949 18147 767 63 17380 5948 2077
is_linear=0
shrinkage=0.1


Tree=74
num_leaves=8
num_cat=0
split_feature=4 3 9 2 9 0 7
split_gain=12.0796 8.68084 7.57849 7.95606 17.4966 15.9413 6.85838
threshold=22.523437500000004 116.50000000000001 0.00070118904113769542 2959.5000000000005 0.00023239850997924807 4.5000000000000009 0.0048694610595703134
decision_type=2 2 2 2 2 2 2
left_child=1 2 3 4 5 -1 -5
right_child=-2 -3 -4 6 -6 -7 -8
leaf_value=0.061213092497689497 0.046846899874357487 0.072023120885767317 -0.044307556906341396 -0.0074750949591960367 -0.011182542770814779 0.0057316394982320079 0.0092770625927921443
leaf_weight=99.188673662953079 55.825879888085183 16.406937440275215 39.599366558715701 1055.0944746319437 167.74936342990259 108.36950887925923 318.05868587340228
leaf_count=714 8359 3073 274 8073 1148 1019 2269
internal_value=0 -0.000383602 -0.00104801 -6.82515e-05 0.0128346 0.0322454 -0.00359485
internal_weight=0 1804.47 1788.06 1748.46 375.308 207.558 1373.15
internal_count=24929 16570 13497 13223 2881 1733 10342
is_linear=0
shrinkage=0.1


Tree=75
num_leaves=8
num_cat=0
split_feature=3 12 12 8 11 11 9
split_gain=11.5524 6.78681 6.01834 17.9539 11.675 6.303 16.6011
threshold=112.50000000000001 22.500000000000004 18.500000000000004 0.16619873046875003 0.0010647773742675783 0.0017523765563964846 0.00058484077453613292
decision_type=2 2 2 2 2 2 2
left_child=1 2 5 -4 -5 6 -1
right_child=-2 -3 3 4 -6 -7 -8
leaf_value=0.0031839295606344432 0.070800385078612749 0.07606890956732465 0.047818274332581789 -0.10815465303469572 -0.41686950179509613 -0.012739699431583052 -0.076473220330151248
leaf_weight=1406.9132465532748 22.467794592521386 11.256072387564926 6.3161967778578383 4.5318158660084009 1.6787125965347511 382.89626446034526 26.658339785179123
leaf_count=9937 7624 696 191 66 21 6294 201
internal_value=0 -0.00134165 -0.00181807 -0.0708931 -0.191621 -0.0013417 0.00170262
internal_weight=0 1840.25 1828.99 12.5267 6.21053 1816.47 1433.57
internal_count=25030 17406 16710 278 87 16432 10138
is_linear=0
shrinkage=0.1


Tree=76
num_leaves=8
num_cat=0
split_feature=4 1 1 9 6 4 1
split_gain=9.60132 13.1104 9.80631 14.5638 14.3269 10.6936 7.36886
threshold=10.230468750000002 39818.000000000007 23991.000000000004 0.00024807453155517584 0.0085716247558593767 0.11383056640625001 169799.50000000003
decision_type=2 2 2 2 2 2 2
left_child=2 -2 -1 -4 -5 -6 -7
right_child=1 -3 3 4 5 6 -8
leaf_value=0.016143177012264379 -0.0045859821279815825 0.050465854353288868 -5.4244692825381088e-05 -0.044982850204423046 0.14999280638912305 -0.0057205637638521219 -0.14194139695169225
leaf_weight=235.72680782503448 89.753581264230888 83.505596595030511 1086.8236704590381 164.74373217357788 4.3483614614233366 190.14683149557095 4.0554679093183941
leaf_count=1595 3142 6867 10469 1391 37 1501 42
internal_value=0 0.0219473 -0.00277332 -0.00584834 -0.0231818 -0.00509271 -0.0085655
internal_weight=0 173.259 1685.84 1450.12 363.294 198.551 194.202
internal_count=25044 10009 15035 13440 2971 1580 1543
is_linear=0
shrinkage=0.1


Tree=77
num_leaves=8
num_cat=0
split_feature=3 5 13 3 9 11 11
split_gain=10.9803 12.319 10.6736 9.8539 9.71902 13.1523 9.34978
threshold=101.50000000000001 4.4494867324829108e-05 27.820344987205861 98.500000000000014 0.00038850307464599615 0.0026903152465820317 0.0025625228881835942
decision_type=2 2 2 2 2 2 2
left_child=3 2 4 -1 -2 -6 -4
right_child=1 -3 6 -5 5 -7 -8
leaf_value=-0.00053841924733943447 0.044736125112045916 0.072352182844804269 -0.092619991889041936 -0.024917727044487446 -0.11680355530661889 0.1475833525800907 0.13387678880291062
leaf_weight=1543.9179536708398 46.95371488307137 41.406698202627013 14.99572570086457 185.73772846069187 8.6683690772624669 2.4028482886496922 2.0743484511040142
leaf_count=13295 2837 6664 256 1584 217 46 27
internal_value=0 0.0285608 0.00441434 -0.00315638 0.0248629 -0.0594188 -0.0650937
internal_weight=0 116.502 75.095 1729.66 58.0249 11.0712 17.0701
internal_count=24926 10047 3383 14879 3100 263 283
is_linear=0
shrinkage=0.1


Tree=78
num_leaves=8
num_cat=0
split_feature=4 9 1 1 1 4 7
split_gain=6.793 6.10379 9.77038 12.8003 9.12342 8.73039 10.4437
threshold=85.281250000000014 0.00057053565979003917 34060.000000000007 24350.500000000004 31992.500000000004 2.6162109375000004 0.0069103240966796884
decision_type=2 2 2 2 2 2 2
left_child=1 4 3 -3 -1 -6 -7
right_child=-2 2 -4 -5 5 6 -8
leaf_value=0.012808910137763127 0.089463890864433765 -0.016813475604004858 0.018142403166550046 -0.11445381437373861 -0.008950127618271719 -0.00030095338046573012 0.038482498225202777
leaf_weight=447.37786234510713 8.3675185497850162 39.733500387636013 32.68546938415966 20.278838454221841 929.64934321824694 288.00865237115067 91.487403986975551
leaf_count=3286 4857 468 1173 319 9216 4164 1504
internal_value=0 -0.000839354 -0.0258484 -0.0498078 0.00048046 -0.00373257 0.00904882
internal_weight=0 1849.22 92.6978 60.0123 1756.52 1309.15 379.496
internal_count=24987 20130 1960 787 18170 14884 5668
is_linear=0
shrinkage=0.1


Tree=79
num_leaves=8
num_cat=0
split_feature=3 9 1 2 10 0 3
split_gain=8.92159 6.37793 11.0808 10.5063 6.46979 13.0484 6.03105
threshold=116.50000000000001 0.00012940168380737307 39818.000000000007 7108.0000000000009 1.5000000000000002 12.500000000000002 213.50000000000003
decision_type=2 2 2 2 2 2 2
left_child=1 2 3 -1 -3 -6 -2
right_child=6 4 -4 -5 5 -7 -8
leaf_value=0.048160959884210784 0.088228582253044391 -0.0071625405142317009 -0.0028746146610307416 0.0014105535851876873 0.049116826931441315 -0.15943042330347298 -0.14836329997875988
leaf_weight=103.3855032682186 15.480761599028485 1206.9220266169286 388.87800693686586 89.84601392922923 38.512154411029769 3.2532998357200986 1.1576995870564122
leaf_count=706 6602 12570 3472 571 800 39 227
internal_value=0 -0.0017936 0.00685097 0.0264237 -0.00582351 0.0328708 0.0717634
internal_weight=0 1830.8 582.11 193.232 1248.69 41.7655 16.6385
internal_count=24987 18158 4749 1277 13409 839 6829
is_linear=0
shrinkage=0.1


Tree=80
num_leaves=8
num_cat=0
split_feature=3 6 13 3 9 9 3
split_gain=9.10538 13.0777 10.208 10.095 9.43169 8.72719 8.07277
threshold=101.50000000000001 0.010486602783203127 30.811259195042243 98.500000000000014 0.00020366907119750979 0.00038850307464599615 102.50000000000001
decision_type=2 2 2 2 2 2 2
left_child=3 2 5 -1 6 -2 -4
right_child=1 -3 4 -5 -6 -7 -8
leaf_value=0.00063639261737071092 0.048061790462086494 0.062851859407412364 0.0078757967745905818 -0.024250142256969795 -0.017571088575313053 -0.052526715435207587 -0.25619424650173789
leaf_weight=1554.378796684905 31.200241435784847 54.059258837369271 1.641844861209395 182.09080493520014 10.602556380676104 11.920518095721489 3.9248637608252466
leaf_count=13351 1970 7612 15 1589 88 209 105
internal_value=0 0.0272797 -0.00515428 -0.00197328 -0.0729139 0.0202543 -0.178313
internal_weight=0 113.349 59.29 1736.47 16.1693 43.1208 5.56671
internal_count=24939 9999 2387 14940 208 2179 120
is_linear=0
shrinkage=0.1


Tree=81
num_leaves=8
num_cat=0
split_feature=11 0 4 13 4 5 11
split_gain=6.60851 9.72723 10.5684 8.80242 7.22997 19.2667 6.20342
threshold=0.0009143352508544923 3.5000000000000004 6.0957031250000009 15.904426524066212 0.83520507812500011 5.993247032165528e-05 0.0019674301147460942
decision_type=2 2 2 2 2 2 2
left_child=1 3 -3 -1 5 -2 -7
right_child=4 2 -4 -5 -6 6 -8
leaf_value=0.051439186558851095 -0.025512580379262323 -0.0061835542630630383 0.064942989868871981 0.012598781106559251 0.0016435482796591993 0.093221948163287507 0.0093638278173597631
leaf_weight=71.970617973071057 273.29445285821566 383.65734146290924 22.092931976250838 308.29440626595169 753.57209179742495 18.369191703735851 16.972061461303383
leaf_count=814 2397 4375 312 2458 14437 125 105
internal_value=0 0.00845875 -0.00231068 0.0199499 -0.00363633 -0.0165278 0.0529511
internal_weight=0 786.015 405.75 380.265 1062.21 308.636 35.3413
internal_count=25023 7959 4687 3272 17064 2627 230
is_linear=0
shrinkage=0.1


Tree=82
num_leaves=8
num_cat=0
split_feature=3 9 9 4 7 4 3
split_gain=7.79068 5.66392 4.60389 6.40516 5.28214 9.14721 7.90581
threshold=125.50000000000001 4.848837852478028e-05 6.213784217834474e-05 2.3486328125000004 0.0055065155029296884 0.13879394531250003 92.500000000000014
decision_type=2 2 2 2 2 2 2
left_child=2 -2 3 -1 -4 -6 -7
right_child=1 -3 4 -5 5 6 -8
leaf_value=0.017021067669842096 -0.21702346360919372 0.10114598233539165 -0.0041286476898766541 0.17592071808284571 0.081896159339801752 0.014541013110130955 -0.015901918682154684
leaf_weight=96.789093612751458 0.59057399939047073 10.523610138508955 1299.5967265203653 2.604718667222186 16.396909973584116 295.28538537875284 119.95941166649573
leaf_count=890 81 5156 13258 35 121 3069 2367
internal_value=0 0.0842325 0.000256311 0.0211859 -0.000945298 0.00863919 0.00574639
internal_weight=0 11.1142 1830.63 99.3938 1731.24 431.642 415.245
internal_count=24977 5237 19740 925 18815 5557 5436
is_linear=0
shrinkage=0.1


Tree=83
num_leaves=8
num_cat=0
split_feature=3 9 11 1 10 6 8
split_gain=7.1732 6.62168 6.26672 6.13736 8.54612 7.8866 12.9669
threshold=125.50000000000001 6.6012144088745131e-05 0.012813568115234377 117576.50000000001 2.5000000000000004 0.016456604003906253 0.21551513671875003
decision_type=2 2 2 2 2 2 2
left_child=1 -1 3 4 -3 -5 -7
right_child=-2 2 -4 5 -6 6 -8
leaf_value=0.021922320627680753 0.08322101413923827 -0.00060324314751372503 -0.15135289102101041 -0.036946163146730687 0.097109386623905794 -0.018945332259345374 0.099186679971519157
leaf_weight=122.51802068500547 10.282732705149099 1546.3876070759143 2.8098673998902077 101.95260872109793 9.0026735819410515 35.138025475287577 12.631900226493597
leaf_count=1125 5215 16198 82 1068 501 456 273
internal_value=0 -0.000534049 -0.00214497 -0.00189905 -3.76524e-05 -0.0212361 0.012293
internal_weight=0 1830.44 1707.92 1705.11 1555.39 149.723 47.7699
internal_count=24918 19703 18578 18496 16699 1797 729
is_linear=0
shrinkage=0.1


Tree=84
num_leaves=8
num_cat=0
split_feature=3 1 11 5 5 3 1
split_gain=6.80069 8.36418 10.3855 8.77811 9.42971 6.50255 7.96196
threshold=100.50000000000001 60425.500000000007 0.00037372112274169927 5.9902667999267587e-06 5.5134296417236337e-06 99.500000000000014 29223.500000000004
decision_type=2 2 2 2 2 2 2
left_child=5 -2 -3 4 -4 -1 -7
right_child=1 2 3 -5 -6 6 -8
leaf_value=-0.0015358287484710026 0.0051448423358879504 -0.14501355967002186 0.015487613718925659 0.090111442042676973 -0.32479305820998988 0.06250556816376597 -0.043507137076243124
leaf_weight=1612.6973583343788 113.18890818032378 2.3708121284726067 4.400523960182908 32.806381638001767 0.99893307406455267 7.9464060460450119 65.284810623270459
leaf_count=13911 5369 176 299 4596 17 65 570
internal_value=0 0.0191092 0.0580625 0.0706654 -0.0474831 -0.00285924 -0.0320033
internal_weight=0 153.766 40.5767 38.2058 5.39946 1685.93 73.2312
internal_count=25003 10457 5088 4912 316 14546 635
is_linear=0
shrinkage=0.1


Tree=85
num_leaves=8
num_cat=0
split_feature=1 12 8 12 9 12 2
split_gain=5.72835 5.35261 4.45268 6.3636 4.46157 5.60132 13.4539
threshold=174126.00000000003 22.500000000000004 0.0046310424804687509 1.0000000180025095e-35 8.1986188888549818e-05 19.500000000000004 9689.0000000000018
decision_type=2 2 2 2 2 2 2
left_child=1 2 3 -1 -4 -6 -7
right_child=-2 -3 4 -5 5 6 -8
leaf_value=-0.043073491058745805 -0.036300772658183759 0.073867691060553742 0.014219061798949216 0.12354423109647482 -0.00067752766076747332 -0.038279622696634825 -0.45579423123426599
leaf_weight=37.6160579820571 43.431694945582421 9.8756728073203686 217.09690392261837 2.4406307730823746 1533.7912085709395 6.4086527816834851 0.87713105184957374
leaf_count=282 782 1354 1915 61 20368 276 36
internal_value=0 0.000449782 4.65618e-05 -0.0329204 0.000797662 -0.00109306 -0.0885647
internal_weight=0 1808.11 1798.23 40.0567 1758.17 1541.08 7.28578
internal_count=25074 24292 22938 343 22595 20680 312
is_linear=0
shrinkage=0.1


Tree=86
num_leaves=8
num_cat=0
split_feature=1 3 11 1 3 11 3
split_gain=6.00293 7.05902 6.06474 14.0699 6.76174 8.73951 6.73004
threshold=10840.500000000002 19.500000000000004 0.0011467933654785158 38465.500000000007 87.500000000000014 0.00080466270446777355 100.50000000000001
decision_type=2 2 2 2 2 2 2
left_child=1 -1 3 4 -2 -6 -4
right_child=2 -3 6 -5 5 -7 -8
leaf_value=-0.026390958044403542 0.030622346681085211 0.05989298706440789 -0.010957550294482319 -0.0028427545571272196 0.034950683089586536 -0.05514153177888137 0.020728878495022918
leaf_weight=13.230393406935034 226.5020345421508 33.461127098882571 668.12584899552166 767.87943519398686 20.421793738903943 22.775461843935773 74.504634753480786
leaf_count=102 1405 380 7358 8439 186 204 6888
internal_value=0 0.0354437 -0.000879448 0.0040585 0.0237075 -0.0125498 -0.00777858
internal_weight=0 46.6915 1780.21 1037.58 269.699 43.1973 742.63
internal_count=24962 482 24480 10234 1795 390 14246
is_linear=0
shrinkage=0.1


Tree=87
num_leaves=8
num_cat=0
split_feature=11 7 13 6 13 6 7
split_gain=5.98902 9.84558 6.52897 5.17004 5.29754 4.32554 3.75605
threshold=0.0016217231750488283 0.0099678039550781267 18.461921947288101 0.062591552734375014 5.0345778421023626 0.00062751770019531261 0.0041561126708984384
decision_type=2 2 2 2 2 2 2
left_child=5 3 -3 4 6 -1 -2
right_child=1 2 -4 -5 -6 -7 -8
leaf_value=-0.034632822615516534 -0.074068114530871837 0.0019050334420480733 0.06384045345323669 0.10036240529316474 -0.013696381893377794 0.0044361677727185874 0.00075116730686864894
leaf_weight=28.942205713246949 25.848771659424528 49.380740154490923 25.972031200290076 3.7535723781184052 332.09491657512262 1357.5814787979762 9.0617661919677612
leaf_count=267 376 1956 686 3852 4280 13383 191
internal_value=0 -0.00970017 0.0232527 -0.0163975 -0.0175918 0.00362063 -0.0546473
internal_weight=0 446.112 75.3528 370.759 367.005 1386.52 34.9105
internal_count=24991 11341 2642 8699 4847 13650 567
is_linear=0
shrinkage=0.1


Tree=88
num_leaves=8
num_cat=0
split_feature=11 6 11 8 9 11 9
split_gain=5.48553 4.42551 4.71564 6.66785 6.89544 7.71217 6.37799
threshold=0.012813568115234377 0.062591552734375014 0.0024881362915039067 0.081756591796875014 0.00029742717742919927 0.0028524398803710942 0.00088667869567871105
decision_type=2 2 2 2 2 2 2
left_child=1 2 6 4 -4 -6 -1
right_child=-2 -3 3 -5 5 -7 -8
leaf_value=0.0025505718481605433 -0.14715166554776429 0.10033623131945549 -0.086796317749308696 0.0038224595528608568 0.044920497646250807 -0.037968248413068478 -0.090878322366745923
leaf_weight=1634.5487348899187 2.5119338734657495 4.4480610454629632 19.888705902267247 89.802115817874437 14.44731673382921 50.32227242513909 7.3391513436217783
leaf_count=16489 100 5012 178 2183 179 722 66
internal_value=0 0.000715991 0.000472008 -0.0151592 -0.0352942 -0.0194791 0.00213293
internal_weight=0 1820.8 1816.35 174.46 84.6583 64.7696 1641.89
internal_count=24929 24829 19817 3262 1079 901 16555
is_linear=0
shrinkage=0.1


Tree=89
num_leaves=8
num_cat=0
split_feature=1 3 1 3 11 6 2
split_gain=7.2033 15.2505 5.84204 19.1501 10.2408 8.14961 7.5884
threshold=174126.00000000003 64.500000000000014 14246.500000000002 41.500000000000007 0.0012631416320800783 0.012516021728515627 2404.5000000000005
decision_type=2 2 2 2 2 2 2
left_child=2 -2 3 4 -1 -6 -4
right_child=1 -3 6 -5 5 -7 -8
leaf_value=0.076421046891379393 -0.23140885792989074 -0.022296384030359939 0.020274275494281287 0.073661876603118168 -0.0076024329321972249 -0.10005148093680089 -0.0030273459115058143
leaf_weight=10.140483846887944 3.8359129070304325 38.370784388287575 153.80033145954076 43.6848929944681 32.699269786477089 13.460090814274734 1530.7159327559493
leaf_count=55 32 733 2020 553 190 142 21193
internal_value=0 -0.0413033 0.000494122 0.0239793 -0.0145712 -0.0345613 -0.000899846
internal_weight=0 42.2067 1784.5 99.9847 56.2998 46.1594 1684.52
internal_count=24918 765 24153 940 387 332 23213
is_linear=0
shrinkage=0.1


Tree=90
num_leaves=8
num_cat=0
split_feature=3 6 9 7 5 4 7
split_gain=6.05352 7.23283 7.05499 6.17508 7.34564 5.89213 5.77409
threshold=100.50000000000001 0.0090141296386718767 0.0006148815155029298 7.4893236160278334e-05 3.2573938369750983e-05 0.012588500976562502 0.0012650489807128908
decision_type=2 2 2 2 2 2 2
left_child=-1 2 3 -2 5 -5 -3
right_child=1 6 -4 4 -6 -7 -8
leaf_value=-0.0013136738102511006 -0.10003230131862528 0.0089890017308764478 -0.10321838253160534 -0.18401719889871351 -0.32920356592430716 0.023969847680190975 0.063198600293839891
leaf_weight=1685.2512214047601 5.0328826883924185 34.232620980415959 6.4803045552689573 1.3951286917435926 0.6118905134499063 56.87396005820483 46.121276176592801
leaf_count=14574 212 2112 67 39 10 1823 6140
internal_value=0 0.0196025 -0.00380003 0.00628058 0.0153684 0.0189889 0.0401043
internal_weight=0 150.748 70.3942 63.9139 58.881 58.2691 80.3539
internal_count=24977 10403 2151 2084 1872 1862 8252
is_linear=0
shrinkage=0.1


Tree=91
num_leaves=8
num_cat=0
split_feature=1 4 10 12 9 4 12
split_gain=4.73233 7.7008 8.66964 6.05704 5.06577 6.10317 5.86975
threshold=174126.00000000003 0.83520507812500011 1.0000000180025095e-35 22.500000000000004 7.8648328781127943e-05 1.9555664062500002 2.5000000000000004
decision_type=2 2 2 2 2 2 2
left_child=3 2 -2 4 5 6 -1
right_child=1 -3 -4 -5 -6 -7 -8
leaf_value=0.0064083086592340291 -0.049613651235017465 -0.0091222057403964035 -0.25880860040744791 0.08236940948717901 -0.00054756427376773228 0.06800763303076042 0.091113658217311308
leaf_weight=171.80279957642779 6.7587819807231408 33.307934809708968 2.8023337806807831 9.2800418160622922 1566.5849816731934 20.511180865461938 8.5895246780710277
leaf_count=871 64 636 75 1372 20920 167 753
internal_value=0 -0.0318307 -0.110936 0.00179269 0.00136961 0.0163191 0.0104418
internal_weight=0 42.8691 9.56112 1776.77 1767.49 200.904 180.392
internal_count=24858 775 139 24083 22711 1791 1624
is_linear=0
shrinkage=0.1


Tree=92
num_leaves=8
num_cat=0
split_feature=2 5 4 4 11 1 5
split_gain=5.5867 11.934 14.242 11.5417 12.7004 11.493 10.7998
threshold=6381.5000000000009 0.00010454654693603517 2.7763671875000004 11.261718750000002 0.00066304206848144542 53282.500000000007 7.2568655014038099e-05
decision_type=2 2 2 2 2 2 2
left_child=-1 3 -3 4 5 -2 -5
right_child=1 2 -4 6 -6 -7 -8
leaf_value=0.0043383021478917653 0.020659256231231136 0.13864062714672806 0.011430194186955237 0.097930403112890571 -0.027701328746595529 -0.021838491288597627 -0.073873543448082266
leaf_weight=1181.6508090651041 147.25792354118312 11.15593484090641 41.685157641637488 16.834300323273059 309.77816019451711 112.06215402972884 4.6746672473382196
leaf_count=16935 1123 79 2663 140 2628 1314 73
internal_value=0 -0.00724198 0.038288 -0.0113155 -0.0140333 0.00229433 0.0605904
internal_weight=0 643.448 52.8411 590.607 569.098 259.32 21.509
internal_count=24955 8020 2742 5278 5065 2437 213
is_linear=0
shrinkage=0.1


Tree=93
num_leaves=8
num_cat=0
split_feature=3 8 9 5 9 3 3
split_gain=4.57408 6.69776 11.4566 7.67956 8.28452 7.1242 6.68746
threshold=100.50000000000001 0.085662841796875014 0.00038850307464599615 2.8342008590698246e-05 0.00039255619049072271 213.50000000000003 98.500000000000014
decision_type=2 2 2 2 2 2 2
left_child=6 5 -3 -4 -5 -2 -1
right_child=1 2 3 4 -6 -7 -8
leaf_value=-0.0002877044199226784 -0.0029827522858279459 0.064429028714304934 -0.054731754462927988 -0.80560505511435121 0.066563572283717468 -0.33444826326442323 -0.023527932585494685
leaf_weight=1536.0406382930814 70.891745816436014 50.780307990018628 17.774164563801609 0.10982142812281281 9.4294141958380333 0.65404870509519142 134.67238244239707
leaf_count=13352 3497 2639 251 24 3943 44 1178
internal_value=0 0.0160886 0.0363386 -0.0158863 0.056492 -0.00601464 -0.00216105
internal_weight=0 149.64 78.0937 27.3134 9.53924 71.5458 1670.71
internal_count=24928 10398 6857 4218 3967 3541 14530
is_linear=0
shrinkage=0.1


Tree=94
num_leaves=8
num_cat=0
split_feature=3 3 7 12 3 0 11
split_gain=3.9808 6.7455 7.81836 4.0163 5.223 5.65655 3.51226
threshold=116.50000000000001 213.50000000000003 0.00060820579528808605 22.500000000000004 55.500000000000007 6.5000000000000009 0.0025243759155273442
decision_type=2 2 2 2 2 2 2
left_child=3 -2 -3 6 5 -5 -1
right_child=1 2 -4 4 -6 -7 -8
leaf_value=0.00077996695905432477 0.081913879858951849 -0.47105004327721434 0.10155832888719318 0.10208296720914928 0.091078653058565107 -0.31304267173082545 -0.014421066353050264
leaf_weight=1635.7769290274446 10.517340286460236 0.49540410767076615 0.45919798892282415 0.60696509527042397 8.6844144793576543 0.71405040752142668 167.56915198764182
leaf_count=12698 6622 21 206 42 700 23 4708
internal_value=0 0.0588101 -0.195666 -0.000281973 0.062899 -0.122326 -0.000632532
internal_weight=0 11.4719 0.954602 1813.35 10.0054 1.32102 1803.35
internal_count=25020 6849 227 18171 765 65 17406
is_linear=0
shrinkage=0.1


Tree=95
num_leaves=8
num_cat=0
split_feature=1 3 5 5 4 4 4
split_gain=5.99108 12.2148 15.2279 8.08135 13.6096 32.8393 7.4927
threshold=22353.500000000004 69.500000000000014 0.0001470446586608887 0.0006110668182373048 51.703125000000007 73.406250000000014 35.703125000000007
decision_type=2 2 2 2 2 2 2
left_child=1 2 -1 -4 -5 -6 -2
right_child=6 -3 3 4 5 -7 -8
leaf_value=0.010066637779054709 -0.0039281529229337744 0.05063173586428326 -0.066963818715350773 0.11004009168308787 -1.8926459796587485 -0.27929642576806313 0.055090713122524573
leaf_weight=158.40103520639241 1561.4913345484383 65.567730012407992 16.857481363695118 0.49342724913731106 0.150043606874533 0.784070432651788 21.810894721304066
leaf_count=957 15855 1119 149 17 14 156 6701
internal_value=0 0.0137711 9.21317e-05 -0.0863141 -0.314739 -0.53908 -0.00311512
internal_weight=0 242.254 176.686 18.285 1.42754 0.934114 1583.3
internal_count=24968 2412 1293 336 187 170 22556
is_linear=0
shrinkage=0.1


Tree=96
num_leaves=8
num_cat=0
split_feature=2 5 4 8 5 5 7
split_gain=6.98489 6.60054 5.08161 12.7765 10.068 9.74878 9.99142
threshold=2404.5000000000005 0.0001470446586608887 9.2500000000000018 0.21331787109375003 6.9946050643920912e-05 0.00023728609085083011 0.0028562545776367192
decision_type=2 2 2 2 2 2 2
left_child=1 -1 -2 4 -4 6 -6
right_child=2 -3 3 -5 5 -7 -8
leaf_value=0.023927439942841199 -0.003576265569139861 -0.044931829544651088 0.038827248991194663 0.081875348575978002 -0.0082630654081705234 0.031227738785918131 -0.092071851006860495
leaf_weight=176.17764543934027 1469.8421143277374 15.114401173428631 50.990486743394285 24.310753340178053 38.169074351579184 28.674273225224169 22.675449070520699
leaf_count=1623 13335 811 433 2309 461 5576 466
internal_value=0 0.0184866 -0.00170921 0.0149409 0.00335972 -0.0168428 -0.0394972
internal_weight=0 191.292 1634.66 164.82 140.509 89.5188 60.8445
internal_count=25014 2434 22580 9245 6936 6503 927
is_linear=0
shrinkage=0.1


Tree=97
num_leaves=8
num_cat=0
split_feature=11 0 2 7 13 2 2
split_gain=6.04625 8.15177 14.4938 7.28552 6.44632 6.30631 6.111
threshold=0.0011591911315917971 3.5000000000000004 4041.5000000000005 0.0086936950683593767 26.385476414505863 3737.5000000000005 12652.500000000002
decision_type=2 2 2 2 2 2 2
left_child=1 2 -1 6 -5 -3 -2
right_child=3 5 -4 4 -6 -7 -8
leaf_value=0.063139984256795498 -0.0082306309391953474 0.010261548963985703 0.0088552073525335444 0.0040562183399429829 0.058321852670355334 -0.012062876484580147 -0.055968047901332821
leaf_weight=54.827854312025011 611.47333619937854 211.38160521799 477.82066124101402 103.32299495588813 27.775287884171121 315.24751989757351 28.04569272705703
leaf_count=508 10237 2408 3917 3136 417 3659 735
internal_value=0 0.00572028 0.014443 -0.00592183 0.0155534 -0.00310215 -0.0103242
internal_weight=0 1059.28 532.649 770.617 131.098 526.629 639.519
internal_count=25017 10492 4425 14525 3553 6067 10972
is_linear=0
shrinkage=0.1


Tree=98
num_leaves=8
num_cat=0
split_feature=9 3 3 3 2 12 5
split_gain=6.04668 6.23698 5.56843 4.9053 9.6855 5.77393 5.26777
threshold=6.4224004745483412e-05 8.5000000000000018 125.50000000000001 31.500000000000004 2163.5000000000005 22.500000000000004 1.4901161193847659e-07
decision_type=2 2 2 2 2 2 2
left_child=-1 -2 3 4 -3 6 -5
right_child=1 2 -4 5 -6 -7 -8
leaf_value=0.022701534361058578 -0.098076071901249354 0.13631110767163351 0.087072292596301171 -0.053282765480867647 0.009990223504321126 0.079410691364232816 -0.0027365346045838106
leaf_weight=113.85498383227969 6.6058671195060006 6.2831565423402926 7.1933773994824142 20.90882426535245 178.43581504520262 8.458592060429508 1481.2471259452577
leaf_count=1231 42 51 5044 197 1227 796 16428
internal_value=0 -0.00109895 -0.000722651 -0.00109519 0.0142873 -0.00297617 -0.00344011
internal_weight=0 1709.13 1702.53 1695.33 184.719 1510.61 1502.16
internal_count=25016 23785 23743 18699 1278 17421 16625
is_linear=0
shrinkage=0.1


Tree=99
num_leaves=8
num_cat=0
split_feature=1 3 5 9 10 13 11
split_gain=5.60393 6.46425 12.0904 5.86706 5.53284 6.12465 5.24796
threshold=174126.00000000003 72.500000000000014 1.1891126632690431e-05 0.00025093555450439459 1.5000000000000002 34.162129100940696 0.0003970861434936524
decision_type=2 2 2 2 2 2 2
left_child=4 2 -2 -3 6 -6 -1
right_child=1 3 -4 -5 5 -7 -8
