tree
version=v3
num_class=1
num_tree_per_iteration=1
label_index=0
max_feature_idx=15
objective=binary sigmoid:1
feature_names=num_seqs sum_len min_len sum_completeness gc_var cpg_var cpg_max_min skew_var skew_max_min tetra_pca overlap_singl_like_gene codon_pca redundunt_protein min_contig_rate overlap_sp_one_or_no redundunt_cat
feature_infos=[2:35] [4208:568414] [2000:36684] [0:302] [0:793.5] [0:0.01247406005859375] [1.0728836059570312e-06:0.1669921875] [0:0.1522216796875] [5.9604644775390625e-06:0.693359375] [8.5234642028808594e-06:0.005657196044921875] [0:10] [7.4565410614013672e-05:0.034942626953125] [0:115] [0.38532765609962377:49.968640069809936] -1:0:1 -1:0:3:1:2
tree_sizes=966 987 980 995 1004 988 995 976 989 972 988 995 992 991 997 997 977 992 985 1005 998 984 991 1000 993 984 986 998 1006 1003 997 993 1006 999 990 1011 989 1005 1000 989 1004 999 996 990 1001 984 983 996 1008 1006 1000 983 984 996 993 1005 1006 983 980 991 989 975 995 1000 994 988 983 989 981 981 983 992 979 977 992 986 979 980 1003 979 981 997 976 983 1001 977 994 991 993 967 991 991 985 972 982 982 987 994 987 992 995 991 991 981 984 972 1001 989 985 965 984 999 990 972 996 982 991 986 992 985 992 999 994 986 981 995 986 995 996 988 991 994 994 981 990 987 989 977 987 984 995 979 965 981 980 978 972 982 975 985 994 993 979 984 970 972 994 991 985 986 980 977 980 969 977 973 969 981 990 969 984 984 973 979 967 983

Tree=0
num_leaves=8
num_cat=0
split_feature=3 6 12 5 3 9 12
split_gain=5387.95 3866.49 4293.38 299.139 135.922 131.572 79.839
threshold=102.50000000000001 0.024116516113281253 1.5000000000000002 7.7515840530395521e-05 91.500000000000014 0.00029742717742919927 1.0000000180025095e-35
decision_type=2 2 2 2 2 2 2
left_child=1 2 3 4 6 -3 -1
right_child=-2 5 -4 -5 -6 -7 -8
leaf_value=0.79885162312931612 1.1538007340795866 1.0247545911222053 1.1361314337095882 0.93158266620358454 0.73995195960572391 1.1484211130270432 0.95672184349215095
leaf_weight=1032.6478233933449 1935.3881616592407 98.791919827461243 477.4294550716877 150.1326025724411 486.37518009543419 666.06756970286369 33.06028813123703
leaf_count=5310 9952 508 2455 772 2501 3425 170
internal_value=1.02345 0.939004 0.871123 0.796795 0.783757 1.13245 0.803749
internal_weight=0 2944.5 2179.65 1702.22 1552.08 764.859 1065.71
internal_count=25093 15141 11208 8753 7981 3933 5480
is_linear=0
shrinkage=1


Tree=1
num_leaves=8
num_cat=0
split_feature=3 11 10 0 8 11 3
split_gain=4450.57 1216.64 895.889 329.423 322.978 131.238 126.754
threshold=102.50000000000001 0.0027894973754882817 1.0000000180025095e-35 2.5000000000000004 0.079132080078125014 0.0017333030700683596 93.500000000000014
decision_type=2 2 2 2 2 2 2
left_child=1 2 4 -3 6 -6 -1
right_child=-2 3 -4 -5 5 -7 -8
leaf_value=-0.14462221659028529 0.12523245991714604 -0.064678651512094759 0.043169047693584706 0.097149568181812751 -0.10651783512884216 -0.016668288267578928 -0.21860149638161627
leaf_weight=805.41583672165871 1806.347664758563 174.82342624664307 349.79541905224323 448.48636449873447 736.3603348582983 208.62194190919399 325.08227175474167
leaf_count=3870 9909 880 1825 2417 3580 1048 1516
internal_value=0 -0.0728516 -0.104878 0.0517606 -0.129829 -0.0866819 -0.165896
internal_weight=0 3048.59 2425.28 623.31 2075.48 944.982 1130.5
internal_count=25045 15136 11839 3297 10014 4628 5386
is_linear=0
shrinkage=0.1


Tree=2
num_leaves=8
num_cat=0
split_feature=4 3 10 3 9 4 8
split_gain=3839.45 2845.58 835.348 126.743 86.7951 110.392 64.5951
threshold=10.699218750000002 103.50000000000001 1.0000000180025095e-35 93.500000000000014 0.00011560320854187013 4.8730468750000009 0.083831787109375014
decision_type=2 2 2 2 2 2 2
left_child=1 2 3 4 -1 6 -6
right_child=-2 -3 -4 -5 5 -7 -8
leaf_value=-0.087560766163311307 0.11833894264045251 0.11660055478415376 0.029853009788776197 -0.18132868363401791 -0.1792118899283392 -0.056950782730983411 -0.12589069913896911
leaf_weight=414.82650822401047 1762.100641399622 658.9490709900856 328.10169164836407 585.65247629582882 482.0726446211338 134.23706182837486 429.72819617390633
leaf_count=1908 9987 3869 1747 2617 2183 630 2007
internal_value=0 -0.0672563 -0.118276 -0.142024 -0.126267 -0.141617 -0.154082
internal_weight=0 3033.57 2374.62 2046.52 1460.86 1046.04 911.801
internal_count=24948 14961 11092 9345 6728 4820 4190
is_linear=0
shrinkage=0.1


Tree=3
num_leaves=8
num_cat=1
split_feature=3 6 15 6 6 3 7
split_gain=3180.21 2107.57 2535.64 188.254 61.9422 49.997 45.9748
threshold=102.50000000000001 0.026573181152343753 0 0.018806457519531253 0.038955688476562507 91.500000000000014 0.0045604705810546884
decision_type=2 2 1 2 2 2 2
left_child=1 2 -1 5 -3 -4 -5
right_child=-2 4 3 6 -6 -7 -8
leaf_value=0.11006684748328666 0.11702095082205333 0.049342030282234869 -0.1444526281288466 -0.082471298880388261 0.1230145099893743 -0.17936146224002611 0.028169150077836432
leaf_weight=470.79923991858959 1560.0888282954693 149.32565204799175 1287.0107076019049 111.08997470140457 484.12122601270676 602.28066666424274 56.738979697227478
leaf_count=2450 9794 802 5630 516 2891 2541 282
internal_value=0 -0.0574623 -0.0983344 -0.145856 0.105647 -0.155581 -0.0450664
internal_weight=0 3161.37 2527.92 2057.12 633.447 1889.29 167.829
internal_count=24906 15112 11419 8969 3693 8171 798
cat_boundaries=0 1
cat_threshold=12
is_linear=0
shrinkage=0.1


Tree=4
num_leaves=8
num_cat=1
split_feature=4 14 0 4 9 11 5
split_gain=2825.04 1395.6 276.333 171.277 80.031 67.3219 51.9865
threshold=12.472656250000002 0 2.5000000000000004 4.8730468750000009 8.3416700363159193e-05 0.00096535682678222667 8.6873769760131849e-05
decision_type=2 1 2 2 2 2 2
left_child=1 2 4 5 -1 -4 -6
right_child=-2 -3 3 -5 6 -7 -8
leaf_value=-0.056583384139398833 0.1136119013833097 0.076101118579118818 -0.05798085882379056 0.017070766891555025 -0.15829585768698115 -0.10110032261322865 -0.065103297540781271
leaf_weight=108.46303999423981 1513.373680755496 663.49327999353409 825.86095359921455 223.50526724755764 608.49491211771965 644.77804261445999 66.390656962990761
leaf_count=486 9767 4104 3793 1163 2585 2909 312
internal_value=0 -0.0527049 -0.0872002 -0.0644904 -0.136314 -0.0768859 -0.149128
internal_weight=0 3140.99 2477.49 1694.14 783.349 1470.64 674.886
internal_count=25119 15352 11248 7865 3383 6702 2897
cat_boundaries=0 1
cat_threshold=1
is_linear=0
shrinkage=0.1


Tree=5
num_leaves=8
num_cat=0
split_feature=3 5 12 5 8 12 7
split_gain=2493.61 1453.45 1841.23 182.849 121.573 104.692 54.619
threshold=103.50000000000001 0.00023728609085083011 2.5000000000000004 5.1587820053100593e-05 0.086761474609375014 1.0000000180025095e-35 0.0029592514038085942
decision_type=2 2 2 2 2 2 2
left_child=1 2 3 5 -5 -1 -7
right_child=-2 -3 -4 4 -6 6 -8
leaf_value=-0.13227039310466784 0.11473307943391885 0.10813596461517963 0.11280284299958254 -0.10185722306745817 0.0052478289031632729 0.061611291124050886 -0.10087108756545826
leaf_weight=1722.2611835598946 1362.3267466723919 507.21433654427528 430.56223419308662 239.12699645757675 190.32925756275654 42.667253986001015 40.162268325686455
leaf_count=7106 9672 3412 2392 1040 947 194 188
internal_value=0 -0.0470216 -0.0765507 -0.113036 -0.0543897 -0.126989 -0.017173
internal_weight=0 3172.32 2665.11 2234.55 429.456 1805.09 82.8295
internal_count=24951 15279 11867 9475 1987 7488 382
is_linear=0
shrinkage=0.1


Tree=6
num_leaves=8
num_cat=0
split_feature=12 9 0 12 7 9 9
split_gain=1236.13 1887.51 312.844 135.228 150.496 85.9117 72.2853
threshold=2.5000000000000004 0.00036346912384033209 2.5000000000000004 1.0000000180025095e-35 0.0019106864929199221 0.00022703409194946292 0.00088667869567871105
decision_type=2 2 2 2 2 2 2
left_child=1 3 6 4 -1 -6 -3
right_child=-2 2 -4 -5 5 -7 -8
leaf_value=-0.11053765814652135 0.11245943062570291 -0.051176754360165978 0.088637240540797815 0.02016826955714866 -0.08409274033643005 -0.015319642533827277 0.053175372860546299
leaf_weight=1275.7200119197369 820.56209503114223 237.49827831983566 1136.7502918839455 118.50477589666843 412.03211581707001 324.84919069707394 92.132598355412483
leaf_count=5416 5496 1192 8173 608 1821 1725 593
internal_value=0 -0.0235574 0.0637646 -0.0836423 -0.0897548 -0.0537746 -0.0220101
internal_weight=0 3597.49 1466.38 2131.11 2012.6 736.881 329.631
internal_count=25024 19528 9958 9570 8962 3546 1785
is_linear=0
shrinkage=0.1


Tree=7
num_leaves=8
num_cat=0
split_feature=4 12 4 6 4 6 12
split_gain=1940.94 2263.09 196.029 60.752 50.3603 46.5904 42.4148
threshold=11.261718750000002 1.5000000000000002 4.5097656250000009 0.014934539794921877 19.929687500000004 0.017585754394531253 1.0000000180025095e-35
decision_type=2 2 2 2 2 2 2
left_child=1 2 3 6 -2 -4 -1
right_child=4 -3 5 -5 -6 -7 -8
leaf_value=-0.11489833317676663 0.056017258686050099 0.1038656071463 -0.047539373035770216 -0.061566338285252077 0.11292682294297636 0.034065130536264802 -0.017312286691212639
leaf_weight=1594.0360909253359 180.65160980820656 792.06707961857319 197.66953834891319 277.35452607274055 1116.7113332226872 108.29099032282829 45.81960566341877
leaf_count=6546 1135 5592 884 1248 8802 611 210
internal_value=0 -0.0412772 -0.0929885 -0.104851 0.105002 -0.0186564 -0.112172
internal_weight=0 3015.24 2223.17 1917.21 1297.36 305.961 1639.86
internal_count=25028 15091 9499 8004 9937 1495 6756
is_linear=0
shrinkage=0.1


Tree=8
num_leaves=8
num_cat=0
split_feature=6 12 5 6 9 12 9
split_gain=1572.69 1780.7 114.544 77.2977 60.6529 35.3346 31.0023
threshold=0.022209167480468753 1.5000000000000002 2.6732683181762699e-05 0.034561157226562507 0.00034987926483154302 2.5000000000000004 0.00022703409194946292
decision_type=2 2 2 2 2 2 2
left_child=1 2 -1 -2 -4 6 -3
right_child=3 5 4 -5 -6 -7 -8
leaf_value=-0.096921333748518967 0.052105755414843295 0.075999180806223213 -0.065713330703478345 0.11111898754433869 -0.00039356397920105221 0.10808987626292965 -0.09768665178553583
leaf_weight=1503.4434896633029 291.3052202090621 30.432748913764954 555.93757279217243 932.36306389421225 190.99247359484434 649.18236763030291 15.516541182994841
leaf_count=6253 1966 187 2402 8063 1002 4981 84
internal_value=0 -0.0378055 -0.0810192 0.0970704 -0.0490109 0.102092 0.0173471
internal_weight=0 2945.51 2250.37 1223.67 746.93 695.132 45.9493
internal_count=24938 14909 9657 10029 3404 5252 271
is_linear=0
shrinkage=0.1


Tree=9
num_leaves=8
num_cat=0
split_feature=4 12 4 12 1 4 1
split_gain=1533.74 1593.83 142.41 81.9939 72.2428 46.4593 38.5912
threshold=11.261718750000002 1.0000000180025095e-35 3.8466796875000004 2.5000000000000004 47761.000000000007 20.789062500000004 39386.000000000007
decision_type=2 2 2 2 2 2 2
left_child=1 2 -1 -3 -4 6 -2
right_child=5 3 4 -5 -6 -7 -8
leaf_value=-0.091984567759135882 -0.0027187609660876202 0.010779413494553275 -0.055324025180141567 0.10224067511983058 0.038880838336121694 0.10950472730461339 0.091092934122952496
leaf_weight=1791.0481698960066 71.66998066008091 115.6994116678834 239.18605895340443 641.40591835230589 123.40306929498911 948.86001580953598 112.96926416456699
leaf_count=7434 426 594 1072 5279 672 8720 799
internal_value=0 -0.03654 -0.0804144 0.0882638 -0.0232625 0.100574 0.0546788
internal_weight=0 2910.74 2153.64 757.105 362.589 1133.5 184.639
internal_count=24996 15051 9178 5873 1744 9945 1225
is_linear=0
shrinkage=0.1


Tree=10
num_leaves=8
num_cat=0
split_feature=3 6 12 3 6 7 12
split_gain=1413.6 699.641 759.036 68.0484 59.9647 40.0653 39.2041
threshold=103.50000000000001 0.029136657714843753 2.5000000000000004 95.500000000000014 0.014453887939453127 0.0056018829345703134 1.0000000180025095e-35
decision_type=2 2 2 2 2 2 2
left_child=1 2 3 4 6 -6 -1
right_child=-2 -3 -4 -5 5 -7 -8
leaf_value=-0.07485971488497474 0.10554967578026951 0.093320476829272456 0.094666556380786734 -0.10269462532232537 -0.044201530943728938 0.036291463377506487 0.0088560960428569428
leaf_weight=1300.6868342459202 992.34661568701267 383.36180598288774 311.20594158023596 547.0823782607913 236.5771297737956 83.720522664487362 58.452911555767059
leaf_count=5316 9679 3535 2380 2320 1051 435 276
internal_value=0 -0.0325961 -0.0516178 -0.0720643 -0.0620863 -0.023162 -0.0712593
internal_weight=0 2921.09 2537.73 2226.52 1679.44 320.298 1359.14
internal_count=24992 15313 11778 9398 7078 1486 5592
is_linear=0
shrinkage=0.1


Tree=11
num_leaves=8
num_cat=0
split_feature=4 12 4 12 7 5 11
split_gain=1173.15 1103.18 111.972 78.4006 41.0627 37.5078 45.4313
threshold=13.085937500000002 2.5000000000000004 3.6962890625000004 1.0000000180025095e-35 0.0029592514038085942 0.00010454654693603517 0.0007064342498779298
decision_type=2 2 2 2 2 2 2
left_child=1 2 3 5 -5 6 -1
right_child=-2 -3 -4 4 -6 -7 -8
leaf_value=-0.054010497875537994 0.099145354607467678 0.096731864709337756 -0.015062290369293008 0.071043847269290736 -0.061966925110325782 -0.0036625499311912823 -0.089911779664923877
leaf_weight=502.8672800809145 937.17378071695566 553.58067791908979 436.23688546568155 56.69973311573267 39.294837191700935 68.456059098243713 1178.654289200902
leaf_count=2091 9611 5285 2187 300 189 327 4969
internal_value=0 -0.0299086 -0.0606269 -0.0713947 0.0165966 -0.0762214 -0.0791753
internal_weight=0 2835.79 2282.21 1845.97 95.9946 1749.98 1681.52
internal_count=24959 15348 10063 7876 489 7387 7060
is_linear=0
shrinkage=0.1


Tree=12
num_leaves=8
num_cat=0
split_feature=4 12 4 12 5 0 9
split_gain=1029.38 933.461 116.318 66.9383 45.5574 40.0968 30.3141
threshold=14.292968750000002 2.5000000000000004 5.5839843750000009 1.0000000180025095e-35 0.00010454654693603517 2.5000000000000004 7.3224306106567396e-05
decision_type=2 2 2 2 2 2 2
left_child=1 2 3 4 6 -4 -1
right_child=-2 -3 5 -5 -6 -7 -8
leaf_value=-0.03279381021753492 0.098879640647623113 0.093854490547793823 -0.054476843753218811 0.015803543441332831 0.0015873497376738437 0.026710420248206718 -0.075601179811438615
leaf_weight=184.42492623627186 843.96503962576389 519.5574591383338 85.120109029114246 101.17223255336285 90.348853752017021 213.19195204228163 1606.0668140351772
leaf_count=769 9418 5335 382 521 446 1228 6851
internal_value=0 -0.0271104 -0.0546715 -0.0634336 -0.0676959 0.00354446 -0.0711919
internal_weight=0 2799.88 2280.32 1982.01 1880.84 298.312 1790.49
internal_count=24950 15532 10197 8587 8066 1610 7620
is_linear=0
shrinkage=0.1


Tree=13
num_leaves=8
num_cat=0
split_feature=3 5 12 3 5 8 9
split_gain=1036.51 464.258 438.935 66.671 35.991 43.3118 25.851
threshold=104.50000000000001 0.00027406215667724615 2.5000000000000004 91.500000000000014 1.731514930725098e-05 0.16619873046875003 6.4224004745483412e-05
decision_type=2 2 2 2 2 2 2
left_child=1 2 3 4 -1 -6 -5
right_child=-2 -3 -4 6 5 -7 -8
leaf_value=-0.058668805200126642 0.10370786799239717 0.092954220434974547 0.079666833835026513 -0.0011014294700182319 -0.040006118954669156 0.022589049507572435 -0.086636904824873892
leaf_weight=804.69424070417881 777.34961164742708 288.11031764745712 267.50201620906591 37.379798755049706 558.6113862991333 137.81218352168798 645.42715054750443
leaf_count=3401 9349 3389 2542 163 2464 701 2919
internal_value=0 -0.0271258 -0.0412385 -0.0560479 -0.0442639 -0.0276194 -0.0819543
internal_weight=0 2739.54 2451.43 2183.92 1501.12 696.424 682.807
internal_count=24928 15579 12190 9648 6566 3165 3082
is_linear=0
shrinkage=0.1


Tree=14
num_leaves=8
num_cat=2
split_feature=5 15 5 7 15 7 7
split_gain=708.855 641.877 111.71 63.8819 31.0383 35.3155 32.5054
threshold=0.00023728609085083011 0 5.4687261581420905e-05 0.0017571449279785158 1 0.0029592514038085942 0.0027151107788085942
decision_type=2 1 2 2 1 2 2
left_child=1 -1 4 -4 5 -3 -6
right_child=-2 2 3 -5 6 -7 -8
leaf_value=0.087934561220854066 0.098772384091291632 0.061976395143203848 -0.036115998403166059 0.035990264638255325 -0.065940707294571618 -0.058524814081934523 -0.037406168580943845
leaf_weight=451.7304697483778 612.4628331810236 51.408805094659328 238.54290164262056 253.36747831106186 1127.1388860866427 46.15730657428503 618.175895832479
leaf_count=5367 8308 288 1161 1763 4985 225 2790
internal_value=0 -0.0200456 -0.0411378 0.00102365 -0.052615 0.00450681 -0.0555159
internal_weight=0 2786.52 2334.79 491.91 1842.88 97.5661 1745.31
internal_count=24887 16579 11212 2924 8288 513 7775
cat_boundaries=0 1 2
cat_threshold=8 6
is_linear=0
shrinkage=0.1


Tree=15
num_leaves=8
num_cat=0
split_feature=6 12 5 7 6 12 7
split_gain=622.768 593.537 61.0027 84.438 44.4951 21.8609 35.1622
threshold=0.026573181152343753 2.5000000000000004 2.5480985641479496e-05 0.0066890716552734384 0.038955688476562507 1.0000000180025095e-35 0.0011820793151855471
decision_type=2 2 2 2 2 2 2
left_child=1 2 5 -4 -2 -1 -7
right_child=4 -3 3 -5 -6 6 -8
leaf_value=-0.056328948024022135 0.043579183545062836 0.090937789159699259 -0.035017740025623093 0.044765388159890084 0.1032885953384392 0.092637586379989825 -0.050126089048368107
leaf_weight=1325.7805673703551 167.09202094748616 405.26361077651381 667.30037082731724 165.56483640521765 493.14034884795547 26.178939059376717 50.591489024460316
leaf_count=5925 1674 5180 3220 1007 7567 159 239
internal_value=0 -0.0204086 -0.0405949 -0.0191577 0.0881773 -0.0533247 -0.00144299
internal_weight=0 2640.68 2235.42 832.865 660.232 1402.55 76.7704
internal_count=24971 15730 10550 4227 9241 6323 398
is_linear=0
shrinkage=0.1


Tree=16
num_leaves=8
num_cat=0
split_feature=4 12 4 6 0 7 12
split_gain=660.185 481.042 96.0112 37.5654 31.2041 30.9324 24.7636
threshold=16.304687500000004 1.5000000000000002 6.0957031250000009 0.033340454101562507 2.5000000000000004 0.0028562545776367192 22.500000000000004
decision_type=2 2 2 2 2 2 2
left_child=1 2 -1 5 -4 -3 -7
right_child=-2 3 4 -5 -6 6 -8
leaf_value=-0.046951273089678107 0.095463713342550716 0.09810318145870861 -0.03569065528634368 -0.20276039587516395 0.038801338865287638 0.015322404440816305 0.10862454301522068
leaf_weight=1885.2088797688484 617.65207391232252 288.93642453849316 79.813387125730515 4.7732482329010955 190.33263705670834 102.85355460643768 39.321782954037189
leaf_count=8536 9235 3842 377 58 1233 1173 571
internal_value=0 -0.0195857 -0.0389617 0.0762243 0.016793 0.0793133 0.0411274
internal_weight=0 2591.24 2155.35 435.885 270.146 431.112 142.175
internal_count=25025 15790 10146 5644 1610 5586 1744
is_linear=0
shrinkage=0.1


Tree=17
num_leaves=8
num_cat=0
split_feature=6 12 6 8 12 8 9
split_gain=487.18 398.626 81.8723 36.1418 25.8826 27.9213 20.4721
threshold=0.034561157226562507 2.5000000000000004 0.017280578613281253 0.11227416992187501 1.0000000180025095e-35 0.12448120117187501 8.3416700363159193e-05
decision_type=2 2 2 2 2 2 2
left_child=1 2 4 -4 6 -6 -1
right_child=-2 -3 3 -5 5 -7 -8
leaf_value=-0.013541499576200176 0.097190844156434475 0.082877724987251752 -0.017477138912332834 0.043075222285112486 0.058237624635572416 -0.048624386019516179 -0.045552525337018965
leaf_weight=228.72388422489166 454.06752496212721 360.66685200855136 207.93224223330617 187.414904974401 55.287515103816986 43.836896307766438 1579.0987142063677
leaf_count=1016 8016 5304 1207 1541 324 205 7332
internal_value=0 -0.0148747 -0.0301882 0.0112278 -0.0387745 0.0109788 -0.0415025
internal_weight=0 2662.96 2302.29 395.347 1906.95 99.1244 1807.82
internal_count=24945 16929 11625 2748 8877 529 8348
is_linear=0
shrinkage=0.1


Tree=18
num_leaves=8
num_cat=0
split_feature=3 12 9 3 7 1 7
split_gain=681.768 144.628 90.873 50.6818 39.6215 32.1863 29.2842
threshold=104.50000000000001 2.5000000000000004 0.00074553489685058605 95.500000000000014 0.024467468261718753 28530.000000000004 0.0020608901977539067
decision_type=2 2 2 2 2 2 2
left_child=1 2 3 -1 -4 -5 -3
right_child=-2 6 4 5 -6 -7 -8
leaf_value=-0.025463217479931285 0.099970360560489899 0.093644514238755472 0.068791333245011063 0.023456229517460941 -0.055494873792419241 -0.069096205768014438 0.015779870877381457
leaf_weight=1589.9780425392091 568.39677881449461 113.45280857384205 128.03554855659604 40.844316594302654 32.075405590236187 469.34871973842382 84.10852899029851
leaf_count=7992 9356 1514 2066 220 267 2424 1097
internal_value=0 -0.021555 -0.0287267 -0.034263 0.0438927 -0.0616868 0.060495
internal_weight=0 2457.84 2260.28 2100.17 160.111 510.193 197.561
internal_count=24936 15580 12969 10636 2333 2644 2611
is_linear=0
shrinkage=0.1


Tree=19
num_leaves=8
num_cat=1
split_feature=3 15 9 11 3 3 7
split_gain=601.349 126.283 80.4301 34.9963 34.2634 39.8915 28.3897
threshold=107.50000000000001 0 0.0009715557098388673 0.0023679733276367192 92.500000000000014 101.50000000000001 0.0020608901977539067
decision_type=2 1 2 2 2 2 2
left_child=1 6 4 -4 -3 -6 -1
right_child=-2 2 3 -5 5 -7 -8
leaf_value=0.092603434475583529 0.10476402696477374 -0.020233134502222028 -0.14716662619126272 0.079615286809333996 -0.057746191620674951 0.013243273892063895 0.016798510896756838
leaf_weight=113.49502661824226 479.70128563046455 1525.6388205550611 7.3401773050427428 93.209268882870674 557.11499844118953 92.267097737640142 87.48829073831439
leaf_count=1686 8700 8033 33 1698 2916 753 1183
internal_value=0 -0.0175637 -0.0242728 0.0630595 -0.0284217 -0.0476597 0.0567804
internal_weight=0 2476.55 2275.57 100.549 2175.02 649.382 200.983
internal_count=25002 16302 13433 1731 11702 3669 2869
cat_boundaries=0 1
cat_threshold=8
is_linear=0
shrinkage=0.1


Tree=20
num_leaves=8
num_cat=1
split_feature=3 4 15 11 3 6 4
split_gain=535.266 296.185 132.993 48.3542 41.0078 39.8669 33.3595
threshold=107.50000000000001 25.468750000000004 0 0.0025243759155273442 95.500000000000014 0.030342102050781253 6.6933593750000009
decision_type=2 2 1 2 2 2 2
left_child=1 2 5 4 6 -1 -4
right_child=-2 -3 3 -5 -6 -7 -8
leaf_value=0.062478310705097143 0.10321173918370284 0.09395692197463823 -0.02743031282579389 -0.083036491003540727 -0.056362284316868606 -0.21996473158221908 0.022156217330722417
leaf_weight=178.80249366909266 433.45333875343204 218.05555206164718 1249.023221835494 193.94375147670507 463.32269873470068 5.1408106647431842 152.20530194416642
leaf_count=2693 8639 3738 5649 954 2402 64 827
internal_value=0 -0.017305 -0.0281242 -0.0353432 -0.0305718 0.0517698 -0.0220441
internal_weight=0 2460.49 2242.44 2058.49 1864.55 183.943 1401.23
internal_count=24966 16327 12589 9832 8878 2757 6476
cat_boundaries=0 1
cat_threshold=8
is_linear=0
shrinkage=0.1


Tree=21
num_leaves=8
num_cat=0
split_feature=4 12 4 11 1 1 12
split_gain=398.872 223.471 65.9545 40.4636 48.0605 34.7456 30.1197
threshold=20.789062500000004 2.5000000000000004 5.1074218750000009 0.0017142295837402346 29223.500000000004 47436.500000000007 1.5000000000000002
decision_type=2 2 2 2 2 2 2
left_child=1 2 3 4 -1 -4 -7
right_child=-2 -3 5 -5 -6 6 -8
leaf_value=0.018376110664763533 0.094282357265253081 0.071086888288517211 -0.0086273226018087467 -0.063344794318765163 -0.03265928861474611 0.064521929226509719 -0.20194150881243667
leaf_weight=217.72352284938097 402.66451723873615 278.01767217740417 235.04983860999346 338.21037304401398 1209.9560106769204 126.82099658250809 4.3885007239878169
leaf_count=1055 8704 5329 1308 1644 5821 1082 25
internal_value=0 -0.0132386 -0.0242341 -0.032244 -0.0248763 0.0143849 0.0556091
internal_weight=0 2410.17 2132.15 1765.89 1427.68 366.259 131.209
internal_count=24968 16264 10935 8520 6876 2415 1107
is_linear=0
shrinkage=0.1


Tree=22
num_leaves=8
num_cat=2
split_feature=4 15 4 8 9 15 6
split_gain=356.722 187.142 38.0632 38.7524 38.0632 34.2899 24.9917
threshold=17.039062500000004 0 4.3300781250000009 0.18780517578125003 0.00022703409194946292 1 0.030342102050781253
decision_type=2 1 2 2 2 1 2
left_child=1 6 4 -4 5 -3 -1
right_child=-2 2 3 -5 -6 -7 -8
leaf_value=0.072046985996195648 0.08727095032721234 0.045105288516150199 -0.014546161268272885 0.057234225790123841 -0.051911227832874385 -0.024316621518412299 -0.11152079588566995
leaf_weight=255.48990679904819 411.34293476864696 68.115337032824755 289.02132138982415 101.66904924064875 556.21239790320396 1052.5435759276152 7.6379767805337897
leaf_count=5264 9162 377 1654 694 2693 5087 104
internal_value=0 -0.0137373 -0.0238611 0.00413322 -0.0305257 -0.0199115 0.0642755
internal_weight=0 2330.69 2067.56 390.69 1676.87 1120.66 263.128
internal_count=25035 15873 10505 2348 8157 5464 5368
cat_boundaries=0 1 2
cat_threshold=8 6
is_linear=0
shrinkage=0.1


Tree=23
num_leaves=8
num_cat=1
split_feature=3 4 15 7 6 3 1
split_gain=412.189 193.651 81.4608 37.1655 27.3081 27.098 30.9343
threshold=107.50000000000001 20.789062500000004 0 0.0013594627380371096 0.030342102050781253 88.500000000000014 26426.500000000004
decision_type=2 2 1 2 2 2 2
left_child=1 2 3 -1 -5 -4 -7
right_child=-2 -3 5 4 -6 6 -8
leaf_value=0.079658303019071008 0.10086435671769489 0.081317204255241457 -0.021295798574950904 0.0078391430203429199 -0.22414959005901067 0.021418926324493659 -0.053358236777955141
leaf_weight=100.59052918851376 357.83310906402767 193.69739415682852 1252.6711974702775 119.77366690710187 5.2981918379664412 61.002883721143007 594.09856967628002
leaf_count=1520 8636 3971 5881 1538 49 311 3111
internal_value=0 -0.014419 -0.023111 0.0329461 -0.00198876 -0.0297585 -0.046395
internal_weight=0 2327.13 2133.44 225.662 125.072 1907.77 655.101
internal_count=25017 16381 12410 3107 1587 9303 3422
cat_boundaries=0 1
cat_threshold=10
is_linear=0
shrinkage=0.1


Tree=24
num_leaves=8
num_cat=0
split_feature=5 12 5 7 11 2 1
split_gain=231.461 132.694 30.0896 24.8536 23.1855 48.5015 44.184
threshold=0.00027406215667724615 2.5000000000000004 0.00010454654693603517 0.0013871192932128908 0.00061154365539550792 6432.5000000000009 68691.500000000015
decision_type=2 2 2 2 2 2 2
left_child=1 2 4 -3 6 -6 -1
right_child=-2 3 -4 -5 5 -7 -8
leaf_value=0.035844126729714036 0.087335921694864843 0.095372485438425247 0.020757177488547267 0.030646160185254991 -0.013223403308561144 -0.050919954743375698 -0.03508179437826936
leaf_weight=188.13612047582865 282.64340981654823 116.31074268557131 196.08749689720571 121.08037397451699 1032.7450998686254 509.79548123851418 164.74387533217669
leaf_count=928 8061 2941 1784 2495 5370 2639 770
internal_value=0 -0.00849214 -0.016534 0.0623592 -0.0203918 -0.0256818 0.00273197
internal_weight=0 2328.9 2091.51 237.391 1895.42 1542.54 352.88
internal_count=24988 16927 11491 5436 9707 8009 1698
is_linear=0
shrinkage=0.1


Tree=25
num_leaves=8
num_cat=0
split_feature=3 4 12 9 9 4 1
split_gain=348.872 157.168 64.2257 51.8695 36.3995 30.89 35.6675
threshold=107.50000000000001 25.468750000000004 1.0000000180025095e-35 0.00018268823623657229 0.00068449974060058605 7.7167968750000009 46418.000000000007
decision_type=2 2 2 2 2 2 2
left_child=1 2 4 -4 5 -1 -7
right_child=-2 -3 3 -5 -6 6 -8
leaf_value=-0.027463582985321429 0.10028977399190052 0.086606467212613614 0.064280488230148272 -0.028452963399911931 -0.10079302841504977 -0.015799826366805492 0.077132363454801178
leaf_weight=1610.5216761827469 314.29762563109398 150.42079995386302 154.33440892584622 99.012639679014683 62.278664659708738 121.54776154085994 62.552694950252771
leaf_count=7859 8691 3731 2309 1048 314 670 431
internal_value=0 -0.0121524 -0.0191921 0.0280386 -0.025636 -0.0230278 0.0157763
internal_weight=0 2260.67 2110.25 253.347 1856.9 1794.62 184.1
internal_count=25053 16362 12631 3357 9274 8960 1101
is_linear=0
shrinkage=0.1


Tree=26
num_leaves=8
num_cat=0
split_feature=3 5 12 7 5 3 1
split_gain=304.041 100.437 54.598 38.5279 31.1708 28.879 20.9265
threshold=107.50000000000001 0.00035977363586425787 1.5000000000000002 0.0020608901977539067 3.7521123886108405e-05 93.500000000000014 28530.000000000004
decision_type=2 2 2 2 2 2 2
left_child=1 2 5 -4 -5 -1 -7
right_child=-2 -3 3 4 -6 6 -8
leaf_value=-0.012981445459471292 0.099036736586237004 0.080260966594602579 0.083454542963841 0.022188866596836526 -0.11637021189263617 0.015146262872566964 -0.04726522138268132
leaf_weight=1394.2157867215574 284.89044787548482 115.22177814133465 89.445914849638939 74.887544684112072 20.730028221383691 60.528407307341695 477.87998186796904
leaf_count=6925 8603 3346 1786 1039 252 337 2719
internal_value=0 -0.0106621 -0.0156091 0.0362792 -0.00785122 -0.0205779 -0.0402488
internal_weight=0 2232.91 2117.69 185.063 95.6176 1932.62 538.408
internal_count=25007 16404 13058 3077 1291 9981 3056
is_linear=0
shrinkage=0.1


Tree=27
num_leaves=8
num_cat=0
split_feature=6 12 7 11 6 0 9
split_gain=177.698 89.1431 33.5067 38.6501 33.7956 28.4399 22.8541
threshold=0.038955688476562507 3.5000000000000004 0.0045604705810546884 0.0007064342498779298 0.011753082275390627 2.5000000000000004 0.00069165229797363292
decision_type=2 2 2 2 2 2 2
left_child=1 2 3 -1 6 -5 -4
right_child=-2 -3 4 5 -6 -7 -8
leaf_value=0.0075952855043936096 0.093609445686217208 0.059938023527766171 -0.0013092651895555893 -0.049951490804044082 0.039367919882170442 -0.016914145905465808 -0.079679219855745845
leaf_weight=379.7228416800499 194.50520805083215 188.08994818851352 329.13458796218038 418.19921380840242 218.99201654456556 691.28108540922403 41.953149870038033
leaf_count=1941 7530 5143 1656 2359 2022 4091 221
internal_value=0 -0.00598787 -0.0119515 -0.0199422 0.00821502 -0.029367 -0.0101694
internal_weight=0 2267.37 2079.28 1489.2 590.08 1109.48 371.088
internal_count=24963 17433 12290 8391 3899 6450 1877
is_linear=0
shrinkage=0.1


Tree=28
num_leaves=8
num_cat=1
split_feature=3 5 15 8 3 3 1
split_gain=253.68 73.4229 29.3035 27.3556 22.7339 27.86 22.3938
threshold=107.50000000000001 0.00042593479156494146 0 0.11660766601562501 95.500000000000014 100.50000000000001 114457.00000000001
decision_type=2 2 1 2 2 2 2
left_child=1 2 3 -1 6 -6 -4
right_child=-2 -3 4 -5 5 -7 -8
leaf_value=0.078145065334302669 0.097110853155443586 0.079804171163357848 -0.0062729732310098157 -0.013604691374633694 -0.050383127631255548 0.0035329721476737895 -0.049987671726834229
leaf_weight=67.400474026799202 250.03823565132916 88.767978869378567 1347.3216258957982 62.751007514074445 341.19761038012803 133.27501182630658 128.34845053963363
leaf_count=1700 8649 3177 6914 1111 1931 863 618
internal_value=0 -0.00926203 -0.0130626 0.0314896 -0.0161148 -0.0352386 -0.0100751
internal_weight=0 2169.06 2080.29 130.151 1950.14 474.473 1475.67
internal_count=24963 16314 13137 2811 10326 2794 7532
cat_boundaries=0 1
cat_threshold=8
is_linear=0
shrinkage=0.1


Tree=29
num_leaves=8
num_cat=1
split_feature=3 4 15 7 13 3 6
split_gain=229.618 97.5476 29.2335 45.6689 23.6092 22.3399 21.6315
threshold=109.50000000000001 27.476562500000004 0 0.0013594627380371096 28.226779317298206 95.500000000000014 0.020179748535156253
decision_type=2 2 1 2 2 2 2
left_child=1 2 5 -4 6 -1 -5
right_child=-2 -3 3 4 -6 -7 -8
leaf_value=-0.011641060783039406 0.099389213012387345 0.080171618335800873 0.075963809165780424 0.0062641415895392507 -0.30017783122654751 -0.037628470655886675 -0.10797185479870293
leaf_weight=1372.2632916364819 217.36351547762752 117.50853971764445 90.054735252633691 125.72256461344659 2.8348233737051478 435.8599005676806 19.093020401895046
leaf_count=6814 8241 3805 1681 1571 30 2595 212
internal_value=0 -0.00843078 -0.0135199 0.0190382 -0.0143925 -0.017807 -0.00879735
internal_weight=0 2163.34 2045.83 237.705 147.65 1808.12 144.816
internal_count=24949 16708 12903 3494 1813 9409 1783
cat_boundaries=0 1
cat_threshold=1
is_linear=0
shrinkage=0.1


Tree=30
num_leaves=8
num_cat=0
split_feature=0 9 12 11 2 11 13
split_gain=50.1609 50.0374 39.3668 37.8559 34.9061 39.2647 25.0983
threshold=2.5000000000000004 0.00073552131652832042 6.5000000000000009 0.0007064342498779298 6381.5000000000009 0.0014662742614746096 18.091470276451187
decision_type=2 2 2 2 2 2 2
left_child=3 2 -2 -1 5 -5 -7
right_child=1 -3 -4 4 -6 6 -8
leaf_value=0.027121973377553267 0.00053986414977515856 0.079798188278165566 0.057134124186179018 0.054788463589057625 -0.059104116512959992 -0.074705152156152241 -0.0044350099783222385
leaf_weight=126.27905346266925 1424.3261084323749 96.029820933938026 134.51706859283149 71.907658183947206 273.24369345791638 80.654207199811935 137.44484248384833
leaf_count=792 11335 4553 4434 422 1784 582 1089
internal_value=0 0.00973943 0.00542356 -0.0223631 -0.0334576 -0.0092934 -0.0304214
internal_weight=0 1654.87 1558.84 689.529 563.25 290.007 218.099
internal_count=24991 20322 15769 4669 3877 2093 1671
is_linear=0
shrinkage=0.1


Tree=31
num_leaves=8
num_cat=0
split_feature=3 4 11 12 3 11 1
split_gain=203.014 85.176 38.7826 24.3942 27.3722 29.7401 37.3217
threshold=109.50000000000001 25.468750000000004 0.0025243759155273442 22.500000000000004 87.500000000000014 0.00071501731872558605 26767.500000000004
decision_type=2 2 2 2 2 2 2
left_child=1 2 3 4 -1 -6 -7
right_child=-2 -3 -4 -5 5 6 -8
leaf_value=-0.0011264045845836956 0.09827602984119603 0.075886435810885666 -0.057556911133145684 0.089644404834885408 0.0055435193375899163 0.066251101720597741 -0.049293229220325224
leaf_weight=1177.7674072124064 194.82036655768752 113.56670076865703 178.98545297794044 24.834487145766616 195.33249197900295 30.011271977797151 408.01005264930427
leaf_count=6804 8283 3907 991 615 1404 168 2852
internal_value=0 -0.00837442 -0.0131236 -0.00879179 -0.0101416 -0.026906 -0.0413766
internal_weight=0 2128.51 2014.94 1835.96 1811.12 633.354 438.021
internal_count=25024 16741 12834 11843 11228 4424 3020
is_linear=0
shrinkage=0.1


Tree=32
num_leaves=8
num_cat=1
split_feature=3 4 11 8 3 15 8
split_gain=176.413 72.6893 35.8705 26.9095 25.2842 17.1516 25.8258
threshold=109.50000000000001 25.468750000000004 0.0016217231750488283 0.13189697265625003 46.500000000000007 0 0.12307739257812501
decision_type=2 2 2 2 2 1 2
left_child=1 2 4 -4 -1 6 -6
right_child=-2 -3 3 -5 5 -7 -8
leaf_value=0.02329255527601325 0.097692673844560485 0.074829789174500283 -0.049480990426437679 0.0025969164848936356 0.08081661004137046 -0.012901269400582128 -0.020463477014042348
leaf_weight=293.1937013771385 176.49573589395732 104.75228863954544 342.45408638752997 139.69337486475706 51.55358874052763 1130.3537328634411 49.208703381940722
leaf_count=1615 8221 3858 1920 820 1589 5952 926
internal_value=0 -0.00637878 -0.0106185 -0.0343924 -0.00309868 -0.00938383 0.0285243
internal_weight=0 2111.21 2006.46 482.147 1524.31 1231.12 100.762
internal_count=24901 16680 12822 2740 10082 8467 2515
cat_boundaries=0 1
cat_threshold=8
is_linear=0
shrinkage=0.1


Tree=33
num_leaves=8
num_cat=0
split_feature=4 12 4 8 11 5 11
split_gain=118.339 44.544 25.7081 34.4316 26.5094 20.7506 20.0857
threshold=25.468750000000004 6.5000000000000009 6.0957031250000009 0.18780517578125003 0.0017142295837402346 5.5134296417236337e-06 0.0007884502410888673
decision_type=2 2 2 2 2 2 2
left_child=1 2 4 -4 5 6 -1
right_child=-2 -3 3 -5 -6 -7 -8
leaf_value=-0.0071347426578971642 0.082918094765517911 0.052538039855985888 -0.0032343095288027649 0.07351855384287094 -0.041108893304244276 -0.0013427346949018836 -0.053256700719768769
leaf_weight=199.74231799505651 158.35266651399434 119.57855723425746 231.34410454425961 78.205813700333238 319.76047712936997 971.05627135746181 179.07266070134938
leaf_count=1102 8288 4499 1785 827 1820 5582 1070
internal_value=0 -0.00673113 -0.0103121 0.0161569 -0.0152194 -0.00908667 -0.0289375
internal_weight=0 2098.76 1979.18 309.55 1669.63 1349.87 378.815
internal_count=24973 16685 12186 2612 9574 7754 2172
is_linear=0
shrinkage=0.1


Tree=34
num_leaves=8
num_cat=0
split_feature=3 4 11 12 3 4 12
split_gain=158.577 53.3881 25.9155 20.945 19.2066 16.4122 25.0872
threshold=109.50000000000001 35.703125000000007 0.0031213760375976567 22.500000000000004 36.500000000000007 2.7763671875000004 1.0000000180025095e-35
decision_type=2 2 2 2 2 2 2
left_child=1 2 3 4 -1 6 -6
right_child=-2 -3 -4 -5 5 -7 -8
leaf_value=0.016804174276100713 0.097239117537553862 0.076057572176003077 -0.05867132174629687 0.090842439181800183 -0.024574425872082785 0.0029696902687244755 0.021450377510565395
leaf_weight=255.89084305800498 156.65508923586458 74.42179830186069 104.5448511261493 21.400120344012976 1008.4550435431302 473.65165008418262 134.19062434695661
leaf_count=1377 8264 3551 632 620 5360 3055 2138
internal_value=0 -0.00710547 -0.0102029 -0.007527 -0.00865143 -0.0126815 -0.0191693
internal_weight=0 2072.55 1998.13 1893.59 1872.19 1616.3 1142.65
internal_count=24997 16733 13182 12550 11930 10553 7498
is_linear=0
shrinkage=0.1


Tree=35
num_leaves=8
num_cat=1
split_feature=5 15 9 2 13 7 11
split_gain=74.2657 25.6474 37.7795 24.9819 25.9662 21.6183 33.773
threshold=0.00031244754791259771 0 0.00018268823623657229 6718.5000000000009 4.3190476712688817 0.0045604705810546884 0.0008475780487060548
decision_type=2 1 2 2 2 2 2
left_child=1 5 -3 4 -4 6 -1
right_child=-2 2 3 -5 -6 -7 -8
leaf_value=0.0061221699139412371 0.074984499746536287 0.059093312258058056 -0.064573097073948663 -0.1226798996538955 0.045514701584215465 0.0095145401670038814 -0.027080880890161915
leaf_weight=482.6180514851585 126.1811090093106 147.06442028284073 34.700331481173635 19.009253511205316 56.004336506128311 496.86260084435344 838.75679173134267
leaf_count=2537 7781 4240 545 336 956 3459 5144
internal_value=0 -0.0040315 0.0249898 -0.018446 0.00339894 -0.00822222 -0.0149538
internal_weight=0 2075.02 256.778 109.714 90.7047 1818.24 1321.37
internal_count=24998 17217 6077 1837 1501 11140 7681
cat_boundaries=0 1
cat_threshold=1
is_linear=0
shrinkage=0.1


Tree=36
num_leaves=8
num_cat=0
split_feature=3 4 9 0 9 4 3
split_gain=128.217 49.7853 34.7502 25.3962 20.1148 17.4358 13.3638
threshold=109.50000000000001 16.304687500000004 0.00011560320854187013 5.5000000000000009 0.00065588951110839855 2.2841796875000004 264.50000000000006
decision_type=2 2 2 2 2 2 2
left_child=1 2 3 -1 5 -4 -2
right_child=6 -3 4 -5 -6 -7 -8
leaf_value=0.026646298282529082 0.095957474157259123 0.052275219706666404 -0.023539330429465807 -0.027668321634440635 -0.072717509873141573 -0.00028682403344923191 -0.57992350043471519
leaf_weight=367.4393401639536 137.52538407221437 140.71856649126858 843.29264259990305 112.42625110130757 62.374763147905469 522.15434069465846 0.29281031247228284
leaf_count=2604 8203 4430 5464 980 329 2970 23
internal_value=0 -0.0051258 -0.00935994 0.0139211 -0.0171843 -0.0146475 0.0945199
internal_weight=0 2048.41 1907.69 479.866 1427.82 1365.45 137.818
internal_count=25003 16777 12347 3584 8763 8434 8226
is_linear=0
shrinkage=0.1


Tree=37
num_leaves=8
num_cat=1
split_feature=3 6 2 15 8 6 2
split_gain=110.64 42.4827 17.2845 15.1521 31.9482 17.1078 14.4878
threshold=109.50000000000001 0.042495727539062507 7474.5000000000009 0 0.11660766601562501 0.013629913330078127 3569.5000000000005
decision_type=2 2 2 1 2 2 2
left_child=1 2 3 -1 -5 -6 -7
right_child=-2 -3 -4 4 5 6 -8
leaf_value=-0.0041395436716115492 0.092588493886904433 0.084764908764253202 -0.020457817906393918 0.073214055381641607 0.019000499671531348 -0.013427211930918892 -0.14596333418036264
leaf_weight=1208.8728071469814 126.69876334629953 52.840773389674723 588.3642902104184 83.187296053394675 66.125700243748724 19.926298039034009 14.072377406060694
leaf_count=6803 8241 3273 3811 1627 854 205 171
internal_value=0 -0.00372673 -0.00608769 -1.45872e-05 0.0259956 -0.0106391 -0.0682863
internal_weight=0 2033.39 1980.55 1392.18 183.312 100.124 33.9987
internal_count=24985 16744 13471 9660 2857 1230 376
cat_boundaries=0 1
cat_threshold=1
is_linear=0
shrinkage=0.1


Tree=38
num_leaves=8
num_cat=0
split_feature=4 9 12 4 8 9 9
split_gain=67.7142 25.3974 24.3639 23.6446 20.6525 23.2169 17.7388
threshold=25.468750000000004 8.1986188888549818e-05 22.500000000000004 2.0556640625000004 0.042190551757812507 0.00062346458435058605 0.00024026632308959964
decision_type=2 2 2 2 2 2 2
left_child=1 -1 3 6 -5 -6 -3
right_child=-2 2 -4 4 5 -7 -8
leaf_value=0.025982057027412853 0.073878623051986891 -0.011201393450060085 0.091431457445473249 -0.029325140552357493 0.017957984141808034 -0.052973651187367424 -0.039708233732924633
leaf_weight=237.18510669656098 115.79671514267102 695.76097069773823 23.899919127114117 153.42384379636496 537.79135048389435 50.475746336393058 318.07930202782154
leaf_count=2433 8235 5235 1185 1013 4407 379 2054
internal_value=0 -0.00475624 -0.00885343 -0.0102187 0.00334985 0.0118717 -0.0201451
internal_weight=0 2016.62 1779.43 1755.53 741.691 588.267 1013.84
internal_count=24941 16706 14273 13088 5799 4786 7289
is_linear=0
shrinkage=0.1


Tree=39
num_leaves=8
num_cat=0
split_feature=6 12 0 0 12 6 13
split_gain=63.721 21.1751 23.5685 19.7959 18.4547 21.3547 21.5145
threshold=0.042495727539062507 22.500000000000004 7.5000000000000009 2.5000000000000004 3.5000000000000004 0.022209167480468753 4.1921165979418786
decision_type=2 2 2 2 2 2 2
left_child=1 2 3 -1 -5 -6 -7
right_child=-2 -3 -4 4 5 6 -8
leaf_value=-0.014669546105467189 0.090670432670138135 0.085015585642654712 -0.039454006330152287 0.0040658371819269372 0.073741932648610911 -0.41912292738604134 -0.012414763560461936
leaf_weight=628.22929726634175 76.466372453141958 27.397073329426348 167.15011791884899 1148.2346254298463 66.097662874497473 1.6894020717591036 5.6486544823274016
leaf_count=4110 7166 1582 1311 7869 2790 37 152
internal_value=0 -0.00230723 -0.00349333 -0.000244046 0.00717409 0.0557742 -0.106066
internal_weight=0 2044.45 2017.05 1849.9 1221.67 73.4357 7.33806
internal_count=25017 17851 16269 14958 10848 2979 189
is_linear=0
shrinkage=0.1


Tree=40
num_leaves=8
num_cat=0
split_feature=6 12 1 11 2 6 11
split_gain=53.4081 20.9246 21.3181 23.1657 33.1155 27.0773 24.5136
threshold=0.042495727539062507 22.500000000000004 104592.00000000001 0.00062918663024902355 6381.5000000000009 0.0086860656738281267 0.0016217231750488283
decision_type=2 2 2 2 2 2 2
left_child=1 2 3 -1 6 -6 -5
right_child=-2 -3 -4 4 5 -7 -8
leaf_value=0.024969842340944289 0.086349398114901915 0.087224175686113792 -0.03356272422697093 0.017657424214671806 -0.046560703141457084 0.0015416163394734489 -0.013965670053378704
leaf_weight=295.26474393997341 69.001189509406686 25.326260220259428 220.76642860192806 594.94824778381735 289.70999931450933 196.32541284989566 416.90252443682402
leaf_count=2569 7089 1575 1660 4755 1910 1667 3692
internal_value=0 -0.0031047 -0.00424066 -0.000630619 -0.00567701 -0.0271306 0.00462808
internal_weight=0 2039.24 2013.92 1793.15 1497.89 486.035 1011.85
internal_count=24917 17828 16253 14593 12024 3577 8447
is_linear=0
shrinkage=0.1


Tree=41
num_leaves=8
num_cat=0
split_feature=4 9 7 4 9 1 8
split_gain=51.635 16.3403 16.1987 27.9113 20.1947 18.5894 15.3656
threshold=36.859375000000007 0.00064682960510253917 0.0066890716552734384 5.1074218750000009 0.00011560320854187013 38465.500000000007 0.013526916503906252
decision_type=2 2 2 2 2 2 2
left_child=1 2 4 -4 5 -1 -6
right_child=-2 -3 3 -5 6 -7 -8
leaf_value=0.043900118228083346 0.081555815015352542 -0.047813618357156758 0.0018959563591247029 0.063856644811331881 -0.052930980696806088 -0.00029645101087866351 -0.0094469521629342787
leaf_weight=130.02134306449443 75.598655696492642 76.959381181746721 288.33543889643624 97.214195415377617 88.589707428589463 355.01357141928747 982.44440006185323
leaf_count=929 7413 610 2159 1217 622 3842 8194
internal_value=0 -0.00262204 -0.000830787 0.0175191 -0.00537736 0.0115512 -0.0130437
internal_weight=0 2018.58 1941.62 385.55 1556.07 485.035 1071.03
internal_count=24986 17573 16963 3376 13587 4771 8816
is_linear=0
shrinkage=0.1


Tree=42
num_leaves=8
num_cat=0
split_feature=3 4 9 1 9 7 4
split_gain=92.6844 22.4359 21.7613 18.4226 19.904 18.2963 17.7513
threshold=109.50000000000001 77.593750000000014 6.6012144088745131e-05 114457.00000000001 0.0006148815155029298 0.0066890716552734384 5.5839843750000009
decision_type=2 2 2 2 2 2 2
left_child=1 2 -1 4 5 -4 -7
right_child=-2 -3 3 -5 -6 6 -8
leaf_value=0.036117275858666052 0.091997850254593616 0.089462078350940846 -0.0084690529204641315 -0.041463846447901798 -0.052071017333107705 0.0049822759007771538 0.061388329298857673
leaf_weight=113.72547262534499 103.36894168518484 24.757808376569301 1293.1995769282803 159.25919529749081 88.372882344760001 224.90750661119819 74.19947847397998
leaf_count=903 8252 2584 8958 1420 845 1301 734
internal_value=0 -0.00513512 -0.00633392 -0.00895781 -0.00587756 -0.00331382 0.018975
internal_weight=0 1978.42 1953.66 1839.94 1680.68 1592.31 299.107
internal_count=24997 16745 14161 13258 11838 10993 2035
is_linear=0
shrinkage=0.1


Tree=43
num_leaves=8
num_cat=0
split_feature=3 6 11 2 11 3 4
split_gain=89.9638 20.7955 17.2602 20.1314 17.4874 21.1123 22.5045
threshold=107.50000000000001 0.052108764648437507 0.0029554367065429692 7474.5000000000009 0.00066304206848144542 92.500000000000014 2.1689453125000004
decision_type=2 2 2 2 2 2 2
left_child=1 2 3 -1 -5 6 -6
right_child=-2 -3 -4 4 5 -7 -8
leaf_value=0.0050287739345819069 0.091643961485291206 0.089157819639695421 -0.040893727726751372 0.0044883480124293801 -0.039591610678619084 -0.068461346171552473 0.024075820462358673
leaf_weight=1263.5144025245681 105.25624749762937 24.056039699353278 121.445539096836 216.16748640220612 143.65592315979302 107.83113262429833 90.4887764332816
leaf_count=8840 8679 2625 1144 1444 860 800 611
internal_value=0 -0.00324766 -0.00439167 -0.00195816 -0.017775 -0.031848 -0.0149863
internal_weight=0 1967.16 1943.1 1821.66 558.143 341.976 234.145
internal_count=25003 16324 13699 12555 3715 2271 1471
is_linear=0
shrinkage=0.1


Tree=44
num_leaves=8
num_cat=0
split_feature=6 9 1 0 11 1 10
split_gain=35.7563 15.5063 15.8505 18.7335 19.0314 15.807 19.9101
threshold=0.038955688476562507 6.4224004745483412e-05 23991.000000000004 2.5000000000000004 0.00080466270446777355 104592.00000000001 1.5000000000000002
decision_type=2 2 2 2 2 2 2
left_child=1 -1 -3 4 -4 6 -5
right_child=-2 2 3 5 -6 -7 -8
leaf_value=0.033968558161474711 0.074319356169792405 0.01641042411377169 0.0085518302555817344 -0.00027444024632387778 -0.043708850040081959 -0.028166068164579929 0.070406756897180275
leaf_weight=113.49377212068066 63.456798323430121 314.18111946154386 97.319439370185137 985.38335434859619 245.36935941502452 199.66951769869775 41.532870670314878
leaf_count=1218 7514 2145 575 8204 1700 1992 1675
internal_value=0 -0.00192874 -0.00409186 -0.00819658 -0.0288674 -0.00242146 0.00258423
internal_weight=0 1996.95 1883.46 1569.27 342.689 1226.59 1026.92
internal_count=25023 17509 16291 14146 2275 11871 9879
is_linear=0
shrinkage=0.1


Tree=45
num_leaves=8
num_cat=0
split_feature=4 12 1 12 4 12 8
split_gain=36.5312 14.1495 16.0592 21.0146 20.1888 34.7985 17.2629
threshold=27.476562500000004 22.500000000000004 84901.000000000015 3.5000000000000004 2.6162109375000004 19.500000000000004 0.042953491210937507
decision_type=2 2 2 2 2 2 2
left_child=1 2 3 6 -4 -6 -1
right_child=-2 -3 4 -5 5 -7 -8
leaf_value=-0.015648492012131199 0.068657446633941618 0.076624026269185741 -0.038523151498189627 0.059870744535393185 0.030670149777038438 -0.39781195842951417 0.0064248696398000772
leaf_weight=535.89056651480496 76.193054819013923 22.678157459013164 231.9129799855873 58.715548530686647 76.764139160979539 1.9429947715252627 1045.6112683466636
leaf_count=3268 8116 1586 1635 2864 789 24 6687
internal_value=0 -0.00190909 -0.00282204 0.00112631 -0.0236712 0.0200906 -0.00105467
internal_weight=0 1973.52 1950.84 1640.22 310.62 78.7071 1581.5
internal_count=24969 16853 15267 12819 2448 813 9955
is_linear=0
shrinkage=0.1


Tree=46
num_leaves=8
num_cat=0
split_feature=3 4 9 1 13 1 12
split_gain=67.0865 15.8458 22.913 23.7772 14.9978 13.9136 20.5387
threshold=111.50000000000001 9.2500000000000018 0.00023239850997924807 37931.000000000007 29.410963892593241 130982.00000000001 5.5000000000000009
decision_type=2 2 2 2 2 2 2
left_child=1 2 3 4 -1 -4 -7
right_child=-2 -3 5 -5 -6 6 -8
leaf_value=0.035915454983067883 0.090377993763686243 0.021365527032284323 -0.020670554998846544 -0.0089569401854925883 -0.0071945299680739004 -0.053973208028596523 -0.30409993606278096
leaf_weight=246.98595814872533 78.115480545442551 216.7156956368126 555.11449324060231 793.42707442957908 119.86359764821827 15.995973020792009 4.1303281881846479
leaf_count=1588 7843 5242 3306 6093 715 81 84
internal_value=0 -0.00412974 -0.00731337 0.00077703 0.0218298 -0.0236319 -0.105309
internal_weight=0 1952.23 1735.52 1160.28 366.85 575.241 20.1263
internal_count=24952 17109 11867 8396 2303 3471 165
is_linear=0
shrinkage=0.1


Tree=47
num_leaves=8
num_cat=0
split_feature=4 9 1 12 2 11 1
split_gain=25.4715 15.907 17.7847 14.9938 12.8823 16.3571 18.228
threshold=43.203125000000007 7.3224306106567396e-05 44363.500000000007 22.500000000000004 7623.0000000000009 0.0029554367065429692 31992.500000000004
decision_type=2 2 2 2 2 2 2
left_child=1 2 -1 4 5 6 -3
right_child=-2 3 -4 -5 -6 -7 -8
leaf_value=0.071253640441028068 0.072667836711779829 0.022165002993831999 0.0038525814439934886 0.086592770426214369 -0.019666719370715083 -0.036864462638747257 -0.0047091398818049409
leaf_weight=60.520885009784251 47.474175206851214 357.45509944157675 110.85561431245878 17.995734630152583 454.95794980973005 111.28274260135368 858.66115529835224
leaf_count=492 7063 2374 1320 1287 3521 975 7944
internal_value=0 -0.00145695 0.0276551 -0.00422814 -0.00514515 -0.000167958 0.00319002
internal_weight=0 1971.73 171.376 1800.35 1782.36 1327.4 1216.12
internal_count=24976 17913 1812 16101 14814 11293 10318
is_linear=0
shrinkage=0.1


Tree=48
num_leaves=8
num_cat=1
split_feature=3 6 3 3 3 6 15
split_gain=57.1857 15.6174 13.2479 12.4731 30.3161 13.7415 9.20405
threshold=109.50000000000001 0.062591552734375014 264.50000000000006 100.50000000000001 96.500000000000014 0.010486602783203127 0
decision_type=2 2 2 2 2 2 1
left_child=1 3 -2 4 6 -5 -1
right_child=2 -3 -4 5 -6 -7 -8
leaf_value=-0.002977604572472392 0.088448342031704569 0.10086071952582941 -0.59108245578967844 -0.0041136547999305658 -0.036781557903071985 0.056447040842250697 0.022302849501758329
leaf_weight=1351.4647083696909 75.450519133592024 14.449652781710027 0.28763720579445262 80.298765679355711 268.61819480871782 70.241464914754033 151.05475460831076
leaf_count=8123 8206 2380 25 797 1937 1022 2456
internal_value=0 -0.00271163 0.0858648 -0.00349044 -0.00583925 0.0241438 -0.000307425
internal_weight=0 1936.13 75.7382 1921.68 1771.14 150.54 1502.52
internal_count=24946 16715 8231 14335 12516 1819 10579
cat_boundaries=0 1
cat_threshold=1
is_linear=0
shrinkage=0.1


Tree=49
num_leaves=8
num_cat=0
split_feature=3 9 6 12 7 9 11
split_gain=51.686 14.8377 15.6256 13.4564 13.1818 12.235 12.0157
threshold=111.50000000000001 0.00012761354446411136 0.062591552734375014 1.0000000180025095e-35 0.0019106864929199221 0.0006148815155029298 0.0015540122985839846
decision_type=2 2 2 2 2 2 2
left_child=1 3 4 -1 6 -6 -3
right_child=-2 2 -4 -5 5 -7 -8
leaf_value=0.0064624006185985614 0.088918575652890172 -0.0077839538546400763 0.10074047540220617 0.054841522852548966 0.0047289828028025003 -0.038232001640903596 -0.036629880334461913
leaf_weight=494.90823938697577 65.177419842919335 360.48867715569213 13.26917711435817 65.049297023564577 677.7500488224905 73.477794049074873 240.90661299554631
leaf_count=2611 7894 2550 2482 1706 4898 1000 1832
internal_value=0 -0.00162633 -0.00724639 0.0120826 -0.00830577 0.000526935 -0.0193391
internal_weight=0 1925.85 1365.89 559.958 1352.62 751.228 601.395
internal_count=24973 17079 12762 4317 10280 5898 4382
is_linear=0
shrinkage=0.1


Tree=50
num_leaves=8
num_cat=0
split_feature=6 10 9 5 11 2 9
split_gain=20.4517 11.6098 11.4976 13.0441 11.9947 12.5915 8.54512
threshold=0.062591552734375014 1.5000000000000002 6.6012144088745131e-05 6.4671039581298837e-06 0.0031213760375976567 3867.5000000000005 0.00046861171722412115
decision_type=2 2 2 2 2 2 2
left_child=1 2 -1 -4 -5 -6 -7
right_child=-2 -3 3 4 5 6 -8
leaf_value=0.027821172986500581 0.10054780607165814 0.040690780977315141 -0.018903375609076546 0.0033669093831646111 -0.064112197389357445 -0.05020846664880288 0.053387251659443004
leaf_weight=120.13794349320233 20.15875304536894 65.533696766942739 447.8803381761536 1241.2877414159011 55.11522928532213 12.941143831238149 20.69401391223073
leaf_count=996 5153 2670 3267 10981 800 119 941
internal_value=0 -0.000690909 -0.00211969 -0.00414287 0.000827616 -0.0346875 0.0135285
internal_weight=0 1963.59 1898.06 1777.92 1330.04 88.7504 33.6352
internal_count=24927 19774 17104 16108 12841 1860 1060
is_linear=0
shrinkage=0.1


Tree=51
num_leaves=8
num_cat=0
split_feature=3 1 1 3 11 3 11
split_gain=41.8077 13.3626 17.4532 27.3851 16.3823 15.4667 24.2944
threshold=111.50000000000001 13600.000000000002 6778.5000000000009 41.500000000000007 0.0014519691467285158 91.500000000000014 0.00072455406188964855
decision_type=2 2 2 2 2 2 2
left_child=1 2 -1 4 -4 -3 -7
right_child=-2 5 3 -5 -6 6 -8
leaf_value=-0.062024088860913262 0.083671471000445752 0.0017941598994792548 0.092751563190634545 0.13025320060344237 -0.031304278276171903 0.013780082229671987 -0.032424626230170721
leaf_weight=15.630833449307827 58.299411866348237 1277.7632415539119 15.594917187467216 29.277992180315778 33.533895003609359 163.33735523093492 375.20150169241242
leaf_count=99 7829 10497 80 293 240 1494 4304
internal_value=0 -0.00229365 0.0344627 0.0536982 0.00807496 -0.00419669 -0.0184109
internal_weight=0 1910.34 94.0376 78.4068 49.1288 1816.3 538.539
internal_count=24836 17007 712 613 320 16295 5798
is_linear=0
shrinkage=0.1


Tree=52
num_leaves=8
num_cat=0
split_feature=4 8 1 11 1 8 2
split_gain=19.4807 25.0066 15.8281 13.7454 32.9682 18.7785 16.3161
threshold=10.230468750000002 0.20916748046875003 39818.000000000007 0.0011229515075683596 37931.000000000007 0.042953491210937507 3240.5000000000005
decision_type=2 2 2 2 2 2 2
left_child=3 2 -2 4 6 -5 -1
right_child=1 -3 -4 5 -6 -7 -8
leaf_value=0.11438910822449221 -0.018734366817521608 0.09465471684298625 0.043191817708791394 -0.038093180406181197 -0.0065135810828257888 -0.0035795552700042359 0.027036445901663722
leaf_weight=23.588796581607312 87.365163424517959 44.908354277489707 78.234487523790449 225.81058710603975 760.65261944127269 522.22039639553986 228.6279171006754
leaf_count=216 2607 2831 4683 1615 7775 3764 1468
internal_value=0 0.0284701 0.0105215 -0.00371748 0.00387519 -0.0139983 0.0352064
internal_weight=0 210.508 165.6 1760.9 1012.87 748.031 252.217
internal_count=24959 10121 7290 14838 9459 5379 1684
is_linear=0
shrinkage=0.1


Tree=53
num_leaves=8
num_cat=0
split_feature=6 1 11 7 9 1 6
split_gain=17.2307 12.7435 14.4444 20.8716 18.117 13.7944 12.1269
threshold=0.062591552734375014 13600.000000000002 0.0016217231750488283 0.0069103240966796884 0.00047433376312255865 76898.500000000015 0.012042999267578127
decision_type=2 2 2 2 2 2 2
left_child=1 -1 4 -4 5 -3 -6
right_child=-2 2 3 -5 6 -7 -8
leaf_value=0.034612333805601136 0.1004865030896792 0.010450982174517395 -0.032292305084813948 0.018466170795447049 -0.069275133019659513 -0.012779509294603867 0.061236357057874037
leaf_weight=98.572867586743087 17.067852915730327 1045.4270253477152 303.60930329211988 110.49121027090587 51.794725358020514 338.34128876775503 8.2537988722324354
leaf_count=811 5181 9158 3660 2047 377 3681 100
internal_value=0 -0.000425658 -0.00228463 -0.0187488 0.00243746 0.00477096 -0.0513357
internal_weight=0 1956.49 1857.92 414.101 1443.82 1383.77 60.0485
internal_count=25015 19834 19023 5707 13316 12839 477
is_linear=0
shrinkage=0.1


Tree=54
num_leaves=8
num_cat=0
split_feature=6 2 11 6 1 0 11
split_gain=19.2329 13.3495 13.8309 15.4604 13.9593 10.5696 23.0988
threshold=0.042495727539062507 9269.5000000000018 0.00050473213195800792 0.017280578613281253 53027.500000000007 4.5000000000000009 0.00069642066955566417
decision_type=2 2 2 2 2 2 2
left_child=1 5 4 -4 -3 6 -1
right_child=-2 2 3 -5 -6 -7 -8
leaf_value=0.047803222185107512 0.077226941906856791 0.050963165988536591 -0.034937558223979127 0.047889033697551757 -0.023409194974011956 -0.0093420361115968444 0.00324339384632718
leaf_weight=132.60537430061959 32.014054751256481 51.80436733388342 272.83776867459528 24.564989003352821 49.210263929562643 463.33377965562977 947.97316445736215
leaf_count=1425 7174 399 2019 434 572 5058 7980
internal_value=0 -0.000917752 -0.0172375 -0.0280961 0.0147319 0.00329368 0.00871166
internal_weight=0 1942.33 398.417 297.403 101.015 1543.91 1080.58
internal_count=25061 17887 3424 2453 971 14463 9405
is_linear=0
shrinkage=0.1


Tree=55
num_leaves=8
num_cat=0
split_feature=6 12 9 4 8 9 6
split_gain=16.6623 11.7608 11.5132 12.2319 16.1658 15.1878 10.6745
threshold=0.042495727539062507 22.500000000000004 5.9694051742553718e-05 4.8730468750000009 0.21331787109375003 0.00023752450942993167 0.0086860656738281267
decision_type=2 2 2 2 2 2 2
left_child=1 2 -1 5 -5 -4 -7
right_child=-2 -3 3 4 -6 6 -8
leaf_value=0.036201448687488223 0.075600321907518614 0.080627732707741526 0.00037311242732255932 0.0036608771516264422 0.056377594128839505 -0.036029609441728401 -0.0052058979239887129
leaf_weight=80.932324330788106 29.642772298422642 17.945387691492215 996.19035607855767 306.12473954050802 71.816470473539084 242.21723450953141 209.55064459564164
leaf_count=790 7096 1594 7916 3319 1146 1713 1367
internal_value=0 5.20298e-05 -0.000706289 -0.00234222 0.0136782 -0.00652382 -0.0217322
internal_weight=0 1924.78 1906.83 1825.9 377.941 1447.96 451.768
internal_count=24941 17845 16251 15461 4465 10996 3080
is_linear=0
shrinkage=0.1


Tree=56
num_leaves=8
num_cat=1
split_feature=6 9 0 8 15 2 8
split_gain=13.1661 9.29718 10.8855 17.537 13.5338 17.975 14.2814
threshold=0.062591552734375014 0.0006148815155029298 4.5000000000000009 0.078155517578125014 0 9583.0000000000018 0.066802978515625014
decision_type=2 2 2 2 1 2 2
left_child=1 2 3 4 -1 -6 -7
right_child=-2 -3 -4 -5 5 6 -8
leaf_value=-0.0060347388617624396 0.10036865641709865 -0.030921397304434852 -0.01125509841647822 0.020771724065512493 0.074237176865875332 -0.05712836201437569 -0.68365222481133436
leaf_weight=795.79295620019548 13.201889975811353 91.651392188854516 479.48088438762352 517.34385356889106 45.535830020206049 7.8870118795894069 0.3810701468028127
leaf_count=5061 5157 1997 5694 4985 1567 446 31
internal_value=0 0.000166078 0.00170918 0.00625666 -0.00258197 0.0418328 -0.0860336
internal_weight=0 1938.07 1846.42 1366.94 849.597 53.8039 8.26808
internal_count=24938 19781 17784 12090 7105 2044 477
cat_boundaries=0 1
cat_threshold=1
is_linear=0
shrinkage=0.1


Tree=57
num_leaves=8
num_cat=0
split_feature=5 1 1 9 0 0 9
split_gain=10.0596 9.93244 15.4203 11.3802 9.95584 11.5365 8.99744
threshold=0.0012097358703613283 13600.000000000002 6778.5000000000009 0.00035417079925537115 2.5000000000000004 3.5000000000000004 0.00057053565979003917
decision_type=2 2 2 2 2 2 2
left_child=1 2 3 -1 6 -6 -3
right_child=-2 4 -4 -5 5 -7 -8
leaf_value=0.058706174296642259 0.10032709356896219 -0.010086044724627876 0.04828262522308039 -0.12433582684377392 0.013240998598886429 -0.0054783868567539933 -0.059385639952094761
leaf_weight=5.1594902845099559 9.9754088252084312 456.47295682108961 81.0135371547658 9.939765861257909 572.61459316976834 774.5524403816089 40.286604145541787
leaf_count=43 4221 3054 661 64 6252 10249 456
internal_value=0 -0.000350106 0.0309902 -0.0617893 -0.00198369 0.0024783 -0.0140842
internal_weight=0 1940.04 96.1128 15.0993 1843.93 1347.17 496.76
internal_count=25000 20779 768 107 20011 16501 3510
is_linear=0
shrinkage=0.1


Tree=58
num_leaves=8
num_cat=0
split_feature=6 1 8 8 8 6 13
split_gain=11.5658 9.6412 9.66619 7.42204 9.03199 11.0086 7.20119
threshold=0.052108764648437507 27235.500000000004 0.29162597656250006 0.38549804687500006 0.24603271484375003 0.014064788818359377 30.356274518662488
decision_type=2 2 2 2 2 2 2
left_child=1 2 -1 4 -3 -6 -4
right_child=-2 3 6 -5 5 -7 -8
leaf_value=0.011434885535109128 0.083171962217089501 -0.0047347500748062699 0.063427933326793237 -0.039796745434010072 0.0045087531415775569 0.069025995342866839 0.26294738795796951
leaf_weight=377.94597611599602 16.820868225418963 1356.5336669525132 7.473230666248126 54.799477974534966 92.949712737230584 36.964648987865075 2.3865544013679028
leaf_count=2872 6181 13785 93 498 789 714 21
internal_value=0 -0.00010866 0.013985 -0.00365487 -0.00232245 0.0228661 0.11173
internal_weight=0 1929.05 387.806 1541.25 1486.45 129.914 9.85979
internal_count=24953 18772 2986 15786 15288 1503 114
is_linear=0
shrinkage=0.1


Tree=59
num_leaves=8
num_cat=0
split_feature=6 12 9 6 7 12 8
split_gain=10.0121 7.3496 7.33547 8.77813 8.20867 12.6483 19.4987
threshold=0.062591552734375014 22.500000000000004 6.6012144088745131e-05 0.0044460296630859384 0.0066890716552734384 17.500000000000004 0.38549804687500006
decision_type=2 2 2 2 2 2 2
left_child=1 2 -1 -4 -5 -6 -7
right_child=-2 -3 3 4 5 6 -8
leaf_value=0.024590470986638281 0.10025636365472135 0.066863137406526649 -0.014408278719835622 -0.0017270279568458336 0.018290410679062549 0.036265522101941144 -0.52035599726885462
leaf_weight=116.6342858041171 10.187585964100434 16.725641968660057 397.38319906266406 1083.9407762469491 317.32243899465539 1.4534138627350324 1.109525643289089
leaf_count=1094 5159 1571 2974 10310 3814 72 14
internal_value=0 0.000862204 0.000286591 -0.00128717 0.00242704 0.0165032 -0.20474
internal_weight=0 1934.57 1917.84 1801.21 1403.83 319.885 2.56294
internal_count=25008 19849 18278 17184 14210 3900 86
is_linear=0
shrinkage=0.1


Tree=60
num_leaves=8
num_cat=0
split_feature=3 3 4 11 3 3 2
split_gain=33.5257 10.5174 8.80468 9.40239 16.9095 11.8571 15.5635
threshold=114.50000000000001 264.50000000000006 77.593750000000014 0.0024881362915039067 101.50000000000001 91.500000000000014 3737.5000000000005
decision_type=2 2 2 2 2 2 2
left_child=2 -2 3 5 -5 -1 -7
right_child=1 -3 -4 4 -6 6 -8
leaf_value=0.0053177875857679186 0.091003744446253074 -0.45372283847735351 0.091517297786320381 -0.033561244405409717 0.078564417377371173 0.013979428060742878 -0.024209280509557833
leaf_weight=1202.0087383550126 43.489239674177952 0.35700380383059283 10.039803725550881 162.71602284815162 14.661488070734775 151.81083962251432 359.27379011816811
leaf_count=8062 7230 26 2861 1467 329 1576 3411
internal_value=0 0.0865647 -0.00188039 -0.00237642 -0.0242931 -0.000107114 -0.0128658
internal_weight=0 43.8462 1900.51 1890.47 177.378 1713.09 511.085
internal_count=24962 7256 17706 14845 1796 13049 4987
is_linear=0
shrinkage=0.1


Tree=61
num_leaves=8
num_cat=0
split_feature=3 12 12 11 3 3 3
split_gain=27.931 15.494 28.2407 8.822 11.7619 9.83568 22.0699
threshold=114.50000000000001 61.500000000000007 63.500000000000007 0.0003970861434936524 102.50000000000001 101.50000000000001 95.500000000000014
decision_type=2 2 2 2 2 2 2
left_child=3 -2 -3 4 -1 6 -5
right_child=1 2 -4 5 -6 -7 -8
leaf_value=0.03648063703915027 0.087364971433238708 -2.1180858652009222 0.1001006113071211 0.00040265140759308029 -0.16002608031230789 0.026877297197534872 -0.028631726123612866
leaf_weight=83.663275835104287 39.912927324534394 0.089746909681706621 0.15800318773835897 1377.4217722102767 3.1606667654123148 101.84710009000264 323.24054955074098
leaf_count=681 7155 10 45 11503 124 2715 2702
internal_value=0 0.0824684 -0.70533 -0.0018084 0.0293265 -0.00330813 -0.00511584
internal_weight=0 40.1607 0.24775 1889.33 86.8239 1802.51 1700.66
internal_count=24935 7210 55 17725 805 16920 14205
is_linear=0
shrinkage=0.1


Tree=62
num_leaves=8
num_cat=0
split_feature=3 5 13 1 11 3 1
split_gain=27.7918 18.5406 13.1132 11.9776 21.1101 25.0755 29.7101
threshold=101.50000000000001 2.8997659683227542e-05 28.226779317298206 71035.500000000015 0.00069642066955566417 91.500000000000014 28530.000000000004
decision_type=2 2 2 2 2 2 2
left_child=3 2 -2 4 -1 -6 -7
right_child=1 -3 -4 -5 5 6 -8
leaf_value=0.024804350557907279 0.027808260533051687 0.077620185349328089 -0.077307230030229962 -0.019515077927949376 0.0028368673953968748 0.048304068210198704 -0.045382690785201733
leaf_weight=285.43552814889699 57.173456435324624 72.386566087894607 14.976346048060803 378.66223656700458 851.11077022086829 39.536413120804355 235.29645741404966
leaf_count=1874 2590 7293 228 3143 7452 297 2116
internal_value=0 0.0418633 0.00598879 -0.00372265 0.000514341 -0.00564337 -0.0319052
internal_weight=0 144.536 72.1498 1790.04 1411.38 1125.94 274.833
internal_count=24993 10111 2818 14882 11739 9865 2413
is_linear=0
shrinkage=0.1


Tree=63
num_leaves=8
num_cat=0
split_feature=11 12 1 11 7 9 11
split_gain=8.79159 6.70537 8.2173 15.2088 10.3448 9.63701 10.0005
threshold=0.012813568115234377 22.500000000000004 87773.000000000015 0.00057816505432128917 0.0093116760253906267 0.00059151649475097667 0.0017733573913574221
decision_type=2 2 2 2 2 2 2
left_child=1 2 3 -1 -5 -6 -7
right_child=-2 -3 -4 4 5 6 -8
leaf_value=0.029623552174223453 -0.16333940182084022 0.065700575553203633 -0.01479361763953338 -0.0036641855058938549 0.032891447970833924 -0.066439751035172856 0.019832563316962926
leaf_weight=196.04487702343613 3.249316254281438 16.022318233619444 289.00754992879229 1209.47303678561 157.2608071549912 22.785470516653731 32.744907690852415
leaf_count=1813 94 1600 3278 14376 1620 164 2003
internal_value=0 0.00127961 0.000738435 0.00351225 -8.69354e-05 0.0202456 -0.0155672
internal_weight=0 1923.34 1907.32 1618.31 1422.26 212.791 55.5304
internal_count=24948 24854 23254 19976 18163 3787 2167
is_linear=0
shrinkage=0.1


Tree=64
num_leaves=8
num_cat=0
split_feature=3 9 3 3 5 13 12
split_gain=25.8567 7.90988 8.03545 21.2598 10.7278 15.0524 9.50902
threshold=114.50000000000001 5.9694051742553718e-05 100.50000000000001 97.500000000000014 3.3587217330932624e-05 12.949999507128174 1.5000000000000002
decision_type=2 2 2 2 2 2 2
left_child=1 -1 3 -3 5 -4 -5
right_child=-2 2 4 6 -6 -7 -8
leaf_value=0.027173677130607039 0.082834688307786217 -0.0020672908333969507 0.037415238245465193 -0.031644398538356468 0.049623622001439022 -0.048394002686839827 -0.12207178880893982
leaf_weight=84.088206230662763 35.93528662720928 1453.2094922057586 40.956158431479707 178.99968842056114 62.469317596405745 40.813957768725231 12.436546385055406
leaf_count=691 7283 12204 804 1388 2002 395 193
internal_value=0 -0.00280012 -0.00420908 -0.00619389 0.0184221 -0.00541474 -0.0375192
internal_weight=0 1872.97 1788.89 1644.65 144.239 81.7701 191.436
internal_count=24960 17677 16986 13785 3201 1199 1581
is_linear=0
shrinkage=0.1


Tree=65
num_leaves=8
num_cat=0
split_feature=3 11 7 4 11 3 0
split_gain=21.2443 8.40526 16.342 9.31344 9.38348 8.32738 9.88965
threshold=112.50000000000001 0.0016217231750488283 0.0066890716552734384 1.5063476562500002 0.012813568115234377 91.500000000000014 4.5000000000000009
decision_type=2 2 2 2 2 2 2
left_child=1 5 -3 -4 -5 6 -1
right_child=-2 2 3 4 -6 -7 -8
leaf_value=0.014766715254703267 0.077129808104291681 -0.023236662427199371 -0.025746949776022356 0.041245743817969305 -0.20599592432632985 -0.0086723178706549393 -0.0069631874913578563
leaf_weight=698.9397611990571 35.907130160718225 344.82691958989017 32.798993971198797 85.30140586028574 1.5628149033291254 410.01449095958378 299.05720356246457
leaf_count=4366 7621 4490 195 2131 32 3917 2216
internal_value=0 -0.000522255 -0.0121871 0.0196537 0.0367966 0.00332587 0.00825518
internal_weight=0 1872.5 464.49 119.663 86.8642 1408.01 997.997
internal_count=24968 17347 6848 2358 2163 10499 6582
is_linear=0
shrinkage=0.1


Tree=66
num_leaves=8
num_cat=0
split_feature=4 1 11 6 7 1 13
split_gain=10.3703 10.2051 19.7024 13.8632 14.5028 11.806 11.2051
threshold=2.0556640625000004 37931.000000000007 0.0011229515075683596 0.0056343078613281259 0.0019106864929199221 17159.000000000004 27.487911252621881
decision_type=2 2 2 2 2 2 2
left_child=1 2 6 5 -5 -4 -1
right_child=-2 -3 3 4 -6 -7 -8
leaf_value=0.052993664569944636 0.010298971224473709 -0.011824475957326216 0.0088060409058532511 -0.017033113726031061 0.05385439373751371 -0.060007789427651517 0.0033699769040838041
leaf_weight=107.31810465222225 762.86805624514818 734.99100333929528 37.451542575843632 70.532738416688517 48.849151915172115 74.578769381158054 78.997701857471839
leaf_count=751 14653 7432 262 451 315 552 517
internal_value=0 -0.00473109 0.00774968 -0.0117373 0.011973 -0.0370034 0.0319533
internal_weight=0 1152.72 417.728 231.412 119.382 112.03 186.316
internal_count=24933 10280 2848 1580 766 814 1268
is_linear=0
shrinkage=0.1


Tree=67
num_leaves=8
num_cat=0
split_feature=3 2 11 3 12 11 1
split_gain=17.8939 7.94599 11.3858 13.4865 10.8418 11.1694 9.99804
threshold=114.50000000000001 9583.0000000000018 0.0029554367065429692 101.50000000000001 1.0000000180025095e-35 0.00092530250549316417 12200.000000000002
decision_type=2 2 2 2 2 2 2
left_child=1 2 6 -4 -3 -6 -1
right_child=-2 4 3 -5 5 -7 -8
leaf_value=0.053347820141972049 0.07584280987535913 -0.010399242215504669 -0.03822657740254097 0.095402464001245843 -0.049478128842506311 -0.23983973537191067 0.0029658804629337618
leaf_weight=40.564342074096203 30.609103046415839 345.6435804089997 104.73225181573071 8.1392548788571712 15.515899533173071 3.8461161299492224 1357.9544601674424
leaf_count=237 7303 2642 2669 798 369 51 10968
internal_value=0 -0.00123649 0.00196147 -0.0285902 -0.0144784 -0.087296 0.00442724
internal_weight=0 1876.4 1511.39 112.872 365.006 19.362 1398.52
internal_count=25037 17734 14672 3467 3062 420 11205
is_linear=0
shrinkage=0.1


Tree=68
num_leaves=8
num_cat=0
split_feature=3 3 13 5 7 12 12
split_gain=18.1926 16.6394 12.7874 11.1276 9.28381 10.3177 13.5495
threshold=100.50000000000001 98.500000000000014 27.820344987205861 5.319714546203614e-05 0.00059247016906738292 1.5000000000000002 9.5000000000000018
decision_type=2 2 2 2 2 2 2
left_child=1 -1 -2 -4 -3 -6 -7
right_child=2 4 3 -5 5 6 -8
leaf_value=-0.0017002663816229717 0.042366681636003739 -0.0057330245735098288 -0.060808799500908596 0.067035075363683416 -0.048592241443845462 -0.29419507428845099 0.018074781871377222
leaf_weight=1580.2922442205017 141.71679990791017 55.680979900993407 24.828774331603199 9.3802368977339921 79.53716314479243 3.9286988673266015 2.1496790591627359
leaf_count=13261 9780 462 333 397 618 45 46
internal_value=0 -0.00463996 0.0291207 -0.0257531 -0.037518 -0.0581896 -0.183762
internal_weight=0 1721.59 175.926 34.209 141.297 85.6155 6.07838
internal_count=24942 14432 10510 730 1171 709 91
is_linear=0
shrinkage=0.1


Tree=69
num_leaves=8
num_cat=0
split_feature=6 1 10 1 2 6 7
split_gain=8.4886 7.15402 8.11417 15.7329 7.48719 9.47845 10.6885
threshold=0.052108764648437507 174126.00000000003 1.5000000000000002 179471.50000000003 6473.5000000000009 0.013843536376953127 0.0079078674316406267
decision_type=2 2 2 2 2 2 2
left_child=1 4 -3 -4 -1 -6 -7
right_child=-2 2 3 -5 5 6 -8
leaf_value=0.0055319848492949653 0.08437801801276397 -0.026362676754001297 -0.6169998261589118 -0.086962944534662565 -0.0129436919254388 0.0070927596874836591 0.099862925780762155
leaf_weight=1182.0508360848762 11.944571239582727 40.050383608788252 0.6712091313675036 3.3724361257627606 556.97762371611316 90.395021616481245 14.397072587860746
leaf_count=12155 6167 399 28 158 4629 1144 332
internal_value=0 -0.00018796 -0.0399942 -0.174993 0.000763992 -0.00775257 0.0198385
internal_weight=0 1887.91 44.094 4.04365 1843.82 661.77 104.792
internal_count=25012 18845 585 186 18260 6105 1476
is_linear=0
shrinkage=0.1


Tree=70
num_leaves=8
num_cat=0
split_feature=3 12 3 6 11 1 2
split_gain=14.1724 8.00208 7.19656 13.9783 6.45664 11.7291 14.2896
threshold=114.50000000000001 22.500000000000004 55.500000000000007 0.0099449157714843767 0.0010895729064941408 37931.000000000007 3146.5000000000005
decision_type=2 2 2 2 2 2 2
left_child=1 4 3 -3 5 6 -1
right_child=-2 2 -4 -5 -6 -7 -8
leaf_value=0.10610628488929377 0.072395741667972899 0.10206758670806251 0.10320348525924486 -0.62621346231199748 -0.0070154113399545836 -0.0016668451411573329 0.016614919230281751
leaf_weight=19.376456574071199 27.172878332843538 0.73254623916000017 11.407993195985908 0.41120058065280318 891.23471320193494 714.15974214614835 225.35257733613253
leaf_count=136 7266 43 668 18 10109 5300 1391
internal_value=0 -0.00034793 0.0792268 -0.159876 -0.000887804 0.00480747 0.0237006
internal_weight=0 1862.68 12.5517 1.14375 1850.12 958.889 244.729
internal_count=24931 17665 729 61 16936 6827 1527
is_linear=0
shrinkage=0.1


Tree=71
num_leaves=8
num_cat=0
split_feature=9 5 7 1 1 2 9
split_gain=9.0023 11.2209 12.5993 10.9789 9.6695 10.5665 9.60127
threshold=0.00012940168380737307 1.6421079635620121e-05 0.00040352344512939459 13600.000000000002 49372.500000000007 4073.5000000000005 0.00065588951110839855
decision_type=2 2 2 2 2 2 2
left_child=4 3 -3 -2 5 -1 -5
right_child=1 2 -4 6 -6 -7 -8
leaf_value=0.062438265604154088 0.031971497138293219 -0.023814224221105906 0.0083471738407877513 -0.017820898639586837 -0.0046214191288643921 0.01287455080622988 -0.08402358956796907
leaf_weight=51.899200659943745 42.74006662517786 152.05451949860435 612.35424698761199 490.11618883290794 271.55710567801725 251.21981535688974 22.931430521886796
leaf_count=538 261 1655 12958 4132 3281 1922 174
internal_value=0 -0.00591146 0.00194968 -0.0167234 0.00908317 0.0213608 -0.02078
internal_weight=0 1320.2 764.409 555.788 574.676 303.119 513.048
internal_count=24921 19180 14613 4567 5741 2460 4306
is_linear=0
shrinkage=0.1


Tree=72
num_leaves=8
num_cat=0
split_feature=3 3 9 0 0 3 13
split_gain=12.517 9.10309 15.1626 6.16316 10.1295 8.97591 6.8425
threshold=125.50000000000001 213.50000000000003 0.00015980005264282229 4.5000000000000009 2.5000000000000004 104.50000000000001 7.4078329589967327
decision_type=2 2 2 2 2 2 2
left_child=3 -2 -3 4 -1 -5 -7
right_child=1 2 -4 5 -6 6 -8
leaf_value=-0.0074140710038327054 0.10152092856191285 -0.73383268643858779 0.10101660292496713 -0.012689345694582049 0.0099769962052899085 0.093839314730098558 -0.1114641483092233
leaf_weight=557.22273373504868 16.616793993045579 0.35458170343190332 0.56180180283263326 453.7772195833968 839.48282904271036 12.588173806143457 1.8633994671981771
leaf_count=4330 5010 6 209 4077 9898 1189 287
internal_value=0 0.0845983 -0.222174 -0.000289745 0.00303874 -0.0102185 0.0673649
internal_weight=0 17.5332 0.916384 1864.93 1396.71 468.229 14.4516
internal_count=25006 5225 215 19781 14228 5553 1476
is_linear=0
shrinkage=0.1


Tree=73
num_leaves=8
num_cat=0
split_feature=3 12 4 1 1 3 2
split_gain=13.6704 8.22371 6.6269 12.7065 6.61019 15.3394 16.7773
threshold=125.50000000000001 22.500000000000004 35.703125000000007 6778.5000000000009 21147.500000000004 68.500000000000014 2333.5000000000005
decision_type=2 2 2 2 2 2 2
left_child=1 2 4 -4 5 -1 -7
right_child=-2 -3 3 -5 -6 6 -8
leaf_value=-0.003881281692831683 0.089708696214429146 0.078682402678942331 -0.64460720559144991 0.052951278876866952 -0.0059724947395962923 -0.051950519956345358 0.080929668672518065
leaf_weight=157.90780359320343 16.227948137297062 12.402933918929191 0.26334847719408827 26.756023737660144 1602.2733141008066 11.78215408278629 49.085586340981536
leaf_count=935 5196 936 7 4764 12646 81 384
internal_value=0 -0.00247214 -0.00301681 0.0461437 -0.00374622 0.0125585 0.0552079
internal_weight=0 1860.47 1848.07 27.0194 1821.05 218.776 60.8677
internal_count=24949 19753 18817 4771 14046 1400 465
is_linear=0
shrinkage=0.1


Tree=74
num_leaves=8
num_cat=0
split_feature=3 9 4 7 5 2 2
split_gain=13.9898 7.9636 8.16888 12.1066 11.9843 13.1289 11.6416
threshold=116.50000000000001 0.00011560320854187013 0.85717773437500011 9.7274780273437514e-05 8.6873769760131849e-05 7474.5000000000009 5138.5000000000009
decision_type=2 2 2 2 2 2 2
left_child=1 -1 4 -4 6 -6 -3
right_child=-2 2 3 -5 5 -7 -8
leaf_value=0.011506770176140943 0.082681198488825422 -0.0029315645818591496 -0.042213394300859304 0.0044832963906396208 0.017190437599228264 0.20642960382431363 -0.036759817670473656
leaf_weight=472.15221494412981 20.836228124564514 215.91117179673165 59.163973797811195 901.4109606097918 17.716924164677042 4.6223675049841395 192.37016368610784
leaf_count=3906 6836 1670 506 10393 105 24 1493
internal_value=0 0.000285019 -0.00352348 0.00160712 -0.0149682 0.0563501 -0.0188705
internal_weight=0 1863.35 1391.2 960.575 430.621 22.3393 408.281
internal_count=24933 18097 14191 10899 3292 129 3163
is_linear=0
shrinkage=0.1


Tree=75
num_leaves=8
num_cat=0
split_feature=3 12 1 11 12 8 5
split_gain=10.8218 6.71545 7.31866 11.6134 9.15342 25.7919 8.95934
threshold=112.50000000000001 22.500000000000004 114457.00000000001 0.00040888786315917974 10.500000000000002 0.16375732421875003 1.4394521713256838e-05
decision_type=2 2 2 2 2 2 2
left_child=1 2 3 -1 -4 -6 -7
right_child=-2 -3 4 -5 5 6 -8
leaf_value=0.040328454665892785 0.067387265876345775 0.076004286524533782 -0.014861308527539667 -0.0015199706593290688 0.05704007302915666 -0.1354105633589068 -0.36013724411605258
leaf_weight=69.17933018412441 23.208177236607298 11.162084777024573 156.05166058143368 1600.5070077378768 5.7527427840977889 4.4363539116457105 2.9568165256641805
leaf_count=522 7643 712 1135 14762 149 62 40
internal_value=0 -0.00132492 -0.00179433 0.000213921 -0.0216123 -0.101748 -0.225301
internal_weight=0 1850.05 1838.88 1669.69 169.198 13.1459 7.39317
internal_count=25025 17382 16670 15284 1386 251 102
is_linear=0
shrinkage=0.1


Tree=76
num_leaves=8
num_cat=0
split_feature=6 5 6 13 1 4 9
split_gain=6.06469 8.13708 10.7909 33.8846 29.9281 5.92008 5.25821
threshold=0.062591552734375014 0.00079464912414550792 0.052108764648437507 18.461921947288101 30187.000000000004 24.414062500000004 0.00056290626525878917
decision_type=2 2 2 2 2 2 2
left_child=1 6 3 4 -3 -4 -1
right_child=-2 2 5 -5 -6 -7 -8
leaf_value=0.0014890383686643447 0.10027850031581641 -2.0797441953179101 -0.5623383942062975 -0.069814371039788631 -0.35020678231936436 0.10041324720669212 -0.02130854395416425
leaf_weight=1762.7468568958575 6.0401452372316262 0.18304156535305027 0.15007650735788036 1.1394327047746626 0.22055465501034632 1.2945957814226856 107.33197579614352
leaf_count=17230 5210 20 13 120 24 489 1933
internal_value=0 -8.28829e-05 -0.164972 -0.34883 -1.13577 0.0314381 0.000180579
internal_weight=0 1873.07 2.9877 1.54303 0.403596 1.44467 1870.08
internal_count=25039 19829 666 164 44 502 19163
is_linear=0
shrinkage=0.1


Tree=77
num_leaves=8
num_cat=0
split_feature=3 3 4 11 2 4 3
split_gain=8.13352 7.70599 8.43552 5.58408 6.45447 11.6461 11.836
threshold=125.50000000000001 213.50000000000003 2.2216796875000004 0.00038588047027587896 6381.5000000000009 5.1074218750000009 79.500000000000014
decision_type=2 2 2 2 2 2 2
left_child=3 -2 -3 -1 -5 -6 -7
right_child=1 2 -4 4 5 6 -8
leaf_value=0.025670942439821987 0.10109925514579841 -0.47563931874728366 0.10248687823857752 0.0028903444827776798 -0.016238932280419296 0.051064304347809689 -0.014716927272428269
leaf_weight=79.24992077157367 12.054728589806471 0.50432425364851841 0.50463023915654048 1171.1495951157704 501.68384058494121 57.432910084957257 52.225077064795187
leaf_count=814 4991 5 217 12847 3807 904 1344
internal_value=0 0.0788781 -0.186551 -0.00030249 -0.00145728 -0.00978605 0.0197357
internal_weight=0 13.0637 1.00895 1861.74 1782.49 611.342 109.658
internal_count=24929 5213 222 19716 18902 6055 2248
is_linear=0
shrinkage=0.1


Tree=78
num_leaves=8
num_cat=1
split_feature=2 6 4 7 9 15 6
split_gain=6.07814 8.83255 9.61371 8.06257 6.29688 10.1691 10.0664
threshold=11414.500000000002 0.0096931457519531267 0.20733642578125003 0.0073223114013671884 0.00012761354446411136 0 0.011753082275390627
decision_type=2 2 2 2 2 1 2
left_child=4 -2 -3 -4 5 6 -1
right_child=1 2 3 -5 -6 -7 -8
leaf_value=0.015883299954533581 -0.023464317386851237 0.20066129715018405 -0.0021211978261003106 0.12022969051247895 -0.0012276139615963967 0.049064676270595325 -0.021231140026150386
leaf_weight=279.1695448178798 206.09177473606542 2.8323352356674141 47.823974176339107 6.0690769220527718 1184.5527021905 56.204205987800378 98.990367965074256
leaf_count=1475 1681 20 905 307 17482 2596 519
internal_value=0 -0.0138465 0.0210961 0.0116578 0.00254898 0.0128481 0.00600898
internal_weight=0 262.817 56.7254 53.8931 1618.92 434.364 378.16
internal_count=24985 2913 1232 1212 22072 4590 1994
cat_boundaries=0 1
cat_threshold=1
is_linear=0
shrinkage=0.1


Tree=79
num_leaves=8
num_cat=0
split_feature=3 3 1 2 1 2 8
split_gain=10.4264 9.92378 6.90382 6.88589 10.2322 7.20706 7.23623
threshold=100.50000000000001 98.500000000000014 29223.500000000004 9269.5000000000018 40771.000000000007 9807.0000000000018 0.23712158203125003
decision_type=2 2 2 2 2 2 2
left_child=1 -1 -3 -2 -5 6 -6
right_child=3 2 -4 4 5 -7 -8
leaf_value=0.00023456450494765982 0.034826424524784676 0.036182476424655934 -0.034932243530858907 -0.11081094768017384 -0.091649105049334934 0.033458333559484514 -0.65824997091439696
leaf_weight=1572.8858143785037 129.28789546358166 15.289582040510139 127.36901187233161 8.5231647511827742 1.6742254119890301 21.716068494308274 0.26014743317500677
leaf_count=13282 8859 109 1092 119 142 1363 23
internal_value=0 -0.00205598 -0.0273103 0.0245246 -0.0168728 0.0169817 -0.167961
internal_weight=0 1715.54 142.659 161.462 32.1736 23.6504 1.93437
internal_count=24989 14483 1201 10506 1647 1528 165
is_linear=0
shrinkage=0.1


Tree=80
num_leaves=8
num_cat=0
split_feature=3 3 5 3 7 9 3
split_gain=7.21977 6.39458 6.45062 6.31626 5.56001 6.91413 5.40498
threshold=125.50000000000001 27.500000000000004 1.4901161193847659e-07 213.50000000000003 0.035140991210937507 0.00060677528381347667 214.50000000000003
decision_type=2 2 2 2 2 2 2
left_child=1 4 -3 -2 5 -1 -5
right_child=3 2 -4 6 -6 -7 -8
leaf_value=0.018718377269494765 0.10099302942115213 -0.049216932629717658 -0.0027539728939027903 -0.82478999886817206 0.099576354519388705 -0.070034398063708911 -0.077240205912529447
leaf_weight=140.45842997659929 10.568345252366269 30.425392507808283 1667.4058403963863 0.10654389928094943 7.8366448477609074 9.3622769400244561 1.0165787328442091
leaf_count=794 4985 244 18455 11 50 180 212
internal_value=0 -0.0017977 -0.00358661 0.077031 0.0174672 0.013172 -0.148402
internal_weight=0 1855.49 1697.83 11.6915 157.657 149.821 1.12312
internal_count=24931 19723 18699 5208 1024 974 223
is_linear=0
shrinkage=0.1


Tree=81
num_leaves=8
num_cat=0
split_feature=4 5 6 11 4 5 13
split_gain=5.34144 11.4996 9.90606 6.64267 7.32625 9.03334 8.71435
threshold=14.292968750000002 0.00010994076728820802 0.026573181152343753 0.0010895729064941408 0.68237304687500011 6.3925981521606459e-05 4.9746432340907081
decision_type=2 2 2 2 2 2 2
left_child=3 -2 -3 -1 5 -5 -6
right_child=1 2 -4 4 6 -7 -8
leaf_value=0.0055034083393109808 0.059153066077191285 -0.055571295116158805 0.026493019331396157 -0.030340691782389691 -0.030635759342217281 0.033755138005517132 0.0040691654301879916
leaf_weight=967.28612311457982 48.37589844444301 24.359726391616277 37.128181323496392 186.53659580100793 84.810188749921508 24.926006373018026 492.5461691179662
leaf_count=9424 618 458 8400 1589 809 163 3567
internal_value=0 0.0226783 -0.00601854 -5.06052e-05 -0.0068612 -0.0227854 -0.00102879
internal_weight=0 109.864 61.4879 1756.11 788.819 211.463 577.356
internal_count=25028 9476 8858 15552 6128 1752 4376
is_linear=0
shrinkage=0.1


Tree=82
num_leaves=8
num_cat=0
split_feature=3 0 4 8 4 8 3
split_gain=7.47579 4.72285 7.32026 8.78161 9.54702 7.22372 7.13467
threshold=125.50000000000001 4.5000000000000009 3.6962890625000004 0.19915771484375003 4.1777343750000009 0.36242675781250006 102.50000000000001
decision_type=2 2 2 2 2 2 2
left_child=1 -1 -3 4 -4 -5 -6
right_child=-2 2 3 5 6 -7 -8
leaf_value=0.0023592915875441803 0.083913379370459534 -0.015495508814874576 0.11661065019531787 0.085505190664579844 -0.036605913773355335 -0.0068819112865208809 0.091343922991086707
leaf_weight=1391.8751699964923 10.537247480009681 373.01757003029343 5.380834095645695 24.348887892439961 43.537894160137512 12.971868154796537 4.8424670924141529
leaf_count=14178 5225 3566 56 658 604 213 473
internal_value=0 -0.00055358 -0.00928954 0.0161263 -0.00974452 0.0533936 -0.0237985
internal_weight=0 1855.97 464.1 91.082 53.7612 37.3208 48.3804
internal_count=24973 19748 5570 2004 1133 871 1077
is_linear=0
shrinkage=0.1


Tree=83
num_leaves=8
num_cat=0
split_feature=11 2 3 9 1 4 6
split_gain=6.91512 11.4613 14.0375 8.36139 9.4429 8.32972 7.80051
threshold=0.0031213760375976567 4041.5000000000005 71.500000000000014 0.00064682960510253917 31992.500000000004 0.65991210937500011 0.0088996887207031267
decision_type=2 2 2 2 2 2 2
left_child=3 -2 -3 4 -1 -4 -5
right_child=1 2 5 6 -6 -7 -8
leaf_value=0.017504233819793161 -0.04519186546781457 -0.051503106852299009 -0.053385405578455149 -0.074443111655925806 0.00039925131799000243 0.11711556882540636 0.018504607846525009
leaf_weight=431.05270311638014 71.380658643261995 13.1556494490942 3.5571383254136917 25.688748951070011 1284.497396379491 14.728354643390047 13.922292476403525
leaf_count=3083 2573 785 52 188 14631 3089 521
internal_value=0 -0.0230337 0.0272716 0.0036483 0.00469709 0.0839468 -0.0417743
internal_weight=0 102.822 31.4411 1755.16 1715.55 18.2855 39.611
internal_count=24922 6499 3926 18423 17714 3141 709
is_linear=0
shrinkage=0.1


Tree=84
num_leaves=8
num_cat=0
split_feature=3 11 8 9 9 9 8
split_gain=6.41466 6.07858 9.80128 10.1527 8.63908 6.90741 10.1951
threshold=125.50000000000001 0.0015540122985839846 0.080841064453125014 0.00017637014389038089 0.00029742717742919927 0.00047433376312255865 0.28063964843750006
decision_type=2 2 2 2 2 2 2
left_child=1 5 3 -3 -5 -1 -7
right_child=-2 2 -4 4 -6 6 -8
leaf_value=0.0051427947339656522 0.081908769219865715 0.024079685607747592 0.0046160899979493537 -0.054445007028382279 -0.013349105927398392 -0.081744388049487401 0.0070587064483339504
leaf_weight=1309.0409705036436 9.6729840760672214 37.863414290826768 251.89445862197317 94.766951576340944 111.14891571397311 23.006554869760294 29.510781462071463
leaf_count=10962 5204 286 5756 699 1700 170 222
internal_value=0 0.00026433 -0.00921741 -0.0235114 -0.0322624 0.00371615 -0.031844
internal_weight=0 1857.23 495.674 243.779 205.916 1361.56 52.5173
internal_count=24999 19795 8441 2685 2399 11354 392
is_linear=0
shrinkage=0.1


Tree=85
num_leaves=8
num_cat=0
split_feature=1 2 0 12 9 13 0
split_gain=5.67261 10.6384 6.94705 13.0038 15.8816 12.7641 6.94034
threshold=13600.000000000002 2117.5000000000005 2.5000000000000004 5.5000000000000009 9.5039606094360365e-05 24.49041732241724 3.5000000000000004
decision_type=2 2 2 2 2 2 2
left_child=1 -1 3 -2 -5 -6 -4
right_child=2 -3 6 4 5 -7 -8
leaf_value=-0.093092212496333551 -0.012622538969284709 0.031291326984895562 0.0087613185356741827 0.022504106730900919 -0.1741008582778113 -0.78161991889553639 -0.0059966873658771173
leaf_weight=7.459147324145305 468.83857583218196 87.935290825698758 555.59789778779668 1.2548067641910159 0.71377575024962403 0.67107354127801955 747.21991654255544
leaf_count=62 3730 837 8179 105 23 19 12119
internal_value=0 0.0215651 -0.00346724 -0.0138688 -0.235185 -0.468624 0.000296989
internal_weight=0 95.3944 1774.3 471.478 2.63966 1.38485 1302.82
internal_count=25074 899 24175 3877 147 42 20298
is_linear=0
shrinkage=0.1


Tree=86
num_leaves=8
num_cat=0
split_feature=3 11 3 0 10 1 11
split_gain=8.9848 10.2652 11.9324 7.82561 6.84155 6.67307 6.00074
threshold=100.50000000000001 0.0003970861434936524 98.500000000000014 11.500000000000002 1.5000000000000002 14246.500000000002 0.0027189254760742192
decision_type=2 2 2 2 2 2 2
left_child=1 -1 3 4 6 -4 -3
right_child=-2 2 5 -5 -6 -7 -8
leaf_value=0.031848527885985266 0.022526114805927672 5.8529003910502918e-05 0.055809551849494536 -0.052463099137561565 0.042636429241581814 -0.039173616889826318 -0.024049659795088905
leaf_weight=82.365521448198706 155.51649818393344 1307.6832214425085 7.8737522134324527 29.876691063051112 35.440728587564081 121.97127931448631 112.09669913345715
leaf_count=671 10534 8782 56 221 668 1073 2953
internal_value=0 -0.0025871 -0.0043434 -0.00180171 -0.000761581 -0.0334137 -0.0018449
internal_weight=0 1697.31 1614.94 1485.1 1455.22 129.845 1419.78
internal_count=24958 14424 13753 12624 12403 1129 11735
is_linear=0
shrinkage=0.1


Tree=87
num_leaves=8
num_cat=0
split_feature=8 6 11 11 8 12 13
split_gain=5.75133 14.553 9.95374 6.01172 5.78286 8.83702 12.168
threshold=0.24603271484375003 0.016197204589843753 0.00073266029357910167 0.00093436241149902355 0.18963623046875003 4.5000000000000009 45.52628379793628
decision_type=2 2 2 2 2 2 2
left_child=2 3 4 -2 5 -1 -7
right_child=1 -3 -4 -5 -6 6 -8
leaf_value=0.0090690392417345275 -0.015185944814830786 0.074920515905570362 -0.0077197196545868282 0.023027361054242607 -0.030905624350722718 0.078938878410945337 -0.56918276559515191
leaf_weight=413.35537677962566 86.873835287173279 33.825639690403477 1184.4242932499328 78.251229079149198 32.98477646172978 24.007745785696901 0.29285093164071341
leaf_count=2301 786 2037 16762 569 348 2175 13
internal_value=0 0.0151641 -0.00283121 0.00292297 0.00947131 0.0125144 0.0711197
internal_weight=0 198.951 1655.07 165.125 470.641 437.656 24.3006
internal_count=24991 3392 21599 1355 4837 4489 2188
is_linear=0
shrinkage=0.1


Tree=88
num_leaves=8
num_cat=0
split_feature=11 8 9 9 8 4 8
split_gain=6.36869 7.75268 7.0603 6.69299 7.17244 6.18273 5.97858
threshold=0.0016217231750488283 0.13189697265625003 0.00013512372970581057 0.00047433376312255865 0.28063964843750006 3.8466796875000004 0.019050598144531253
decision_type=2 2 2 2 2 2 2
left_child=3 2 -2 -1 -5 -6 -4
right_child=1 -3 6 4 5 -7 -8
leaf_value=0.0059111831143890646 0.070589111238102895 0.0099906972991311918 -0.055323796764871702 -0.069780583222995449 -0.026186193049697444 0.071054130450004957 -0.014958732170259404
leaf_weight=1336.3073742476699 8.7067367514828202 143.4936046959192 42.858503007431864 24.616421872400679 22.399697962915528 9.2337374702910875 255.07773477528826
leaf_count=12994 87 5982 475 207 190 97 4894
internal_value=0 -0.00919392 -0.0181714 0.00448881 -0.0293017 0.00219841 -0.0207654
internal_weight=0 450.137 306.643 1392.56 56.2499 31.6334 297.936
internal_count=24926 11438 5456 13488 494 287 5369
is_linear=0
shrinkage=0.1


Tree=89
num_leaves=8
num_cat=0
split_feature=2 1 11 8 3 1 1
split_gain=5.473 9.90684 7.92949 9.84245 9.29793 7.7584 9.4371
threshold=2854.5000000000005 9889.5000000000018 0.0029172897338867192 0.29479980468750006 93.500000000000014 6778.5000000000009 24350.500000000004
decision_type=2 2 2 2 2 2 2
left_child=2 -2 -1 5 -5 -4 -7
right_child=1 -3 3 4 -6 6 -8
leaf_value=0.017725866465141269 0.076351876413694481 -0.0030196216369046038 -0.12643520036865472 0.1952155218901743 -0.19821804216715824 0.027317931858640954 -0.07227082507864889
leaf_weight=304.55375378204917 15.894621944345998 1475.2724900650064 8.1925573465414328 3.3280722504714495 0.73263746240991157 20.37043528490176 17.855131283678929
leaf_count=3257 182 20099 64 63 111 293 847
internal_value=0 -0.00217357 0.0116415 -0.0250667 0.124219 -0.0381274 -0.0192
internal_weight=0 1491.17 355.033 50.4788 4.06071 46.4181 38.2256
internal_count=24916 20281 4635 1378 174 1204 1140
is_linear=0
shrinkage=0.1


Tree=90
num_leaves=8
num_cat=0
split_feature=4 5 7 7 5 5 4
split_gain=5.02392 17.0888 9.3346 7.84326 13.9443 14.3816 17.0334
threshold=9.2500000000000018 6.9946050643920912e-05 0.0091590881347656267 0.0044994354248046884 0.00023728609085083011 0.00017994642257690432 34.390625000000007
decision_type=2 2 2 2 2 2 2
left_child=-1 -2 3 -3 5 -5 -7
right_child=1 2 -4 4 -6 6 -8
leaf_value=-0.0022833281998018485 0.050230182898042347 -0.0074019184828776306 0.052928476779669033 -0.081986661616189213 0.037603326699032831 -0.17526632116031501 -0.70431026090320803
leaf_weight=1652.9616458032979 80.048436271492392 76.667698581659351 19.824338147911476 11.192901590431577 7.1671234531240762 2.0716913531941823 0.86159951874287788
leaf_count=14694 711 4409 2809 226 2028 56 49
internal_value=0 0.014579 -0.00964998 -0.0223142 -0.0760052 -0.133646 -0.330732
internal_weight=0 197.834 117.785 97.961 21.2933 14.1262 2.93329
internal_count=24982 10288 9577 6768 2359 331 105
is_linear=0
shrinkage=0.1


Tree=91
num_leaves=8
num_cat=0
split_feature=4 9 1 4 9 10 13
split_gain=5.79659 5.18424 4.52652 6.16135 5.91423 5.58417 5.14737
threshold=85.281250000000014 0.00067543983459472667 114457.00000000001 11.816406250000002 0.0003455877304077149 1.5000000000000002 9.2906344307849835
decision_type=2 2 2 2 2 2 2
left_child=1 2 5 4 -4 -1 -7
right_child=-2 -3 3 -5 -6 6 -8
leaf_value=0.0022153961314629609 0.088442941463855618 -0.02857426768884094 -0.011726043207720341 0.11369812657287096 -0.087469349077278769 0.079104735975001991 0.0064833176088341772
leaf_weight=1563.0812146929675 7.5285890149825709 59.271134161230293 158.55314453935716 3.7051502908725515 11.025397949968463 18.324459289491642 20.883050961332629
leaf_count=14345 4979 1149 1724 384 119 1119 1034
internal_value=0 0.000518773 0.00148995 -0.0138634 -0.0166508 0.00315039 0.040425
internal_weight=0 1834.84 1775.57 173.284 169.579 1602.29 39.2075
internal_count=24853 19874 18725 2227 1843 16498 2153
is_linear=0
shrinkage=0.1


Tree=92
num_leaves=8
num_cat=0
split_feature=11 1 11 4 2 2 1
split_gain=6.22911 6.29187 11.2674 11.2044 8.41126 7.14535 12.6165
threshold=0.012813568115234377 88746.500000000015 0.00073266029357910167 12.472656250000002 3074.5000000000005 5203.5000000000009 52490.500000000007
decision_type=2 2 2 2 2 2 2
left_child=1 2 4 -3 -1 -4 -7
right_child=-2 3 5 -5 -6 6 -8
leaf_value=0.10269785807094417 -0.14919975082312728 -0.017529539722265577 0.0036827994683996399 0.101538104487289 0.014719378800384387 -0.020098148903371651 0.02167890151417326
leaf_weight=11.203370559727771 2.8128366315650046 272.37997624056879 723.16234102325689 8.1389744599146052 361.55908080009976 380.37880531490373 89.24802382690541
leaf_count=162 95 2842 10374 1163 3592 4187 2536
internal_value=0 -0.00028306 0.00218817 -0.0140748 0.0173637 -0.00255438 -0.0121588
internal_weight=0 1846.07 1565.55 280.519 372.762 1192.79 469.627
internal_count=24951 24856 20851 4005 3754 17097 6723
is_linear=0
shrinkage=0.1


Tree=93
num_leaves=8
num_cat=0
split_feature=4 9 3 1 5 4 8
split_gain=5.98893 6.58094 5.92558 6.40819 9.40363 10.8759 6.51409
threshold=36.859375000000007 0.0015721321105957033 68.500000000000014 36421.000000000007 0.00014144182205200198 85.281250000000014 0.17755126953125003
decision_type=2 2 2 2 2 2 2
left_child=1 -1 3 4 -2 6 -6
right_child=2 -3 -4 -5 5 -7 -8
leaf_value=-0.0023525656510769064 0.1127393724467799 -0.18293038360908886 0.09006588207742626 0.10473246095704572 -0.26610266661389204 0.058654623382562956 0.10205005478634738
leaf_weight=1812.9502733622503 2.5013818237930554 2.0200640782713881 13.984764648965209 3.7575392802245906 3.4686871638987213 2.2686715779127553 0.55769576353486616
leaf_count=17474 31 14 6035 628 145 552 54
internal_value=0 -0.00255359 0.0452966 -0.00457584 -0.0512715 -0.116446 -0.215104
internal_weight=0 1814.97 26.5387 12.554 8.79644 6.29505 4.02638
internal_count=24933 17488 7445 1410 782 751 199
is_linear=0
shrinkage=0.1


Tree=94
num_leaves=8
num_cat=0
split_feature=3 11 11 13 4 13 11
split_gain=5.28656 8.01799 10.1219 8.40931 6.78339 6.3229 6.78099
threshold=101.50000000000001 0.0025625228881835942 0.0022096633911132817 26.709846593477121 0.30017089843750006 21.095466767698223 0.0003970861434936524
decision_type=2 2 2 2 2 2 2
left_child=-1 2 3 5 -5 6 -2
right_child=1 -3 -4 4 -6 -7 -8
leaf_value=-0.0014130364380794914 -0.12636009770052556 0.093183936027106881 -0.11608371042005049 0.082902928605837214 -0.080123368745857626 0.14492028147249092 0.032456582753237297
leaf_weight=1736.2311507128761 2.8030386546743093 13.590972653997595 5.8735641965031382 3.2055259596090755 12.519119612115899 4.7787524439190738 65.562239219623734
leaf_count=14885 265 4328 479 93 260 286 4423
internal_value=0 0.0213562 0.011052 0.0194552 -0.0468884 0.0337181 0.0259443
internal_weight=0 108.333 94.7422 88.8687 15.7246 73.144 68.3653
internal_count=25019 10134 5806 5327 353 4974 4688
is_linear=0
shrinkage=0.1


Tree=95
num_leaves=8
num_cat=0
split_feature=1 3 4 1 4 4 3
split_gain=4.97694 16.1189 10.3995 8.93578 6.86035 6.42041 6.21049
threshold=22353.500000000004 68.500000000000014 10.230468750000002 6778.5000000000009 0.040145874023437507 48.859375000000007 66.500000000000014
decision_type=2 2 2 2 2 2 2
left_child=1 2 -1 -3 -5 6 -2
right_child=5 3 -4 4 -6 -7 -8
leaf_value=0.0061281661506684222 0.0052008206794963603 -0.032783665446272876 -0.068507397710567186 -0.092091890418653108 0.076880957751487941 0.070122079522453501 -0.0076740281458315268
leaf_weight=165.16065769642591 610.04272549273446 9.9954982839990389 21.047884740226436 2.5110113086411721 55.583593452582136 12.197896944846432 971.03129531627928
leaf_count=969 3899 81 385 28 1087 5991 12526
internal_value=0 0.012916 -0.00230828 0.0545504 0.0695769 -0.0021488 -0.00270638
internal_weight=0 254.299 186.209 68.0901 58.0946 1593.27 1581.07
internal_count=24966 2550 1354 1196 1115 22416 16425
is_linear=0
shrinkage=0.1


Tree=96
num_leaves=8
num_cat=0
split_feature=0 4 2 5 12 2 12
split_gain=4.76655 12.7242 6.80845 6.45508 9.83384 7.79037 7.0216
threshold=3.5000000000000004 11.816406250000002 5296.5000000000009 9.0152025222778334e-05 3.5000000000000004 4828.5000000000009 1.0000000180025095e-35
decision_type=2 2 2 2 2 2 2
left_child=-1 3 -3 5 -5 6 -2
right_child=1 2 -4 4 -6 -7 -8
leaf_value=0.0050537812548643235 -0.0044387692158051432 0.025229923860089595 0.11946717653591353 -0.025543581911315602 -0.1544676767087716 -0.020829658822905748 0.027157091420517317
leaf_weight=1107.4884656168069 329.27861462358851 30.095349220180651 10.287070477919768 46.362165981379803 6.781516609597019 222.96144989074674 89.440299605834298
leaf_count=12920 1933 3056 1598 397 149 2510 2448
internal_value=0 -0.00533236 0.049237 -0.0085039 -0.0419962 -0.00573005 0.00231026
internal_weight=0 735.206 40.3824 694.824 53.1437 641.68 418.719
internal_count=25011 12091 4654 7437 546 6891 4381
is_linear=0
shrinkage=0.1


Tree=97
num_leaves=8
num_cat=0
split_feature=11 8 2 5 13 8 0
split_gain=6.95647 9.19608 7.23355 11.525 6.80315 9.56532 6.30437
threshold=0.0016217231750488283 0.019050598144531253 3240.5000000000005 7.2568655014038099e-05 23.661657052601154 0.14666748046875003 4.5000000000000009
decision_type=2 2 2 2 2 2 2
left_child=2 -2 3 6 -3 -6 -1
right_child=1 4 -4 -5 5 -7 -8
leaf_value=0.042651277667680447 -0.054136410404511559 -0.014491459816633518 -0.00070937747220705099 -0.043274216642686818 0.0010568898243317551 0.078847788992642748 0.010575471999407761
leaf_weight=105.86520179151557 45.281329402234405 296.04854517238709 1115.3605861788965 28.255325714097125 90.096989571247832 19.169592666599783 145.48161183076445
leaf_count=929 502 9224 10575 476 1210 503 1603
internal_value=0 -0.0113956 0.00289605 0.0172785 -0.00662062 0.0147047 0.0240856
internal_weight=0 450.596 1394.96 279.602 405.315 109.267 251.347
internal_count=25022 11439 13583 3008 10937 1713 2532
is_linear=0
shrinkage=0.1


Tree=98
num_leaves=8
num_cat=0
split_feature=2 9 12 5 13 9 3
split_gain=6.00366 5.93868 9.2434 12.2189 11.4934 15.9753 8.60696
threshold=11414.500000000002 0.00015980005264282229 1.5000000000000002 6.3925981521606459e-05 30.811259195042243 9.5039606094360365e-05 109.50000000000001
decision_type=2 2 2 2 2 2 2
left_child=1 2 -1 4 -4 -6 -3
right_child=-2 6 3 -5 5 -7 -8
leaf_value=0.0068066782337935705 -0.013706517414571733 -0.0030545663961052028 0.068480919657621847 -0.13776501133633365 0.10194568884906779 -0.88998871261346846 0.07867081748110262
leaf_weight=554.23641092336038 254.46939498710708 969.17861001237179 48.865533441479784 3.2319189977715714 0.35337791062192891 0.29989099828526378 13.059818833484313
leaf_count=3070 2899 9861 2985 188 48 5 5955
internal_value=0 0.00283753 0.0106138 0.0506136 0.0629094 -0.353647 -0.00196791
internal_weight=0 1589.23 606.987 52.7507 49.5188 0.653269 982.238
internal_count=25011 22112 6296 3226 3038 53 15816
is_linear=0
shrinkage=0.1


Tree=99
num_leaves=8
num_cat=0
split_feature=11 1 11 1 13 3 3
split_gain=5.32484 5.15111 6.13154 6.25346 11.5757 5.37541 5.39917
threshold=0.012813568115234377 114457.00000000001 0.00079751014709472667 51986.500000000007 7.1295736664915355 125.50000000000001 93.500000000000014
decision_type=2 2 2 2 2 2 2
left_child=1 2 3 -1 -5 6 -4
right_child=-2 -3 5 4 -6 -7 -8
leaf_value=0.021324803157496297 -0.14382899171789931 -0.016000456312889388 0.0016303319246859457 0.027393145993892584 -0.01942642870035512 0.10085055397157378 -0.01411476423782735
